<?xml version="1.0"?>
<opencv_storage>
<trained_hog type_id="opencv-object-detector-hog">
  <winSize>
    64 64</winSize>
  <blockSize>
    16 16</blockSize>
  <blockStride>
    8 8</blockStride>
  <cellSize>
    8 8</cellSize>
  <nbins>9</nbins>
  <derivAperture>1</derivAperture>
  <winSigma>4.</winSigma>
  <histogramNormType>0</histogramNormType>
  <L2HysThreshold>2.0000000000000001e-01</L2HysThreshold>
  <gammaCorrection>1</gammaCorrection>
  <nlevels>64</nlevels>
  <signedGradient>0</signedGradient>
  <SVMDetector>
    -6.70047700e-02 -1.63444541e-02 2.49910727e-03 -1.71295572e-02
    -8.65320787e-02 -2.88429260e-02 4.78656366e-02 8.80017225e-03
    -7.51335546e-02 -2.58750208e-02 2.25567520e-02 5.29476702e-02
    2.39645839e-02 -9.19388160e-02 3.71637382e-03 1.06061324e-02
    -2.47453544e-02 -4.71849218e-02 -1.29635576e-02 3.67944292e-03
    -2.49445962e-04 -1.07472911e-02 -7.13149235e-02 -3.04847509e-02
    2.36256532e-02 1.56550165e-02 -6.06376566e-02 4.34539244e-02
    5.32668009e-02 1.24563528e-02 -4.03656974e-04 -2.28483118e-02
    8.97657685e-03 4.21689786e-02 2.39865389e-02 3.04374117e-02
    -5.91983758e-02 1.33176874e-02 -2.71135457e-02 -3.08700819e-02
    -9.87002924e-02 -2.16981117e-02 -1.57925151e-02 -6.24021962e-02
    -5.16215898e-02 6.44745538e-03 5.82053438e-02 -1.23763442e-04
    -2.47923750e-02 -7.60453939e-02 -4.85383570e-02 4.74186912e-02
    3.79726440e-02 1.33283911e-02 2.69293897e-02 1.38420956e-02
    9.37418640e-03 3.76856793e-03 -4.05516699e-02 -3.12269619e-03
    1.07857687e-02 -3.71238999e-02 -2.71951295e-02 7.52021000e-02
    9.18787122e-02 9.29546654e-02 5.68051971e-02 2.25739684e-02
    -1.49489511e-02 4.76383083e-02 4.03774455e-02 4.69631003e-03
    -2.81646866e-02 6.30965980e-04 -7.51123903e-03 -3.79220732e-02
    -6.72551617e-02 -4.19263579e-02 2.88863350e-02 1.12258755e-02
    -2.98912860e-02 1.53186433e-02 2.90699489e-02 2.47749407e-02
    -1.09581063e-02 -5.90138622e-02 -2.31133029e-02 3.79506908e-02
    3.07247471e-02 -2.17223130e-02 -6.06281217e-03 4.17583957e-02
    3.44708003e-02 -1.48697710e-02 -2.12514177e-02 -2.12947931e-02
    4.06183265e-02 3.65978181e-02 -2.18350701e-02 4.85214368e-02
    4.50071208e-02 5.14431335e-02 2.30730250e-02 3.90704535e-02
    2.71322224e-02 4.38480191e-02 5.99094145e-02 2.48313621e-02
    3.40814590e-02 1.91048719e-02 3.48268338e-02 -2.72444431e-02
    -2.79944632e-02 -3.57475765e-02 4.76941234e-03 1.55747728e-02
    -3.60629112e-02 2.29403600e-02 2.75627784e-02 3.83679233e-02
    -2.92149186e-02 -2.13267952e-02 -2.86063664e-02 -9.72026214e-03
    1.45924333e-02 -4.84684622e-03 4.25626338e-02 4.24050950e-02
    2.51751114e-02 1.04206540e-02 2.65830774e-02 1.81682259e-02
    2.21916996e-02 2.04975866e-02 1.96950380e-02 4.78445105e-02
    4.82960679e-02 4.55047563e-03 9.88601800e-03 3.65001410e-02
    6.38666563e-03 2.54888441e-02 5.32961078e-02 3.81052308e-02
    8.43473361e-04 2.61787102e-02 3.02666556e-02 -8.19097552e-03
    -4.73342426e-02 -7.57213458e-02 -4.95630912e-02 3.31070684e-02
    -1.52728045e-02 1.92089211e-02 7.47076049e-03 4.67667840e-02
    1.93708595e-02 -6.51438683e-02 -4.27082926e-02 -2.17530206e-02
    4.33994196e-02 2.99680419e-02 1.70835573e-02 2.31511258e-02
    -1.23095354e-02 3.57095897e-02 6.20279694e-03 -7.45975226e-03
    3.12055480e-02 8.09935033e-02 2.05782000e-02 3.19670178e-02
    2.05790214e-02 2.26254612e-02 6.27492070e-02 -1.78114977e-02
    3.23956981e-02 3.03976499e-02 5.81978373e-02 6.48392439e-02
    -8.09373613e-03 -2.22612675e-02 1.18171899e-02 -9.74449702e-03
    -4.69179042e-02 5.32479910e-03 1.68288313e-02 2.55925693e-02
    4.76321578e-03 -2.17763148e-02 -1.79820172e-02 -2.47352514e-02
    -3.28531526e-02 -8.15169290e-02 -1.54897077e-02 1.63001120e-02
    1.66794807e-02 -5.11348853e-03 6.26025647e-02 3.70863527e-02
    2.92989314e-02 2.50295140e-02 2.29357742e-02 6.33508489e-02
    6.93562031e-02 2.56012455e-02 4.25364301e-02 5.49089909e-03
    6.64457586e-03 -3.64865437e-02 -1.95893869e-02 -2.59224549e-02
    3.94584797e-02 1.38481138e-02 1.25589734e-02 4.56923200e-03
    -9.97170899e-03 1.19446432e-02 8.72824155e-03 -5.81580251e-02
    -3.92720141e-02 -3.42163555e-02 4.96010147e-02 3.47131379e-02
    2.34796368e-02 -7.58217946e-02 3.13677802e-03 -2.53353473e-02
    -1.03928804e-01 -7.83153102e-02 -2.74591539e-02 2.01206491e-03
    -2.59127859e-02 -7.64585137e-02 3.55684049e-02 2.02285443e-02
    2.03959667e-03 -3.00340466e-02 -8.99793115e-03 -9.10761580e-03
    7.79144978e-03 2.78800391e-02 4.42977101e-02 -2.03435495e-02
    8.42458196e-03 -3.69565822e-02 -2.91528311e-02 -3.36507782e-02
    2.09278744e-02 2.95399707e-02 3.43346447e-02 -8.55397619e-03
    -3.12506482e-02 -4.04222682e-02 -2.22327877e-02 1.05150295e-02
    -5.46154045e-02 -4.73915413e-02 -7.02211447e-03 -7.77983218e-02
    -8.69518146e-02 1.53480880e-02 2.28345525e-02 1.22424951e-02
    2.57060211e-02 -1.49971815e-02 -2.73609497e-02 3.44987400e-03
    -5.49573898e-02 -7.32509866e-02 -2.01911223e-03 -6.58210134e-03
    -7.44170556e-03 1.26937097e-02 -3.94767635e-02 -6.07300475e-02
    1.90610718e-02 -1.46541689e-02 -1.24113113e-02 2.18042005e-02
    5.91883287e-02 1.07065691e-02 4.68519516e-02 -1.71313286e-02
    -4.03827503e-02 2.58884430e-02 5.21114329e-03 -3.55627127e-02
    -1.50389085e-02 -2.41008736e-02 -5.80463884e-03 -3.88900489e-02
    -6.34749830e-02 -6.64458871e-02 -1.27975373e-02 -6.94100112e-02
    -7.68269822e-02 1.76300853e-02 1.75043065e-02 1.68493390e-02
    8.36127065e-03 -1.50995618e-02 -7.36016259e-02 -1.40588069e-02
    -1.19791953e-02 -6.17711991e-02 -2.62413416e-02 5.34973433e-03
    -1.43171847e-03 5.72361099e-03 -7.53934607e-02 -7.29261860e-02
    -1.70732215e-02 -2.61975080e-02 -8.00736323e-02 4.59531546e-02
    8.82482752e-02 3.53055671e-02 1.51439244e-02 3.81476968e-03
    -5.53586474e-03 2.26731002e-02 1.94416232e-02 -2.20645946e-02
    -9.01182648e-03 1.57691029e-04 -6.71028951e-03 -1.55341141e-02
    -2.96778213e-02 -4.87805232e-02 -7.85798940e-04 -1.03547266e-02
    -2.94752754e-02 -2.11014529e-03 -2.15461403e-02 -3.64076556e-03
    -6.29223278e-03 7.49785127e-03 -2.46896669e-02 -6.99196383e-03
    -3.89913912e-03 -5.13785752e-04 5.16361464e-03 3.45311426e-02
    7.04798382e-03 -2.11949716e-03 -2.44433247e-02 -4.92423698e-02
    9.28812101e-03 -5.05567528e-03 -2.41712667e-02 7.12541118e-02
    5.81788346e-02 1.91619508e-02 4.11832221e-02 1.45783098e-02
    -9.07396432e-03 1.93475503e-02 2.72633061e-02 4.16772440e-02
    5.05588832e-04 -2.05234755e-02 -3.60430181e-02 -4.15176451e-02
    -1.07874637e-02 -6.04759669e-04 -1.02872178e-02 -2.62592845e-02
    -4.39547114e-02 -6.52390020e-03 -1.52629009e-02 -4.05992232e-02
    -1.23638124e-03 -2.32808385e-02 -3.89736448e-03 -1.16209779e-02
    -2.03527994e-02 -2.87871324e-02 2.57254802e-02 2.19473671e-02
    -1.98292173e-02 1.98128726e-02 8.85091163e-03 1.40005192e-02
    2.19455734e-02 4.43857014e-02 1.91979855e-02 2.79398169e-02
    1.25285899e-02 1.36905292e-04 2.48471461e-02 2.29510455e-03
    5.05335927e-02 2.82308869e-02 2.68901456e-02 1.20633179e-02
    -6.14154972e-02 -4.56954762e-02 -5.34866117e-02 -1.80670097e-02
    2.34442092e-02 -2.89819203e-02 -6.73629437e-03 2.39776168e-02
    -2.63698678e-02 -1.26983309e-02 -3.52070145e-02 -4.70306985e-02
    1.52690103e-03 2.11857893e-02 2.31329668e-02 -2.34731324e-02
    -3.13444226e-03 -2.23471299e-02 3.25772315e-02 2.14113127e-02
    3.44547140e-03 2.06196830e-02 1.50224110e-02 2.11719535e-02
    3.47815305e-02 4.40828279e-02 5.36840968e-03 8.06540716e-03
    -1.18291518e-02 -3.11076548e-02 -4.26454470e-03 -4.70825508e-02
    2.65137721e-02 1.03758201e-02 2.77133137e-02 3.72495279e-02
    5.41585311e-03 -1.28679695e-02 -4.09784317e-02 -5.04636765e-02
    6.98563177e-03 3.99423614e-02 1.27183273e-02 1.32683497e-02
    2.34930106e-02 -3.17973234e-02 -2.67229080e-02 -7.18019828e-02
    -6.76091388e-02 -5.36825089e-03 3.99534032e-03 1.32997346e-03
    -2.24444848e-02 1.27769134e-03 1.32762585e-02 1.52096311e-02
    -4.11540531e-02 -1.96943488e-02 -2.02821847e-02 7.43636563e-02
    3.56787778e-02 6.53093457e-02 6.77130222e-02 -2.39250343e-02
    -2.35944707e-02 -5.81193902e-02 -2.82140430e-02 -4.25095297e-02
    3.31648216e-02 1.70632973e-02 5.29679516e-03 4.79222601e-03
    -2.86111422e-02 -2.11169943e-02 -3.49472128e-02 -2.62396205e-02
    2.46847607e-02 -2.83998041e-03 -3.44498840e-04 -5.50071476e-03
    -1.55348983e-02 -8.72037113e-02 -5.80196679e-02 -7.55572990e-02
    -5.54564781e-02 1.90812647e-02 -2.19403729e-02 6.27493858e-03
    -1.25765251e-02 -5.19080609e-02 8.97982996e-03 2.79306024e-02
    -5.09911031e-03 6.15889532e-03 9.51466442e-04 1.94901582e-02
    8.99771415e-03 1.73531082e-02 2.16250774e-02 -5.00467494e-02
    -6.94330409e-03 -6.15083538e-02 -1.45658609e-02 -3.64622660e-02
    4.34047775e-03 -1.33125260e-02 6.09108713e-03 -3.74104455e-02
    -4.94382456e-02 -3.75550166e-02 -3.99892405e-02 2.40132380e-02
    -3.49858105e-02 -6.00833558e-02 -1.83244073e-03 3.17097246e-03
    -2.99763754e-02 -1.08548934e-02 2.82299109e-02 -7.51748914e-03
    1.37645137e-02 -2.83247381e-02 -6.04703240e-02 -7.23813102e-03
    -2.10606214e-03 -4.86725830e-02 -4.22144681e-02 -6.35180622e-02
    -3.19428444e-02 3.00326310e-02 -2.45427955e-02 -3.55379395e-02
    -1.72567572e-02 1.75371543e-02 -3.45976930e-03 1.22165056e-02
    1.36562502e-02 -4.09694796e-04 2.19461638e-02 1.67833548e-02
    3.49782128e-03 1.60889106e-03 5.65015769e-04 -6.80929096e-03
    -3.41787562e-02 -1.65061615e-02 -2.38411091e-02 -9.88109689e-03
    -4.08998579e-02 -1.86368655e-02 -1.90394297e-02 -4.16802242e-02
    -6.88725188e-02 -3.21914023e-03 3.73474509e-02 1.57616585e-02
    2.83350907e-02 2.09129676e-02 -1.00537874e-02 -1.11262165e-02
    -1.17070191e-02 -3.42724510e-02 -5.13226017e-02 -1.00897802e-02
    -1.30415969e-02 -9.59136058e-03 -1.81360077e-02 -4.71152328e-02
    -4.11922075e-02 -4.70931120e-02 -6.93223923e-02 -1.18866432e-02
    1.81610845e-02 1.92940291e-02 4.01874185e-02 3.91558260e-02
    -2.90276203e-02 -1.12049915e-02 2.29282137e-02 -1.51058873e-02
    7.52129359e-03 2.03876756e-02 -4.10429761e-02 7.53559871e-03
    -2.53088847e-02 -2.29314659e-02 -5.32172108e-03 -2.43666582e-03
    -8.90619121e-03 1.21105546e-02 -3.22076445e-03 -1.73169393e-02
    3.27932164e-02 2.69216951e-02 4.06746604e-02 -4.62271599e-03
    7.28941476e-03 7.51207117e-04 1.69172199e-04 -1.58426054e-02
    -3.67842726e-02 3.33637446e-02 5.09748096e-03 -4.53137010e-02
    -3.28819230e-02 -1.49023021e-03 -1.26417773e-03 8.62280652e-03
    1.00176521e-02 -1.75009780e-02 1.36923855e-02 2.53585204e-02
    2.35479698e-02 -8.11426155e-03 -8.05923250e-03 1.76982936e-02
    -3.09638213e-02 -4.17384990e-02 -4.83387001e-02 -2.33258121e-02
    4.56004329e-02 -1.27750142e-02 1.36848129e-02 4.10877392e-02
    6.65671797e-03 -1.57664120e-02 -3.03895008e-02 -2.63320431e-02
    1.21005215e-02 3.11091281e-02 6.23000190e-02 7.97687098e-03
    2.70069446e-02 6.69599976e-03 -1.66646764e-02 -1.55042624e-02
    -1.88660156e-02 -3.77094410e-02 2.15205476e-02 -3.19664776e-02
    -6.57890504e-03 2.43604332e-02 2.37419195e-02 -1.47649208e-02
    3.85705265e-03 4.69445367e-04 -4.02391981e-03 2.23111976e-02
    9.33828205e-03 -9.82555561e-03 1.52862230e-02 2.84714065e-02
    -1.03417477e-02 -1.66067071e-02 -1.35109425e-02 2.58066691e-02
    4.82682474e-02 -1.08919721e-02 3.11330892e-02 2.14153640e-02
    -6.37480384e-03 1.29254628e-02 -2.24694572e-02 5.70715238e-05
    3.68995257e-02 2.15638746e-02 2.78732665e-02 2.82044578e-02
    1.20551158e-02 1.11186430e-02 -8.94075073e-03 -1.72994547e-02
    -1.25080636e-02 -2.45824810e-02 3.68767814e-03 -1.47098145e-02
    3.79107334e-02 1.79858003e-02 2.35880893e-02 -1.60290897e-02
    -4.46820967e-02 -5.17627550e-03 -3.27686267e-03 6.41101645e-03
    -3.57047236e-03 4.12348807e-02 2.58578546e-02 1.68091822e-02
    -2.05644723e-02 -1.33044980e-02 -2.30230428e-02 1.76726095e-02
    4.09101658e-02 8.70894268e-02 2.86342632e-02 1.17149884e-02
    2.16737259e-02 -7.74289370e-02 -4.64747697e-02 -5.80697842e-02
    -1.14339171e-02 6.01879600e-03 2.06689611e-02 -2.76823714e-02
    -5.04773743e-02 -2.52888054e-02 -3.53987980e-06 1.47745141e-03
    -1.26670091e-03 6.25800043e-02 4.35254164e-02 4.71097007e-02
    3.62634733e-02 3.38924713e-02 3.08398791e-02 -3.90048772e-02
    -3.41686653e-03 -3.64879817e-02 3.68003547e-02 -9.19429585e-03
    4.53671394e-03 -1.62284430e-02 -5.11341281e-02 -6.17244933e-03
    -1.99608598e-02 -4.88708960e-03 -3.02112736e-02 1.36371311e-02
    4.13672961e-02 1.99767724e-02 8.47050268e-03 -1.24871908e-02
    6.72478694e-03 -3.81033979e-02 -1.29195163e-02 -7.87884519e-02
    -3.70723531e-02 -7.23408302e-03 1.80395916e-02 -1.02242250e-02
    -2.81015337e-02 -5.33573329e-02 -1.43822306e-03 1.18766986e-02
    -1.89992953e-02 3.59812602e-02 5.31950332e-02 5.74750751e-02
    2.36529876e-02 3.98558518e-03 2.17136256e-02 -6.18056804e-02
    -3.79864201e-02 -7.90904388e-02 -3.50293592e-02 -5.70644774e-02
    4.67844913e-03 -3.12291668e-04 -2.44148355e-02 -5.51624112e-02
    -4.74570356e-02 -7.04389662e-02 -5.69232590e-02 2.08850950e-02
    -1.66472665e-03 -1.23440186e-02 -3.55558358e-02 -3.12801674e-02
    -2.88294740e-02 -1.07074650e-02 -3.82893011e-02 -4.63363305e-02
    2.16265302e-02 4.09259051e-02 -5.49572799e-03 -4.76878956e-02
    -2.85424087e-02 -1.17941778e-02 -3.22268866e-02 -4.40488011e-02
    -5.02657704e-02 -6.22735452e-03 -3.69386151e-02 3.04647209e-03
    -6.11782558e-02 -7.88939297e-02 -5.23589179e-02 -2.12372672e-02
    -3.54937948e-02 -4.46888469e-02 -2.86585130e-02 1.28823230e-02
    1.53205721e-02 -4.28467244e-02 -3.50166671e-02 -2.42765583e-02
    -6.09294921e-02 -3.74226123e-02 -4.31625769e-02 1.20505309e-02
    1.33883888e-02 1.94544643e-02 -5.01349382e-02 -5.60003631e-02
    -5.80654852e-02 -3.18182260e-02 -2.49638185e-02 -2.55797268e-03
    4.16317694e-02 2.02986095e-02 4.01143497e-03 -3.99465673e-03
    1.13837747e-02 -2.46928409e-02 -6.36120439e-02 -6.36918023e-02
    -6.48864955e-02 1.68371946e-04 7.23596546e-04 2.13855575e-03
    -4.85405698e-02 -3.67022343e-02 -7.12340176e-02 -3.14355418e-02
    9.05844476e-03 -1.81662962e-02 -1.30984765e-02 2.28309748e-03
    3.05824969e-02 -1.33110182e-02 -2.54336130e-02 -4.14520353e-02
    -1.60657559e-02 -4.57876399e-02 -4.67535555e-02 2.90269423e-02
    3.77898552e-02 -1.50505006e-02 -3.19445692e-02 2.06592288e-02
    9.10544582e-03 -2.73173489e-02 -1.24595733e-02 -3.23836058e-02
    1.15618696e-02 6.91217780e-02 4.19908725e-02 -2.30268277e-02
    8.67587980e-04 -3.75585747e-03 -1.79644104e-03 1.39742438e-02
    -3.35930400e-02 -1.61839593e-02 1.53435282e-02 8.29663593e-03
    -4.99559641e-02 -3.57900485e-02 -1.63328703e-02 -7.29987491e-03
    -8.31072405e-03 -2.68996004e-02 4.53090519e-02 4.92780618e-02
    -1.31887291e-03 -3.54969017e-02 -9.99168586e-03 -2.39840988e-02
    -2.02522688e-02 -3.98778580e-02 -3.37933935e-02 -3.11058927e-02
    5.17852977e-02 9.21228155e-03 -5.61950495e-03 -7.95441389e-04
    -3.04278289e-03 -2.09126249e-02 -9.46430676e-03 -6.90443860e-03
    1.73261445e-02 6.21395782e-02 2.68203393e-02 1.79403331e-02
    1.97537933e-02 1.13222608e-02 2.83257035e-03 -9.23756137e-03
    -2.38931868e-02 4.51014703e-03 3.34510580e-02 -4.25550416e-02
    -4.11496572e-02 -5.46061210e-02 -2.20168438e-02 8.18706863e-03
    1.42546920e-02 7.36995647e-03 2.79823616e-02 1.89422611e-02
    -6.43007597e-03 -2.74145063e-02 -2.27231365e-02 -1.80497970e-02
    -9.51556116e-03 6.66393759e-03 9.46595147e-03 -1.63627025e-02
    7.27336109e-02 -1.06947618e-02 4.76650260e-02 1.59776099e-02
    4.65951953e-03 -1.80648994e-02 -3.17385350e-03 9.54770856e-03
    3.14170634e-03 3.45702581e-02 4.55064438e-02 3.48991789e-02
    7.87892193e-03 -2.47222069e-03 1.45627875e-02 1.30426669e-02
    4.15226221e-02 -1.71920878e-03 3.90720554e-02 -2.66296417e-02
    -6.65493868e-03 -7.79299717e-03 -9.64078680e-03 9.89195611e-03
    -5.72910998e-03 2.72318143e-02 3.41172889e-02 -1.00951502e-02
    -7.54296267e-03 2.52528116e-03 -1.29248332e-02 -9.02661029e-03
    -1.12758623e-02 7.95646571e-04 1.94249209e-02 2.60442551e-02
    9.75043997e-02 4.32085916e-02 2.29776520e-02 -1.09021133e-02
    -9.60118196e-04 -1.79314818e-02 -1.19222719e-02 4.57991008e-03
    1.52836898e-02 5.00112623e-02 3.15053649e-02 2.30997913e-02
    -4.57322039e-02 -1.60386525e-02 1.04332184e-02 -8.53909459e-03
    1.04476577e-02 4.24603298e-02 6.26613572e-02 1.34381885e-02
    8.59184004e-03 -1.23425061e-03 1.03462907e-02 -1.74384136e-02
    -5.62001020e-02 5.64432004e-03 4.39912686e-03 5.50163072e-03
    1.46144973e-02 -6.04846887e-03 -9.23804939e-03 -5.88125596e-03
    5.77645469e-03 1.06838392e-02 1.97135936e-02 2.50673667e-02
    4.50310931e-02 5.59838153e-02 4.19531614e-02 -5.05284057e-04
    6.94856886e-03 -5.48929162e-02 -5.20459786e-02 -7.75319710e-02
    -4.30252356e-03 -3.15852202e-02 3.25968340e-02 -4.27505188e-02
    -3.00107561e-02 -4.54706624e-02 8.07137135e-03 -3.30038159e-03
    3.48759294e-02 3.02673504e-02 3.03771701e-02 3.52267250e-02
    2.04780120e-02 2.11889483e-02 2.09303033e-02 -6.24704473e-02
    -3.65158059e-02 -2.69103665e-02 1.74610987e-02 -7.09894225e-02
    -1.51945623e-02 -9.02356803e-02 -5.11327833e-02 -6.29832596e-02
    2.10225699e-03 9.51663777e-03 -2.50418913e-02 -8.47969484e-03
    -8.99578724e-03 2.66619865e-02 -1.11461636e-02 -5.36466837e-02
    -4.06141430e-02 -4.54736687e-03 3.09467781e-03 2.29978431e-02
    2.21312027e-02 2.69175731e-02 4.23614942e-02 1.88728273e-02
    1.94335077e-02 1.03052724e-02 -2.87811942e-02 -1.78045302e-03
    -1.06683625e-02 -7.05820397e-02 -4.82714400e-02 1.46958446e-02
    -4.16235998e-02 -3.78507152e-02 -3.84455025e-02 -4.61135991e-02
    3.45680001e-03 2.87041441e-03 -6.24478944e-02 -5.18916771e-02
    6.42132619e-03 -9.17278882e-03 2.20435355e-02 -1.63049437e-03
    -6.29358143e-02 -3.60397398e-02 -3.78171466e-02 -5.49907126e-02
    -1.02941152e-02 8.94508604e-03 2.86552659e-03 2.54705898e-04
    -4.38399985e-02 -1.30321668e-03 2.86737233e-02 -5.46957878e-03
    -3.03096659e-02 3.76746804e-02 3.82726789e-02 2.72339229e-02
    3.12899537e-02 -7.96880689e-04 -7.15353414e-02 -3.79378796e-02
    -1.93622988e-02 -4.11332995e-02 -6.69485331e-02 -9.56446026e-03
    -3.61321904e-02 -2.81526539e-02 -2.72253752e-02 -3.84335481e-02
    -2.89443741e-03 -2.33586300e-02 -2.48880964e-02 -7.60103948e-03
    1.40156997e-02 1.36866281e-02 3.29761617e-02 -4.26764041e-03
    1.22132921e-03 7.01970328e-03 -2.23183129e-02 -3.98946963e-02
    3.14105973e-02 3.02605536e-02 -1.91059466e-02 4.12954856e-03
    1.59245506e-02 8.10980704e-03 3.67933768e-04 9.60966718e-05
    1.90989692e-02 5.12971506e-02 1.25434445e-02 -7.51921441e-03
    2.02152934e-02 7.31779216e-03 -1.67629886e-02 -1.59282808e-03
    -1.59734208e-02 -2.14829557e-02 -4.28005606e-02 -7.37610171e-05
    -4.23726216e-02 1.87276565e-02 6.35003624e-03 -1.52657628e-02
    -1.14341769e-02 -1.67581532e-02 4.90228161e-02 5.93922706e-03
    2.49485318e-02 -2.78355796e-02 -2.78689712e-03 4.76291683e-03
    2.41330229e-02 3.07090543e-02 6.32548705e-03 -3.23818885e-02
    3.78745720e-02 -2.25656088e-02 -1.50485169e-02 -1.87675785e-02
    -8.89976136e-03 3.12106311e-02 3.25822420e-02 1.90271251e-02
    1.56979207e-02 6.38771653e-02 1.08538684e-03 5.67304203e-03
    1.77036400e-03 7.15024164e-03 -1.18340161e-02 2.60968972e-02
    1.12130530e-02 -7.07878964e-03 1.98368672e-02 -2.77979691e-02
    -6.97125271e-02 -5.54527715e-02 -4.04001325e-02 4.23409464e-03
    1.09669259e-02 -2.63202959e-03 5.65323122e-02 -7.13297806e-04
    1.11162392e-02 -3.08059249e-02 -2.99215540e-02 -1.03039481e-02
    2.98331864e-02 3.00265625e-02 5.34497686e-02 -1.16159255e-02
    9.89367999e-03 -4.31394391e-03 -8.13676789e-03 -1.56456493e-02
    3.23121290e-04 2.67700534e-02 4.35219780e-02 6.53189868e-02
    1.76547375e-03 3.49551030e-02 2.15706527e-02 -8.86738580e-03
    -4.13615778e-02 -3.44159920e-03 1.02529640e-03 1.63019393e-02
    9.69510991e-03 -8.91459547e-03 1.04233194e-02 1.25925550e-02
    -1.72540955e-02 -1.48099782e-02 -2.54580082e-04 2.07230803e-02
    8.32463522e-03 9.69022699e-03 3.39633599e-02 -3.23335789e-02
    3.09724621e-02 -5.20114694e-03 -3.29995640e-02 1.20583121e-02
    3.61635350e-02 4.80675586e-02 5.29170297e-02 6.46614581e-02
    6.10517263e-02 5.49824797e-02 -6.43064687e-03 2.61340494e-04
    1.61735285e-02 1.72974553e-03 -3.64312269e-02 -1.31307738e-02
    1.98374745e-02 3.79801504e-02 3.78189199e-02 -5.24712168e-02
    -4.62815305e-03 -2.28134990e-02 2.70893387e-02 2.03594528e-02
    1.98911577e-02 8.22945908e-02 -5.26797678e-03 1.34883085e-02
    -2.39258111e-02 -1.40067944e-02 -9.66383796e-03 -2.76511125e-02
    -4.99189831e-02 -3.85417566e-02 2.05186494e-02 -3.65022570e-02
    -1.18756825e-02 -7.50968978e-02 -5.47082610e-02 -5.80846593e-02
    2.56618951e-02 1.56957638e-02 2.41013486e-02 4.97153811e-02
    7.57423863e-02 3.98609340e-02 -3.33354212e-02 1.85086429e-02
    1.50096826e-02 -6.39268085e-02 -2.01285072e-02 1.76228881e-02
    2.28044786e-03 -2.15963107e-02 -3.13170962e-02 -7.56063461e-02
    -3.82187627e-02 -6.23429604e-02 1.36528676e-02 4.31565946e-04
    8.22412502e-03 9.09586065e-03 1.65101886e-02 2.65668314e-02
    -3.94299477e-02 -1.91069010e-03 3.41368344e-04 -6.53835759e-02
    -3.66879590e-02 -3.32665257e-02 8.23288225e-03 -5.66070080e-02
    -1.16188191e-02 -7.57144541e-02 -2.87758019e-02 -4.25220020e-02
    -1.68214887e-02 -1.57297608e-02 2.46539861e-02 -4.92462963e-02
    -3.96599770e-02 2.37692799e-02 7.06436392e-03 1.10512388e-04
    2.51398399e-03 -2.25400589e-02 8.31798185e-03 5.03510498e-02
    -1.85187142e-02 -1.36180297e-02 6.79448918e-02 1.96106248e-02
    4.95506376e-02 2.21124403e-02 -8.41692016e-02 -6.38030991e-02
    -6.63099205e-03 -3.96195538e-02 -6.02649376e-02 5.16686196e-05
    -3.60435061e-02 -4.96403649e-02 -4.19067144e-02 -6.43666759e-02
    -5.66227511e-02 -3.19343526e-04 -2.82996409e-02 -1.51907653e-02
    2.03746930e-02 -6.01791404e-03 9.63218417e-03 1.35866832e-02
    -5.88197112e-02 -1.07914638e-02 2.53942702e-03 -7.94671103e-02
    -6.26189560e-02 3.23522091e-02 1.82949249e-02 4.45717154e-03
    -1.98810957e-02 -1.96671207e-02 3.17942649e-02 4.29491103e-02
    -6.42044190e-03 1.60734355e-02 2.99200360e-02 4.80251797e-02
    7.61881322e-02 3.71573232e-02 -7.48503357e-02 -7.85893947e-02
    -2.80609336e-02 -7.28243664e-02 -6.21269830e-02 -5.57811558e-02
    -1.72915440e-02 -2.74224579e-02 -9.97667294e-03 -7.40934610e-02
    -2.11265255e-02 -2.14799047e-02 -6.74513727e-02 -2.88778972e-02
    -5.19695133e-03 6.88856980e-03 1.19511858e-02 2.28496082e-02
    -1.35058705e-02 1.28391618e-02 2.78136656e-02 -3.22438776e-02
    -1.09601254e-02 1.94211844e-02 2.07548812e-02 3.70792970e-02
    6.93967240e-03 5.48951887e-02 3.49718779e-02 3.62070575e-02
    2.01008003e-03 1.88587662e-02 3.57551165e-02 2.97487564e-02
    6.24438971e-02 8.17084238e-02 -4.95421365e-02 -1.45953763e-02
    -7.59061379e-03 -4.10566926e-02 -1.42377559e-02 -3.55485780e-03
    -1.85639746e-02 -3.50506301e-03 -4.66491422e-03 -1.71751175e-02
    -1.63196884e-02 -2.14580838e-02 -1.96872521e-02 3.72933946e-03
    -1.06119039e-02 -1.01558054e-02 -2.74322331e-02 8.52855016e-03
    1.90870445e-02 4.35765348e-02 4.02031280e-02 1.93152893e-02
    2.12545265e-02 1.87662579e-02 -6.41198596e-03 2.13472974e-02
    3.16286087e-02 7.03549478e-03 4.32080515e-02 4.12084311e-02
    4.42986041e-02 4.13597077e-02 4.56014909e-02 1.60276908e-02
    2.26674937e-02 3.80631536e-02 -3.86278592e-02 -4.20984849e-02
    -2.25114115e-02 6.74353307e-03 -1.38739692e-02 -5.07289134e-02
    -5.22327274e-02 -3.00269462e-02 -6.59883313e-04 -1.27985571e-02
    -3.00458930e-02 -2.58213151e-02 -1.04669221e-02 -1.26246866e-02
    5.64772403e-04 -3.64379399e-02 -3.42503414e-02 -1.36065129e-02
    1.33186858e-02 6.06012233e-02 4.86082509e-02 2.74205413e-02
    3.81058343e-02 2.47804690e-02 1.28974095e-02 1.97423361e-02
    4.20254543e-02 4.62688133e-02 3.99454422e-02 2.32776534e-02
    3.54783386e-02 -6.66594133e-03 1.02695832e-02 -1.72858704e-02
    -2.34089838e-03 1.28351972e-02 -1.08257355e-02 1.51759405e-02
    -1.44207384e-02 -1.58309583e-02 2.43819458e-03 -2.48961765e-02
    -5.72283939e-02 -6.02484904e-02 -5.98838553e-02 -1.85212251e-02
    -2.72497232e-03 -4.17414382e-02 2.44666152e-02 -1.80976000e-02
    -7.20452471e-03 -4.28276211e-02 -2.93410085e-02 -1.20160254e-02
    6.31508976e-02 7.24394470e-02 2.81404536e-02 8.34213868e-02
    1.51550630e-02 -1.53814033e-02 -3.70212644e-02 1.71550699e-02
    2.36391164e-02 2.66458280e-03 2.46239342e-02 2.96709854e-02
    5.83960451e-02 1.61855072e-02 -3.20119411e-02 -5.61241098e-02
    -1.38702616e-02 -7.43005425e-03 2.19165739e-02 8.02857429e-03
    1.88485850e-04 3.39100175e-02 -2.02806294e-02 -5.13411723e-02
    -4.53894064e-02 -2.43306868e-02 3.48204025e-03 -9.81219951e-03
    -3.15844715e-02 -1.18306223e-02 2.64187180e-03 -4.47017215e-02
    -6.75995797e-02 -8.09715763e-02 -2.99440641e-02 -2.60663424e-02
    1.49554154e-02 2.15052832e-02 2.61430219e-02 3.90845276e-02
    6.03453815e-02 1.69464406e-02 -9.78445075e-03 2.80985758e-02
    1.48928864e-02 -3.88342738e-02 8.12902860e-03 3.47297848e-03
    1.66828707e-02 9.12936032e-03 -1.06066708e-02 -5.53443395e-02
    -1.44400345e-02 -4.07757126e-02 -1.97910592e-02 -1.49954874e-02
    -7.40813743e-03 -1.59243436e-03 6.01898762e-04 -2.22951230e-02
    -3.49649899e-02 -2.86486037e-02 -2.25035958e-02 -5.51163480e-02
    -1.31534813e-02 -7.60956621e-03 -8.63622408e-03 -2.46125506e-03
    -5.99639006e-02 -8.98022577e-02 -7.23362938e-02 -7.16484338e-02
    -4.88894098e-02 8.96532554e-03 4.12872843e-02 -1.93949379e-02
    -6.99925348e-02 9.58892610e-03 1.23686427e-02 3.21114971e-03
    -1.45011386e-02 1.17387744e-02 7.11599644e-03 5.33400550e-02
    1.92552749e-02 -1.50441546e-02 3.05045210e-02 2.49693394e-02
    5.78793623e-02 3.93434055e-02 -6.34354874e-02 9.62808635e-03
    4.29448076e-02 -3.73122022e-02 -9.54232961e-02 -6.20241463e-03
    -7.59821618e-04 -2.82372199e-02 -6.37767836e-02 -3.16128880e-02
    -2.41135117e-02 9.48448386e-03 -1.04411440e-02 -9.04848203e-02
    1.84982065e-02 3.95240076e-02 1.27426889e-02 -1.97271332e-02
    -2.68781185e-02 -2.85962373e-02 1.88644789e-02 4.67464235e-03
    -3.35822068e-02 3.98012437e-03 2.30999496e-02 3.02341636e-02
    2.21107304e-02 1.58672594e-02 4.14939709e-02 5.74502051e-02
    1.28001755e-03 2.08877549e-02 5.04480340e-02 8.80196169e-02
    9.00204629e-02 6.66496456e-02 -5.06040044e-02 -4.87652831e-02
    -1.26998229e-02 -3.02679949e-02 -8.31531584e-02 -3.08764596e-02
    -1.90950688e-02 1.21513931e-02 -7.20333084e-02 2.21713670e-02
    4.84660007e-02 5.13157286e-02 -4.33535092e-02 -6.75250217e-02
    -1.57033335e-02 1.28378468e-02 5.54746762e-02 5.03029674e-03
    -1.53062604e-02 3.17722484e-02 4.90120463e-02 -8.43944773e-03
    -9.59988311e-03 1.51209917e-03 2.74869036e-02 4.89606336e-02
    -2.65733129e-03 2.45823786e-02 6.67464435e-02 4.93725017e-02
    3.32653373e-02 3.48243713e-02 2.08245534e-02 5.84084019e-02
    5.45248948e-02 6.53723627e-02 -2.38589495e-02 1.22978045e-02
    2.29474176e-02 -4.08617370e-02 -5.78244627e-02 -3.10030747e-02
    -1.79251824e-02 -1.24090463e-02 -2.64758337e-02 -2.79018730e-02
    3.57394256e-02 2.95616370e-02 -8.18666164e-03 -5.06606661e-02
    -3.14927287e-02 2.29287148e-02 2.99423933e-02 2.06125621e-02
    3.22393179e-02 2.82873884e-02 3.96679677e-02 3.87074575e-02
    2.53527313e-02 9.96974390e-03 3.50880548e-02 4.44735177e-02
    4.49472554e-02 5.34783304e-02 7.27198943e-02 4.84201498e-02
    1.53583204e-02 5.14862388e-02 1.90105680e-02 1.75657254e-02
    3.02474387e-02 5.14598861e-02 -2.83714850e-02 2.10532006e-02
    -8.59047193e-03 -2.45269388e-02 -3.00374422e-02 -3.07644308e-02
    3.61084640e-02 2.36357115e-02 4.02316414e-02 8.31857603e-03
    2.29322985e-02 -1.14494693e-02 -1.37367519e-02 -3.78640518e-02
    -5.12853032e-03 4.78045195e-02 1.78372450e-02 3.46280523e-02
    3.05689797e-02 8.23590457e-02 3.30367684e-02 -3.22964625e-03
    1.40432687e-02 4.85659912e-02 1.36906644e-02 2.54265405e-02
    3.22342589e-02 7.40315244e-02 7.40119815e-02 3.76313254e-02
    5.01462482e-02 1.08706970e-02 5.28167672e-02 3.17268670e-02
    2.90392935e-02 4.26024906e-02 -9.20229219e-03 2.95568239e-02
    -6.05237409e-02 -6.94882497e-02 -7.22736642e-02 1.23545369e-02
    3.13580036e-02 2.32581664e-02 8.31760373e-03 1.92391723e-02
    4.88355085e-02 -1.51430769e-02 -4.55764495e-02 -9.70918089e-02
    1.88377518e-02 4.88555133e-02 9.68086161e-03 3.04996092e-02
    5.02854176e-02 5.66209629e-02 7.41579905e-02 8.05828869e-02
    3.68230306e-02 1.71537343e-02 3.11387535e-02 1.58675462e-02
    5.97619079e-02 1.07452534e-02 3.33118625e-02 1.45765282e-02
    4.18610275e-02 -4.38206457e-03 -1.11549515e-02 -2.62867957e-02
    2.09740689e-03 9.48073622e-03 -1.20696856e-03 4.15528342e-02
    5.18018752e-03 -6.40994357e-03 -5.65680712e-02 2.57220794e-03
    1.97224282e-02 -2.14349721e-02 7.71080330e-03 -6.39116508e-04
    2.71884687e-02 9.24278237e-03 -3.27223018e-02 -8.70763361e-02
    -1.81694888e-02 -3.78495939e-02 -3.60748097e-02 -2.40275767e-02
    4.74222489e-02 3.94526757e-02 1.98724587e-02 -1.25830329e-03
    1.08901355e-02 -3.30092311e-02 1.03490194e-02 2.51673218e-02
    3.92850749e-02 -7.70223909e-04 4.70779203e-02 2.70519014e-02
    1.87644120e-02 -3.63770593e-03 -3.82601991e-02 -3.45644876e-02
    1.48419868e-02 -1.35422545e-02 2.38859020e-02 4.41041514e-02
    4.61774766e-02 -4.01855186e-02 -4.40798476e-02 -5.48475683e-02
    8.67180433e-03 8.85328930e-03 -1.14532085e-02 -8.03124085e-02
    -1.66680049e-02 -2.49225902e-03 -2.94068363e-02 -1.07415028e-01
    -9.02360454e-02 -9.83145647e-03 6.95722876e-03 -8.56670737e-02
    -2.07935095e-01</SVMDetector></trained_hog>
</opencv_storage>
