<?xml version="1.0"?>
<opencv_storage>
<hog_descriptor type_id="opencv-object-detector-hog">
  <winSize>
    64 64</winSize>
  <blockSize>
    16 16</blockSize>
  <blockStride>
    8 8</blockStride>
  <cellSize>
    8 8</cellSize>
  <nbins>9</nbins>
  <derivAperture>1</derivAperture>
  <winSigma>4.</winSigma>
  <histogramNormType>0</histogramNormType>
  <L2HysThreshold>2.0000000000000001e-01</L2HysThreshold>
  <gammaCorrection>1</gammaCorrection>
  <nlevels>64</nlevels>
  <signedGradient>0</signedGradient>
  <SVMDetector>
    -3.63689885e-02 5.83867775e-03 -1.50565719e-02 -7.03829061e-03
    -7.62611255e-02 -3.15499380e-02 5.38383797e-02 9.57364123e-03
    -4.96210866e-02 -1.94079839e-02 2.19065626e-03 6.93980753e-02
    3.36451605e-02 -7.52502307e-02 -3.60869430e-03 3.16608921e-02
    -1.87707338e-02 -3.67179625e-02 3.31219994e-02 2.58638356e-02
    1.09626651e-02 1.62696671e-02 -1.65778622e-02 -8.79737083e-03
    5.93340881e-02 3.09208333e-02 -2.34254301e-02 2.70704906e-02
    2.69126575e-02 2.25046966e-02 -8.91224016e-03 -3.18786874e-02
    2.83693429e-02 3.67913842e-02 2.33328473e-02 1.34389568e-02
    -4.72488180e-02 -9.45706479e-03 2.52734404e-02 -1.73716526e-02
    -5.56162894e-02 -3.82012315e-02 7.89477769e-03 -4.35418300e-02
    -5.84407225e-02 -7.56398588e-03 4.93244044e-02 8.23776722e-02
    -6.39406452e-03 -6.56305999e-02 -6.69951439e-02 -9.34087485e-03
    3.75744700e-03 -9.03438590e-03 1.94499791e-02 2.76433416e-02
    4.35591787e-02 2.75107683e-03 9.13707446e-03 3.13632237e-03
    -2.48910976e-04 -2.69671045e-02 -3.35234264e-03 5.08679040e-02
    4.93166447e-02 8.78363624e-02 3.07697710e-02 1.37818698e-02
    -3.16973589e-02 1.74799701e-03 -8.49766936e-03 -8.10780097e-03
    -2.23548920e-03 1.13632111e-02 2.67203338e-02 -1.95728149e-02
    -5.19371815e-02 -3.63665037e-02 1.09639508e-03 7.45217782e-03
    -2.79861409e-03 4.05617170e-02 4.72330861e-02 5.62632643e-02
    -9.87580698e-03 -8.62901732e-02 -6.69738054e-02 -3.56965400e-02
    6.72462583e-03 -2.12437264e-03 2.86395308e-02 1.45845776e-02
    5.41195087e-02 1.97636131e-02 7.29989074e-03 -8.57695285e-03
    4.27522659e-02 1.21346684e-02 -2.48308154e-03 7.55857378e-02
    1.57951750e-02 4.72367406e-02 4.02203538e-02 1.71563160e-02
    6.46950491e-03 2.95461323e-02 4.33096960e-02 6.43530488e-02
    6.55325130e-04 7.73782656e-03 3.96144688e-02 -5.16028441e-02
    -8.15622956e-02 -4.46660444e-02 -6.40662620e-03 4.15180475e-02
    -4.41586599e-03 -2.14811042e-02 4.16500196e-02 5.27069159e-02
    -2.42193677e-02 -3.91154811e-02 -1.29155368e-02 7.91895948e-03
    5.11486717e-02 8.39202912e-05 3.72381732e-02 2.60848496e-02
    5.98460101e-02 2.95515209e-02 2.82285661e-02 4.20682803e-02
    4.29731645e-02 4.73229736e-02 4.41445559e-02 2.33845506e-02
    5.99616691e-02 4.06902768e-02 4.68514822e-02 3.14396806e-02
    5.87210171e-02 3.45314816e-02 9.80164409e-02 5.43959662e-02
    6.82191178e-03 5.18996418e-02 1.65596064e-02 -3.85581292e-02
    -8.29154626e-02 -6.89563379e-02 2.35709343e-02 6.14968203e-02
    1.19585013e-02 2.00463124e-02 4.21715453e-02 7.61132594e-03
    -3.94749455e-03 -9.88419279e-02 -4.56412844e-02 3.60398628e-02
    2.88833976e-02 1.75595991e-02 5.55858873e-02 5.45360334e-02
    1.96796451e-02 2.77934670e-02 6.27201796e-03 4.01289649e-02
    6.23753108e-02 9.87320244e-02 5.33838086e-02 6.41453937e-02
    7.43425563e-02 1.50477653e-02 4.64529470e-02 -2.62312274e-02
    2.16089189e-02 4.06307839e-02 4.20234501e-02 7.16356263e-02
    -2.91103162e-02 -1.55813759e-02 -6.76581264e-02 -2.82354895e-02
    -4.18835916e-02 3.55647989e-02 1.21741466e-01 3.41366455e-02
    -1.59116238e-02 -3.42085622e-02 -1.35907810e-02 -8.63727331e-02
    -5.16757816e-02 -8.66119936e-02 -2.24543773e-02 3.69721726e-02
    1.74104366e-02 -3.90261225e-02 5.82851171e-02 4.59262244e-02
    -4.29522283e-02 -2.98687909e-03 5.32306507e-02 7.85842985e-02
    1.00009196e-01 2.05264185e-02 5.81123643e-02 6.82731252e-03
    1.71356890e-02 -4.46129180e-02 5.71696460e-03 -2.63945218e-02
    3.93932685e-02 1.33772762e-02 1.23349475e-02 1.75111797e-02
    -2.68373471e-02 -3.47678619e-03 -5.99252246e-02 -7.77904242e-02
    -5.79299256e-02 -1.71168093e-02 6.41036108e-02 1.65181700e-02
    -2.35797581e-03 -9.61689502e-02 -4.53643911e-02 -3.67386416e-02
    -1.14581846e-01 -1.01839498e-01 -4.45174389e-02 -1.35422582e-02
    -1.68457180e-02 -7.09614307e-02 5.29987253e-02 1.66326854e-02
    -2.26225518e-02 -1.97087391e-03 4.12708409e-02 6.29886147e-03
    1.54520785e-02 1.97776239e-02 6.27719685e-02 1.27774430e-02
    -3.50672863e-02 -2.79029012e-02 -2.59585604e-02 3.11032822e-03
    3.91689641e-03 2.43525114e-02 1.74810681e-02 2.76357997e-02
    -7.77439214e-03 -2.50831638e-02 -7.63675757e-03 8.73236626e-04
    -2.20327657e-02 -1.27927242e-02 3.36320065e-02 -4.51008230e-02
    -4.43034284e-02 1.82936154e-02 4.46583284e-03 4.09805030e-02
    3.24093737e-02 3.64514953e-03 -1.96699277e-02 1.67327058e-02
    -2.80080326e-02 -2.52433773e-02 -2.64258613e-03 7.02213729e-03
    1.64321717e-02 9.97526851e-03 -5.18710865e-03 -3.54958139e-02
    1.21399416e-02 -2.75655389e-02 -3.67194340e-02 3.51648852e-02
    3.73579226e-02 3.24343592e-02 2.37145778e-02 -8.49240576e-04
    -1.69852953e-02 3.34042907e-02 1.08997468e-02 -2.13820674e-02
    -1.50095429e-02 -3.07507552e-02 1.76835991e-02 -3.66078541e-02
    -3.30441520e-02 -7.26163909e-02 -4.33715843e-02 -7.67024681e-02
    -5.56011535e-02 -3.63179226e-03 -1.52691025e-02 2.95155477e-02
    2.67117731e-02 -3.13189737e-02 -4.55117449e-02 -4.17711660e-02
    -7.14255720e-02 -6.44235760e-02 -1.37228030e-03 2.05929554e-03
    2.98134424e-02 1.43277682e-02 -5.88780455e-02 -7.37703964e-02
    -3.44206989e-02 -1.48350438e-02 -5.74853569e-02 5.45655228e-02
    4.84955534e-02 4.99225110e-02 4.76889275e-02 6.41604792e-03
    1.36170508e-02 -9.64303222e-03 1.10308602e-02 1.84177496e-02
    -2.24393439e-02 -3.94908041e-02 4.43905359e-03 -1.62235629e-02
    -2.25478094e-02 -1.90256890e-02 -3.66244791e-03 -4.37000580e-02
    -6.19002506e-02 -1.77829824e-02 -3.14135030e-02 4.40143421e-03
    -2.58204602e-02 -1.25498502e-02 -7.54163414e-03 -1.20462561e-02
    -4.39603738e-02 -3.28626148e-02 1.19485697e-02 1.69849768e-02
    4.01254110e-02 -6.01406035e-04 -3.67881916e-02 4.52104174e-02
    3.26371379e-02 3.43863247e-03 -9.70982295e-03 3.42761651e-02
    6.60439432e-02 1.59113407e-02 3.40108722e-02 -5.36806136e-03
    4.63201515e-02 3.57412957e-02 1.55371688e-02 9.29770339e-03
    -1.46703646e-02 -2.64069382e-02 -4.68321098e-03 -4.54703085e-02
    -4.01890418e-03 3.50143723e-02 2.12826617e-02 -2.69840471e-02
    -3.46148610e-02 -3.90753932e-02 -4.60881442e-02 -3.65909450e-02
    -1.20144356e-02 -2.36252975e-02 3.49586159e-02 5.49525348e-03
    -1.47790303e-02 -4.13473919e-02 2.53755711e-02 4.30441611e-02
    4.92711458e-03 1.05024092e-02 1.44271180e-02 4.21829149e-02
    4.76704203e-02 2.67867539e-02 1.72052812e-03 3.96122299e-02
    1.46782584e-02 1.63726835e-03 3.41357179e-02 -2.52312259e-03
    7.20308051e-02 3.94405015e-02 1.72009356e-02 -4.11624229e-03
    -5.80902062e-02 -3.99655811e-02 -6.38081282e-02 -5.23804463e-02
    -2.68816599e-03 7.40143703e-03 1.36544127e-02 6.57393131e-03
    -5.02497666e-02 -9.62463953e-03 -2.01155758e-03 -3.10842376e-02
    4.40481817e-03 3.61562916e-03 -1.30732460e-02 -3.32957767e-02
    -4.18738984e-02 -3.78179252e-02 3.38442996e-02 2.22973581e-02
    -1.99482478e-02 3.00359484e-02 -6.54316600e-03 3.71546596e-02
    5.07323779e-02 3.94746959e-02 2.30497052e-03 1.70607734e-02
    2.44861189e-02 -2.14088447e-02 1.69080794e-02 -4.65345494e-02
    2.89190989e-02 1.50340879e-02 5.32737980e-03 1.71683896e-02
    -4.36932873e-03 -2.70925369e-02 -8.04923698e-02 -4.35519703e-02
    4.43860404e-02 3.34395766e-02 4.87402007e-02 -1.22191953e-02
    5.69711265e-04 -3.83931436e-02 -3.28304172e-02 -9.78679210e-02
    -5.12237325e-02 -1.70439091e-02 -2.88740322e-02 -2.60903090e-02
    -4.49580550e-02 -2.87949257e-02 2.07280982e-02 4.72861435e-03
    -3.72558087e-02 2.03120559e-02 3.72365378e-02 9.12031010e-02
    6.08567782e-02 2.44237352e-02 3.68286334e-02 -6.16659736e-03
    -2.84483731e-02 -6.66105077e-02 -2.67570503e-02 -7.45554939e-02
    2.11651959e-02 2.73751784e-02 1.19055454e-02 1.52211655e-02
    -7.23049976e-03 -3.58401686e-02 -4.58660796e-02 -1.42168049e-02
    4.13136855e-02 -4.60000522e-03 2.03879848e-02 2.73292209e-03
    -6.18595816e-03 -5.84096909e-02 -8.57191533e-02 -8.82791877e-02
    -6.50076792e-02 4.92911041e-02 -4.18340415e-02 -1.57611761e-02
    -4.49824631e-02 -5.61396815e-02 2.57117711e-02 -9.40164551e-03
    -2.10498516e-02 2.58523617e-02 2.43545771e-02 1.16980234e-02
    5.65839186e-02 1.96924545e-02 2.66352333e-02 -3.36813703e-02
    -6.32888153e-02 -9.59102809e-02 -3.97937149e-02 -3.26976031e-02
    -1.26434229e-02 9.09202453e-03 -2.28376035e-02 -3.48007046e-02
    -4.38501462e-02 -3.48934270e-02 -2.36019809e-02 5.93442842e-03
    5.77623397e-03 -3.28776315e-02 2.61741187e-02 -1.54178555e-03
    -4.56591807e-02 -1.58461388e-02 1.62601490e-02 1.29413996e-02
    -1.37854705e-03 3.40305232e-02 -7.48419017e-03 1.91509724e-02
    1.98079199e-02 -4.21553515e-02 -1.87673774e-02 -3.65670919e-02
    -2.40036659e-02 3.46421152e-02 -3.52492998e-03 -2.87729260e-02
    -1.49907833e-02 -2.37578433e-02 -2.38596555e-02 3.16139683e-02
    1.65568069e-02 2.16806605e-02 3.22534405e-02 6.95678871e-03
    1.75782256e-02 2.37156097e-02 2.90134791e-02 6.32360112e-03
    -4.84807231e-02 -4.17631827e-02 -2.74074152e-02 -9.07564536e-03
    6.74275821e-03 4.37262654e-03 -3.32522690e-02 -2.75432505e-02
    -6.97210506e-02 5.55613916e-03 -6.41787192e-03 2.26525054e-03
    2.75134183e-02 4.45228331e-02 3.85569781e-02 -3.08065233e-03
    -6.99452404e-03 -1.05678383e-02 -3.26097161e-02 -2.39334591e-02
    -5.39663481e-03 2.38711853e-02 -8.17558169e-03 -2.51441877e-02
    -6.78680614e-02 -5.05517125e-02 -6.15767539e-02 -2.87942099e-03
    1.60146821e-02 -2.37629302e-02 1.82688050e-02 7.98087846e-03
    2.57372037e-02 -2.48261280e-02 -7.86413904e-03 -2.76610851e-02
    -2.45033717e-03 -1.18102012e-02 -1.43408393e-02 -2.49911193e-02
    -3.01004760e-02 1.81885846e-02 3.17894667e-02 -7.66267395e-03
    -1.52837923e-02 -2.93730553e-02 -1.30024850e-02 -1.91146731e-02
    -1.25871515e-02 -3.10200104e-03 3.33509110e-02 2.46924367e-02
    -3.52247292e-03 -2.62688156e-02 -9.24579240e-03 -2.46970411e-02
    -1.87301058e-02 -1.31587274e-02 -1.84189565e-02 -3.40493172e-02
    -9.50600579e-03 -1.21310111e-02 -2.99280696e-02 -1.12485373e-02
    7.66496360e-03 -2.18522418e-02 -1.52931120e-02 -3.69954575e-03
    1.76726729e-02 -1.32463882e-02 1.81142781e-02 -2.22787969e-02
    -2.40858048e-02 -1.13109471e-02 -4.95033674e-02 -4.66740020e-02
    2.39952691e-02 1.62021331e-02 5.06365187e-02 2.30377149e-02
    -2.30029263e-02 -8.02352652e-03 -1.03761042e-02 -1.23943770e-02
    1.58806611e-02 1.17198182e-02 3.99077311e-02 3.45966890e-02
    -5.12732426e-03 -4.10726033e-02 -8.98367353e-03 9.82188713e-03
    -3.56962606e-02 -3.76228690e-02 2.89431438e-02 2.55392212e-03
    -1.17579559e-02 4.29733060e-02 -2.61962326e-04 1.51983034e-02
    3.10294498e-02 -3.44426334e-02 -1.13858059e-02 3.88733111e-02
    9.23023373e-03 7.88613129e-03 -5.61281480e-03 -1.38149271e-02
    -1.56298038e-02 -2.38091759e-02 -2.79900283e-02 -1.12422882e-02
    2.62304563e-02 2.70745754e-02 5.99934645e-02 1.21068023e-02
    -2.21715048e-02 -2.72932686e-02 3.65527323e-03 -1.13437269e-02
    1.31849544e-02 2.55118683e-02 6.81067863e-03 2.31338255e-02
    -2.63791811e-02 -2.76994687e-02 3.03776251e-05 -1.79992467e-02
    -4.04113419e-02 -4.99890298e-02 1.48296717e-03 2.90660094e-02
    6.16348870e-02 -1.05141224e-02 -1.44907553e-02 -5.52205788e-03
    -7.41077214e-03 -6.08071499e-02 -4.40181568e-02 -2.28366219e-02
    -3.34926508e-02 2.13599056e-02 -2.24175844e-02 -1.72606371e-02
    -3.79409268e-02 5.24421455e-03 -3.87615338e-02 5.31551708e-03
    6.81446120e-02 6.39444739e-02 5.28661050e-02 -1.34752635e-02
    -1.65548827e-02 -3.82603295e-02 -2.57569402e-02 -5.29202856e-02
    -3.15462574e-02 -2.12082881e-02 -6.99781626e-03 -3.81078944e-03
    -5.60306944e-02 -3.64887789e-02 1.71315782e-02 4.16098163e-02
    -2.50188317e-02 3.04857567e-02 4.96667884e-02 4.10217494e-02
    3.38934362e-02 -2.24935799e-03 4.59459936e-03 -1.45368176e-02
    3.13142641e-03 -3.24000344e-02 -3.07430048e-02 -4.99023907e-02
    9.09418706e-03 -1.72119797e-03 -6.00107946e-02 -3.76541950e-02
    -2.20137183e-02 -4.25536074e-02 -9.44947358e-03 2.32370142e-02
    4.30187359e-02 3.15118134e-02 7.94811621e-02 -3.96236172e-03
    1.45170663e-03 -5.37161753e-02 -6.67340085e-02 -7.91604146e-02
    -3.10939010e-02 1.29051320e-02 -2.25265436e-02 -2.09465548e-02
    -4.10507247e-02 -6.21111430e-02 1.66253299e-02 1.44873057e-02
    6.72721537e-03 3.15857269e-02 3.81212495e-02 3.68013270e-02
    5.79896420e-02 -6.69443980e-03 1.35296695e-02 -4.78949174e-02
    -4.23634797e-02 -9.76723135e-02 -3.69979776e-02 -4.80853505e-02
    4.35048627e-04 -1.45192510e-02 -4.54250090e-02 -5.13683856e-02
    -2.86947582e-02 -5.31098396e-02 -5.61226420e-02 6.23336248e-03
    5.55492677e-02 -1.65643599e-02 -1.34310918e-02 -5.13213500e-02
    -3.71785648e-02 2.83937659e-02 -1.09274844e-02 1.16652306e-02
    3.93547378e-02 6.70999959e-02 -1.60259623e-02 -2.14592796e-02
    -1.73658747e-02 9.16121528e-03 -4.19060141e-02 -5.54117113e-02
    -2.25453023e-02 -1.80325340e-02 2.96792723e-02 2.53866296e-02
    -5.99594153e-02 -5.87614067e-02 -3.45611796e-02 1.39310071e-03
    -1.10507943e-02 -2.27051564e-02 -1.44182397e-02 3.44495811e-02
    2.67407410e-02 -2.68645631e-03 -1.37744732e-02 2.41781827e-02
    -3.62600274e-02 -4.97027375e-02 -3.04018930e-02 3.45623456e-02
    4.87535112e-02 2.87856199e-02 -3.29146311e-02 -5.50820418e-02
    -3.85647044e-02 -3.18645127e-02 -1.10880611e-02 -3.61448601e-02
    2.23840158e-02 3.54744121e-02 2.11585574e-02 -4.50852048e-03
    1.01299835e-02 -3.06775253e-02 -4.46671210e-02 -5.34231067e-02
    -4.34169099e-02 2.06582248e-02 7.84796476e-03 2.51357518e-02
    -4.76520322e-02 -6.16720878e-02 -4.31258604e-02 -3.16765644e-02
    8.75749812e-03 -2.13383008e-02 2.05067750e-02 1.05043855e-02
    3.15287001e-02 -4.14835103e-02 -2.00757775e-02 -2.82579809e-02
    -3.08991261e-02 -1.48228463e-02 -5.38159311e-02 -4.10196520e-02
    2.21892614e-02 -3.00870985e-02 -7.41779665e-03 3.23094204e-02
    -2.86296140e-02 -4.06935029e-02 1.59708988e-02 -3.49819064e-02
    -1.59688760e-02 5.38233668e-02 3.67598911e-03 -8.75305384e-03
    5.34150451e-02 -1.89650953e-02 -3.77013348e-02 3.13528515e-02
    -3.91338021e-02 -2.05758177e-02 -1.73030596e-03 -3.09908409e-02
    -5.59357293e-02 -2.45849900e-02 -3.53621468e-02 -2.14984957e-02
    5.69866933e-02 -2.52181217e-02 2.68560685e-02 2.55194660e-02
    -1.74657814e-02 -6.97603077e-02 1.63517462e-03 -3.43790352e-02
    -2.95224227e-02 -4.09240462e-03 -3.53687517e-02 -3.58107239e-02
    3.17064226e-02 -1.09727774e-02 8.19958746e-03 4.79713790e-02
    -1.91282853e-02 -1.77105442e-02 2.59788577e-02 -2.76536066e-02
    1.34462425e-02 5.76892011e-02 -6.22456381e-03 -1.22569175e-03
    2.23142430e-02 -2.38332972e-02 -1.10240364e-02 4.19750847e-02
    -1.72658227e-02 -6.58262009e-03 2.47890409e-03 -3.02616041e-02
    -5.74118719e-02 -8.94285459e-03 -1.61572322e-02 -2.97977719e-02
    4.46619093e-03 -2.89686155e-02 -7.62407202e-03 6.74547860e-03
    -2.82218703e-03 -7.01904744e-02 2.36521214e-02 -1.42300352e-02
    -3.87705304e-02 -1.09276045e-02 1.65157206e-03 1.41043570e-02
    6.35887161e-02 -1.23477390e-03 5.08065037e-02 -2.60810051e-02
    -5.05733117e-02 -1.36883995e-02 -7.31748203e-03 9.52240732e-03
    6.94795698e-03 3.92557401e-03 -9.66554414e-03 2.37943716e-02
    -2.61986144e-02 -2.51093898e-02 -4.48731408e-02 -2.67956201e-02
    4.31600921e-02 2.11802241e-03 1.22816404e-02 -1.13678572e-04
    -2.95209121e-02 -6.41768705e-03 -3.59531567e-02 -2.47668251e-02
    -3.07910424e-02 1.14828534e-02 2.60503893e-03 -4.40441594e-02
    -2.56875437e-02 -1.36791607e-02 -8.88199452e-03 -3.96221736e-03
    6.16857363e-03 7.49969063e-03 1.32547226e-03 3.28389555e-02
    6.30829260e-02 4.26530316e-02 3.65763530e-02 -1.03237601e-02
    -3.40191601e-03 6.36085542e-03 7.18624610e-03 1.06568476e-02
    -1.03576882e-02 -2.41880175e-02 -2.27237921e-02 -7.87889864e-03
    -5.15921898e-02 -2.93513536e-02 -6.82237791e-03 -2.82108448e-02
    1.87096056e-02 4.44082171e-02 3.83629426e-02 9.92253609e-03
    -8.06781091e-03 9.86104552e-03 1.75416395e-02 -3.83501053e-02
    -6.53809234e-02 -6.94826664e-03 -3.17009762e-02 -5.27966172e-02
    -4.06686179e-02 -1.73177850e-02 -1.17347809e-03 8.10135249e-03
    1.48424795e-02 2.18836814e-02 3.00958958e-02 2.10231449e-02
    2.50864811e-02 2.26417985e-02 4.83941771e-02 -1.39701581e-02
    -2.00403351e-02 -4.38019037e-02 -3.17964852e-02 -5.63594215e-02
    -6.80224330e-04 1.73477232e-02 -1.90465134e-02 -5.91914132e-02
    -6.71481788e-02 -6.51816949e-02 -1.36182914e-02 -1.32750710e-02
    5.03474511e-02 4.65334812e-03 1.01108337e-03 7.35105295e-03
    5.44467196e-03 1.24247139e-02 6.70087570e-03 -6.96799159e-02
    -6.46641105e-02 -6.00028038e-02 -1.26899537e-02 -4.15687487e-02
    -3.00398213e-03 -8.88814777e-02 -6.05451055e-02 -6.79978058e-02
    -2.31479052e-02 -1.83077585e-02 -9.11981147e-03 -2.84986012e-02
    1.53158549e-02 4.23081517e-02 -5.17893303e-03 -2.15459149e-02
    -1.86948050e-02 8.38979799e-03 2.69785281e-02 3.50429416e-02
    1.43864369e-02 5.70785999e-02 1.50238099e-02 2.33086105e-02
    6.02116482e-03 2.79103611e-02 -4.76590060e-02 3.35826445e-03
    9.86545254e-03 -5.34263216e-02 -2.53503472e-02 -6.00953936e-04
    -3.65508609e-02 -1.18644563e-02 -4.24351655e-02 -2.32648924e-02
    2.34126933e-02 -5.32835955e-03 -2.91457549e-02 -2.55607022e-03
    -1.34941097e-02 2.01362581e-03 3.02584991e-02 -5.80333872e-03
    -5.42819798e-02 -4.28473875e-02 -4.88065183e-02 -2.10958719e-02
    1.99060440e-02 2.71644872e-02 -3.39212432e-03 -2.77357996e-02
    -2.81362571e-02 -1.37028918e-02 5.53107262e-03 9.02392901e-03
    3.37384231e-02 5.56007288e-02 2.55599357e-02 -8.20956193e-03
    1.43847195e-02 9.45197325e-03 -7.14862719e-02 -3.52584310e-02
    -5.13809323e-02 -6.72730058e-03 -2.78036240e-02 -5.60500752e-03
    -3.57415341e-02 -5.27959168e-02 -4.51962613e-02 -1.92952733e-02
    -1.55495629e-02 -2.96489168e-02 2.79653482e-02 1.15398420e-02
    2.50363462e-02 -1.54170543e-02 -4.55460511e-03 8.83920211e-03
    -1.28529975e-02 1.67138339e-03 4.37493995e-03 -1.47668952e-02
    1.15695540e-02 2.76529184e-03 -1.10876840e-03 -2.29382925e-02
    3.67547409e-03 -7.97349680e-03 3.28735188e-02 2.63069030e-02
    2.16475558e-02 2.09937710e-02 -1.15025695e-02 -2.76250066e-03
    6.12587528e-03 1.38177723e-03 -2.16668658e-02 -2.05945000e-02
    1.84986158e-03 1.65285952e-02 -3.94546948e-02 -2.48638820e-02
    -3.81918289e-02 -6.13069674e-03 9.94961802e-03 -3.22553366e-02
    -1.94540154e-02 -2.79886043e-03 2.49814671e-02 -3.81873138e-02
    -2.66499678e-03 -3.00946925e-02 -1.84518602e-02 -1.73615962e-02
    1.36745302e-02 3.15494165e-02 1.12198554e-02 9.06106737e-03
    2.82928310e-02 -3.02258767e-02 -7.14894710e-03 1.71253663e-02
    7.20461318e-03 -9.97962616e-03 -9.93998162e-03 1.93944722e-02
    1.43748373e-02 5.74986115e-02 1.69736403e-03 -1.37934899e-02
    2.78468523e-02 2.23568697e-02 -2.83332542e-02 1.18766148e-02
    2.95152273e-02 2.57495400e-02 -8.23946018e-03 -5.32858074e-02
    -6.56598732e-02 -2.15627886e-02 -2.60299183e-02 -4.96960431e-02
    -1.12701152e-02 3.92422779e-03 5.46991900e-02 -1.36423968e-02
    1.59254926e-03 -3.65956537e-02 -2.29530968e-02 -4.55891062e-03
    -8.40158388e-03 8.54636263e-03 6.82826936e-02 3.84237431e-02
    7.55364774e-03 -1.80438627e-02 -1.77203212e-02 -1.19183455e-02
    5.99071290e-03 -1.58443116e-02 4.20841342e-03 4.05763499e-02
    -8.28229124e-04 -1.65731031e-02 -2.92628836e-02 -3.61911580e-02
    -2.64642993e-03 7.90755497e-04 -2.58820876e-02 4.17709351e-03
    3.57948206e-02 6.81427168e-03 -9.93721746e-03 -1.21046761e-02
    -3.86516303e-02 -3.04881968e-02 -2.72785290e-03 -3.03453039e-02
    -3.09706666e-02 -8.72310065e-03 1.40836239e-02 -1.93964597e-02
    -1.56143727e-02 -4.34540138e-02 -7.56376889e-03 -1.50125287e-02
    -2.37253588e-03 9.80896410e-03 5.14038764e-02 5.98896593e-02
    8.29823166e-02 2.97064763e-02 -1.11822039e-02 3.32556032e-02
    1.19243674e-02 -3.57158780e-02 -4.64919917e-02 2.45567653e-02
    2.83992868e-02 -1.23709841e-02 -1.41097652e-02 -2.50087529e-02
    -2.63616373e-03 -1.21448599e-02 -1.95292011e-02 -2.79507320e-03
    3.97506654e-02 6.41797259e-02 4.40460891e-02 -2.08512996e-03
    -6.44297302e-02 -7.64321210e-03 -4.19876054e-02 -3.73592414e-02
    -5.98443672e-02 -1.69596355e-02 -2.59858109e-02 -7.14581460e-02
    -4.12040390e-02 -6.98777363e-02 -3.72408852e-02 -3.39899696e-02
    6.85578398e-03 -3.37945204e-03 7.91942775e-02 2.69628018e-02
    5.54045141e-02 4.19928916e-02 2.12667920e-02 1.28567358e-02
    3.76259326e-03 -5.03254272e-02 -4.27864455e-02 1.00961579e-02
    -3.31087899e-03 -5.05824341e-03 -1.97318718e-02 -8.48849192e-02
    -5.66687547e-02 -4.76685576e-02 1.52000356e-02 -6.59080828e-03
    7.00359568e-02 9.81923193e-03 3.06076780e-02 2.71085612e-02
    -8.05390812e-03 -4.17929031e-02 -1.33869955e-02 -6.12640716e-02
    -4.80260178e-02 -3.71777304e-02 -3.51641774e-02 -3.78240198e-02
    -2.44154576e-02 -9.11261141e-02 -6.76461011e-02 -4.95734662e-02
    -1.75291561e-02 -2.00593919e-02 2.86494680e-02 -3.56961489e-02
    -1.23869367e-02 1.02640474e-02 2.69817356e-02 1.36699406e-02
    -4.20210417e-03 3.39639233e-03 1.62428487e-02 5.87858185e-02
    1.50912697e-03 1.86668206e-02 1.74842197e-02 6.46066964e-02
    5.31820506e-02 3.21814083e-02 -5.32346480e-02 -4.95583490e-02
    9.32887290e-03 -2.32912712e-02 -4.76663597e-02 -1.01553230e-02
    -3.41116935e-02 -2.84019969e-02 -3.25663388e-02 -2.54083388e-02
    -1.69809312e-02 1.93334389e-02 -4.44115110e-04 -1.68586280e-02
    1.14793302e-02 9.77704767e-03 1.28714019e-03 4.00445191e-03
    -3.50927897e-02 -1.45440092e-02 -1.98412277e-02 -7.31099769e-02
    -3.18896025e-02 3.26259509e-02 5.49379028e-02 8.46422557e-03
    -6.33331574e-03 1.36943236e-02 1.73690338e-02 1.80419814e-02
    1.45341028e-02 4.48042341e-02 5.37489951e-02 6.51975200e-02
    4.93742153e-02 5.23882322e-02 -6.09318838e-02 -9.06490833e-02
    -5.64070344e-02 -8.00912157e-02 -3.72092314e-02 -4.83587272e-02
    1.03182625e-02 -2.33677384e-02 -2.16550957e-02 -6.91876858e-02
    -8.28572959e-02 -5.69813102e-02 -5.99913187e-02 -3.83859575e-02
    2.38442817e-03 2.54949760e-02 -3.05037387e-03 4.03016526e-03
    -1.39107201e-02 3.15194600e-03 5.30167930e-02 6.14264645e-02
    -5.25931409e-03 1.33288698e-02 5.79036288e-02 2.54325457e-02
    2.05122903e-02 1.82070788e-02 2.26495992e-02 5.97597882e-02
    6.56578988e-02 1.73451956e-02 2.91989353e-02 3.95309031e-02
    6.22401685e-02 4.17409614e-02 -6.99033886e-02 -5.19814864e-02
    -2.60922033e-02 -3.01108994e-02 -2.49469075e-02 -2.57165954e-02
    -7.65918335e-03 -2.59478558e-02 -1.40155330e-02 -4.40392271e-02
    -4.13929261e-02 -2.40257084e-02 -9.45767201e-03 -1.15746874e-02
    -2.30999701e-02 -1.81113053e-02 -2.28269156e-02 -3.50797316e-03
    1.71306729e-02 3.99591178e-02 6.37473688e-02 6.22736551e-02
    2.42432505e-02 -1.05012543e-02 3.16261873e-02 4.59085144e-02
    2.66174003e-02 7.15266448e-03 3.92543599e-02 6.38645962e-02
    6.87822551e-02 1.97130889e-02 2.39711571e-02 1.64958891e-02
    2.51256712e-02 3.66568565e-02 -3.82836163e-02 -1.29230469e-02
    -4.24449984e-03 3.00097875e-02 -1.48769347e-02 -4.77433950e-02
    -3.21201747e-03 -1.62225831e-02 -1.15315467e-02 -3.85696925e-02
    -9.65214986e-03 -1.71361379e-02 2.75861491e-02 -5.83239272e-02
    -2.38794833e-02 -5.06421290e-02 -4.64705117e-02 -4.16407026e-02
    1.56549420e-02 5.44398464e-02 5.94322421e-02 4.03271988e-02
    3.95928137e-02 3.16710398e-02 -2.85282789e-04 3.10874004e-02
    4.26797420e-02 3.63260247e-02 2.63146199e-02 3.50792892e-02
    4.35826369e-02 -2.33697530e-04 2.83609051e-02 -1.31887672e-02
    2.11180020e-02 2.73156315e-02 -3.26639414e-02 2.73803417e-02
    1.10673327e-02 5.64640993e-03 -2.79466789e-02 -5.73353693e-02
    -7.72426203e-02 -3.33061740e-02 -4.78259176e-02 -2.97957249e-02
    -4.31135148e-02 -4.54269201e-02 -1.21804536e-03 -4.01731320e-02
    2.20020418e-03 -3.28280739e-02 3.36272293e-03 -8.53110757e-03
    3.83743346e-02 3.47098783e-02 6.52159825e-02 9.03348252e-02
    7.00079501e-02 1.98792350e-02 -3.93043086e-02 3.60183488e-03
    1.12801455e-02 1.11663602e-02 2.96301711e-02 4.25038524e-02
    2.57637706e-02 -9.71522275e-03 -2.78708264e-02 -6.52017817e-02
    -1.41693065e-02 -5.64812543e-03 9.14106797e-03 -1.46710817e-02
    1.42663503e-02 4.31312397e-02 1.12799136e-02 -2.81975828e-02
    -7.12198764e-02 -1.71723645e-02 4.41633211e-03 -3.00160944e-02
    -4.66019101e-02 -3.86274606e-02 1.05558364e-02 -5.71593493e-02
    -6.19975291e-02 -1.17167674e-01 -4.37761843e-02 -3.57849523e-02
    3.62822488e-02 3.48708145e-02 8.26721862e-02 2.56545749e-02
    5.48148751e-02 2.53504384e-02 -1.31161688e-02 -8.51466437e-04
    2.63600219e-02 -3.14150527e-02 -1.63125694e-02 3.25304195e-02
    -4.65088245e-03 1.31046027e-02 -3.21802981e-02 -7.67643973e-02
    -5.62373325e-02 -3.14377509e-02 -6.83067273e-03 -6.61941338e-03
    1.27383163e-02 1.22141012e-03 4.83702961e-03 -2.93002483e-02
    -4.87846956e-02 -4.46573496e-02 1.43867556e-03 -5.76880202e-02
    -3.50200310e-02 -4.83100023e-03 -3.57412137e-02 -1.40891279e-04
    -6.03058338e-02 -7.79919624e-02 -9.03089643e-02 -5.79240099e-02
    -2.32390463e-02 2.19211020e-02 4.50419486e-02 -3.68078202e-02
    -2.82591414e-02 7.28493882e-03 1.68688782e-02 2.95005012e-02
    1.26756877e-02 1.71961524e-02 3.28358002e-02 6.10175952e-02
    4.14330363e-02 -6.70912815e-03 3.24788643e-03 3.53196785e-02
    3.85364220e-02 2.92950682e-02 -5.11500612e-02 2.65399013e-02
    5.82733229e-02 -4.98033762e-02 -9.89679024e-02 -1.46776987e-02
    -1.59046371e-02 2.36889394e-03 -3.94945890e-02 -3.54481973e-02
    -3.99540318e-03 3.71440239e-02 -1.38145522e-03 -1.03233889e-01
    3.03672925e-02 5.19167855e-02 7.86739122e-03 1.23833233e-04
    1.13461744e-02 -1.60318334e-02 1.30425924e-02 1.24858711e-02
    1.97844822e-02 6.40174048e-03 5.56399375e-02 4.37185690e-02
    2.21808963e-02 2.52982439e-03 -2.14160630e-03 2.56884620e-02
    -4.07457259e-03 3.04596946e-02 3.25713046e-02 9.14739370e-02
    7.13102594e-02 4.87128757e-02 -5.80625236e-02 -3.78886238e-02
    5.55493031e-03 -2.94220690e-02 -6.30092099e-02 -6.91531692e-03
    -5.04917174e-04 -1.31548624e-02 -5.90643771e-02 -1.96528528e-02
    1.39338840e-02 -3.56779783e-03 -4.48081456e-02 -5.45568131e-02
    -1.79599151e-02 4.68533300e-02 3.72359194e-02 -2.10540220e-02
    1.08830566e-02 2.43779663e-02 5.43640517e-02 -2.81265285e-03
    3.13422941e-02 3.72670814e-02 6.31526187e-02 3.91539745e-02
    3.37915123e-02 6.49145767e-02 5.51786646e-02 5.05773909e-02
    1.80601869e-02 2.60823797e-02 5.80117814e-02 5.37815541e-02
    3.02379970e-02 6.87377527e-02 1.16354330e-02 2.17558611e-02
    -5.95784327e-03 -5.18696681e-02 -3.99712212e-02 -2.80109737e-02
    1.18149500e-02 9.02815838e-04 -3.29384976e-03 -3.83130135e-03
    1.52838994e-02 -2.27484945e-02 -5.00624366e-02 -7.07477480e-02
    -1.47200599e-02 4.09242846e-02 3.89611572e-02 3.86802517e-02
    4.92149852e-02 6.33281991e-02 4.44925353e-02 3.97117697e-02
    2.31586248e-02 3.56237330e-02 7.01724812e-02 4.23450954e-02
    2.24249810e-02 4.83680069e-02 1.01923622e-01 4.86465208e-02
    5.15108891e-02 4.09258679e-02 4.86418009e-02 5.22626117e-02
    6.01368733e-02 1.32462513e-02 -1.37084033e-02 4.03554775e-02
    -6.46715984e-03 -4.30222154e-02 -9.10633281e-02 -4.17942517e-02
    3.76680084e-02 1.12536615e-02 1.03057083e-02 -4.59222216e-03
    4.08492088e-02 -1.19679403e-02 -1.49239916e-02 -5.75948767e-02
    -5.75699378e-03 5.89579009e-02 4.15057950e-02 -1.17284572e-02
    5.26865534e-02 1.10816017e-01 7.69419074e-02 2.74903439e-02
    2.11313050e-02 2.77711060e-02 2.75204927e-02 5.30605093e-02
    5.52778989e-02 6.33339882e-02 5.56677766e-02 5.71535826e-02
    4.32479046e-02 2.66612563e-02 5.75931668e-02 3.24319899e-02
    7.76600689e-02 5.82461134e-02 1.81178525e-02 5.81723712e-02
    1.01553937e-02 -6.25508875e-02 -8.04533139e-02 -4.72450024e-03
    1.73452366e-02 4.03972045e-02 1.07116904e-02 2.14611031e-02
    2.65883673e-02 2.82749962e-02 -3.37151401e-02 -1.29503340e-01
    4.91526071e-03 1.55694429e-02 3.63816507e-02 1.86138470e-02
    4.49636951e-02 2.80154925e-02 8.51208344e-02 9.86715630e-02
    8.47162902e-02 2.18327641e-02 -8.96506011e-03 4.95158099e-02
    6.04769737e-02 1.50811290e-02 2.05729138e-02 2.50556208e-02
    6.58755600e-02 1.42949009e-02 5.23049338e-03 -4.41714451e-02
    1.88547801e-02 1.70885101e-02 -1.19678658e-02 3.03991865e-02
    9.67945606e-02 3.86026353e-02 -8.12420994e-02 -1.58010293e-02
    -5.99908829e-02 8.77369137e-04 -1.17994659e-02 -3.80253159e-02
    1.26160458e-02 2.04418451e-02 -1.04562389e-02 -1.31490454e-01
    -3.94520760e-02 -9.74338800e-02 -1.96448453e-02 -3.13456953e-02
    4.63636555e-02 1.05412770e-02 2.77126897e-02 1.44490483e-03
    5.44961579e-02 -1.14235189e-02 -1.30538410e-02 2.94499621e-02
    4.43444215e-02 2.86501162e-02 2.89255399e-02 4.97990437e-02
    1.23272948e-02 3.20425443e-02 -2.04989109e-02 -8.89920536e-03
    -2.17599496e-02 1.71930976e-02 -4.99105640e-03 2.13089623e-02
    6.59964979e-02 -1.48375472e-02 -7.54185766e-02 -7.24973679e-02
    -5.43034226e-02 -1.26733177e-03 -3.16686966e-02 -7.70617053e-02
    -1.73713788e-02 -2.42379494e-02 -4.33670431e-02 -1.36208788e-01
    -9.47177932e-02 -4.10961248e-02 -4.13661972e-02 -9.31976661e-02
    -1.79254025e-01</SVMDetector></hog_descriptor>
</opencv_storage>
