<?xml version="1.0"?>
<opencv_storage>
<HOG_SVM_DESCRIPTOR type_id="opencv-object-detector-hog">
  <winSize>
    64 64</winSize>
  <blockSize>
    16 16</blockSize>
  <blockStride>
    8 8</blockStride>
  <cellSize>
    8 8</cellSize>
  <nbins>9</nbins>
  <derivAperture>1</derivAperture>
  <winSigma>4.</winSigma>
  <histogramNormType>0</histogramNormType>
  <L2HysThreshold>2.0000000000000001e-01</L2HysThreshold>
  <gammaCorrection>1</gammaCorrection>
  <nlevels>64</nlevels>
  <signedGradient>0</signedGradient>
  <SVMDetector>
    -2.34207530e-02 -1.99712906e-02 8.23870581e-03 1.17776981e-02
    -6.48786277e-02 -6.41927123e-04 2.73258351e-02 -2.35993345e-03
    -1.40442122e-02 -2.07931679e-02 -5.07215178e-03 6.10910123e-03
    2.17516180e-02 -4.51227389e-02 2.61599272e-02 -1.30183659e-02
    -2.75291782e-02 -4.00175825e-02 -1.83510315e-02 -1.17865819e-02
    -3.45090637e-03 6.82396023e-03 -1.88685413e-02 5.74147888e-03
    2.18991376e-02 1.30471643e-02 -1.43584870e-02 5.51516004e-03
    1.77921206e-02 3.17271240e-03 -1.36081232e-02 -2.11996143e-03
    3.93112302e-02 1.85376406e-02 -7.00453937e-04 -5.83303301e-03
    -4.29790206e-02 -2.90305242e-02 -3.56468223e-02 1.76167265e-02
    -2.69298665e-02 -2.73238569e-02 -3.27212214e-02 -4.48194072e-02
    -6.76748902e-02 -3.04111571e-04 4.15575085e-03 -1.93994232e-02
    1.99147742e-02 -5.25058322e-02 -5.30336536e-02 -1.27271619e-02
    8.31004698e-03 -1.44464485e-02 1.46310236e-02 2.16676388e-02
    3.24353925e-03 1.74807534e-02 3.12756523e-02 2.02766359e-02
    3.98202287e-03 -8.21054447e-03 -2.52284314e-02 8.23919401e-02
    5.94294071e-02 6.99469596e-02 6.07982241e-02 1.42980721e-02
    6.37537660e-03 4.04967740e-03 3.06213237e-02 3.02272905e-02
    -6.57404307e-03 -2.71849912e-02 -2.71703023e-02 -1.86254829e-02
    -2.17993148e-02 -5.11564426e-02 -4.94516455e-03 -9.07543302e-03
    1.91131253e-02 8.25465657e-03 2.13293098e-02 4.39229086e-02
    2.47067530e-02 6.05232269e-03 -4.19743657e-02 -2.02759001e-02
    -5.51995337e-02 -9.84664634e-03 4.89830077e-02 2.62453239e-02
    2.62941699e-02 8.95130448e-03 1.80326048e-02 -3.43863061e-03
    4.73455451e-02 4.23810966e-02 2.93289032e-02 3.64153273e-02
    3.20764221e-02 4.24868241e-02 1.94323678e-02 5.21726273e-02
    1.67619847e-02 6.63552284e-02 3.57660502e-02 5.03620356e-02
    1.32476008e-02 2.22793664e-03 2.20274162e-02 -3.76478918e-02
    -6.02762625e-02 -6.80751652e-02 1.79363713e-02 2.82628997e-03
    -9.27374698e-03 3.22261862e-02 3.62601429e-02 2.47832257e-02
    -2.91652847e-02 -4.35316935e-02 -4.22498547e-02 1.22262426e-02
    3.51036452e-02 2.92952769e-02 -1.43002206e-03 1.41277863e-02
    5.77555522e-02 -7.50589091e-03 3.58419977e-02 2.25007217e-02
    8.18408355e-02 2.97610704e-02 3.80271673e-02 2.99095754e-02
    5.30774407e-02 5.93461543e-02 1.11148218e-02 4.32986282e-02
    3.57890204e-02 7.85761103e-02 6.20482080e-02 5.14153466e-02
    1.17476899e-02 2.52232533e-02 2.35736482e-02 -7.29637779e-03
    -8.36964995e-02 -6.02533072e-02 1.90896783e-02 4.28943746e-02
    1.82190537e-02 2.80812737e-02 6.72758278e-03 8.38598050e-03
    -1.64089184e-02 -8.38349983e-02 -7.02921674e-02 -3.84268560e-03
    8.48053861e-03 2.33038589e-02 3.12218238e-02 3.54624353e-02
    4.13885824e-02 1.82103254e-02 2.19438486e-02 3.87741998e-02
    9.89443362e-02 5.17178625e-02 4.24968153e-02 4.78816628e-02
    6.35661557e-02 4.59329262e-02 2.97756996e-02 -2.65445951e-02
    -5.10854367e-03 4.13387418e-02 1.37685034e-02 4.78039682e-02
    2.52687726e-02 -9.34419688e-03 -3.43771987e-02 -2.06578672e-02
    -2.79486608e-02 8.97229183e-03 2.48636045e-02 1.60758309e-02
    7.10125640e-03 -1.45266280e-02 -6.24869056e-02 -3.43346521e-02
    -3.92333455e-02 -1.06261119e-01 -5.62074333e-02 -3.29561904e-03
    3.20318788e-02 1.44558055e-02 5.14116213e-02 6.01666793e-02
    4.76684934e-03 -2.95344647e-03 5.42896539e-02 7.65268132e-02
    6.04670569e-02 1.66002102e-02 3.00526414e-02 -2.34940033e-02
    -1.74667127e-02 5.98383881e-03 -2.49163923e-03 -1.22155361e-02
    3.55432294e-02 5.98015590e-03 1.34865101e-02 1.39506953e-03
    -3.07299197e-02 -4.24673744e-02 -4.53591114e-03 -5.32517247e-02
    -2.90509388e-02 -2.48316508e-02 3.98774371e-02 4.17263582e-02
    3.29924151e-02 -8.59765410e-02 -1.42509015e-02 1.79000758e-02
    -6.81070834e-02 -9.76113155e-02 -8.47379491e-02 -3.20624188e-02
    -6.21687947e-03 -4.95366231e-02 1.26451980e-02 4.86895238e-04
    2.91798841e-02 -1.46346970e-03 2.44109966e-02 7.34307943e-03
    1.77856181e-02 3.46391685e-02 5.67534007e-02 -2.29669511e-02
    2.93474495e-02 4.37844135e-02 1.30196400e-02 -4.45447816e-03
    -1.77294891e-02 2.25302372e-02 5.83687723e-02 -2.80889729e-03
    -1.50097879e-02 -1.14779584e-02 -3.03986971e-03 -2.41025891e-02
    -4.74412963e-02 -5.34005314e-02 -4.27126326e-03 -2.62398515e-02
    -3.89450453e-02 7.97725096e-03 3.20162475e-02 3.17842551e-02
    -2.85225967e-03 3.49458214e-03 -3.02171055e-02 1.51431579e-02
    -5.87633401e-02 -6.62538186e-02 3.50491516e-02 -8.03966913e-03
    7.13278539e-04 -8.97110533e-03 -1.79288965e-02 -2.66470965e-02
    -1.00187026e-02 4.39156685e-03 2.34733019e-02 -2.01583561e-03
    4.56714071e-02 4.08531241e-02 2.45481133e-02 1.67845674e-02
    -1.56257655e-02 2.99065746e-02 3.67507827e-03 -3.92633006e-02
    2.51049548e-03 1.24690169e-02 -2.41422765e-02 -4.02700230e-02
    -2.78849658e-02 -4.31098007e-02 -8.13843403e-03 -4.60896529e-02
    -5.40113114e-02 1.70908868e-02 1.94446705e-02 1.74377616e-02
    3.95259149e-02 -3.10596288e-03 -6.90659042e-03 -9.40937735e-03
    -2.58633438e-02 -3.34548205e-02 -1.30599067e-02 3.35565954e-02
    3.50554404e-03 1.32227167e-02 -4.47464809e-02 -6.42009452e-02
    4.37356345e-03 4.49128263e-03 -5.32941036e-02 4.79227640e-02
    7.63010159e-02 3.06842122e-02 6.11580797e-02 8.81116558e-03
    3.77836521e-03 7.21651083e-03 2.84824129e-02 1.17083844e-02
    1.23413941e-02 -1.45366313e-02 -1.60245392e-02 -1.54708577e-02
    -2.40040738e-02 1.46546622e-03 4.23927791e-02 5.80189610e-03
    -1.10449791e-02 1.36604877e-02 -1.83086116e-02 -4.46508732e-03
    -2.38622352e-02 -2.24534119e-03 8.93431623e-03 3.82342786e-02
    6.86140871e-03 1.02596385e-02 1.31662209e-02 1.55907627e-02
    3.33453435e-03 -3.08120605e-02 -2.22035125e-02 1.54942386e-02
    3.48823480e-02 1.14446618e-02 1.11689195e-02 4.66930307e-02
    4.36263978e-02 1.51489638e-02 2.47406457e-02 2.31967983e-03
    2.34007854e-02 4.71528433e-02 3.34608667e-02 3.28822695e-02
    -1.91041287e-02 -4.04031202e-02 -2.71629891e-03 -2.04154924e-02
    2.06073783e-02 6.27657324e-02 4.02748659e-02 -3.46986353e-02
    -4.16696444e-02 -4.06769216e-02 -3.02687977e-02 -6.68868283e-03
    -1.76996607e-02 2.71816421e-02 3.48673314e-02 2.66171545e-02
    -2.04172302e-02 -2.26725657e-02 1.49079552e-02 1.40493978e-02
    1.63430534e-02 1.56287998e-02 1.93413906e-02 4.36989740e-02
    3.52170989e-02 2.99562346e-02 1.43139493e-02 1.49027072e-02
    -5.49551658e-03 1.46753248e-02 4.33899388e-02 -1.68959866e-03
    4.97759357e-02 -9.26808454e-03 6.01932360e-03 1.99169200e-02
    -6.00755252e-02 -4.98690717e-02 -1.97350029e-02 -5.24799936e-02
    2.32027322e-02 3.71689349e-02 1.93467718e-02 -1.61683038e-02
    -4.24693711e-02 1.63845494e-02 -5.87075483e-03 -1.49639063e-02
    -4.29524556e-02 -2.92396937e-02 3.21158506e-02 2.70275772e-03
    -2.73191221e-02 5.53133991e-03 1.21346647e-02 -2.07489054e-03
    -1.24702847e-03 1.12882648e-02 1.56518891e-02 3.83635871e-02
    -2.76636682e-03 1.41885504e-02 1.64175369e-02 4.14987840e-02
    1.49315188e-03 -1.16489194e-02 -9.88718960e-03 -2.83904634e-02
    3.80465351e-02 6.96584163e-03 -3.71980015e-04 6.70006946e-02
    2.76253708e-02 -9.47837601e-04 -9.15210601e-03 -7.24413618e-02
    2.42089164e-02 8.01561475e-02 -3.15908343e-03 5.99273248e-03
    2.46258862e-02 -2.33315099e-02 -3.69299427e-02 -2.39643008e-02
    -6.97573423e-02 -4.84545156e-02 4.37053526e-03 -5.03711775e-02
    -3.31560262e-02 -3.40651721e-02 2.32376084e-02 8.20770953e-03
    -2.38036886e-02 -1.89553797e-02 1.92165822e-02 1.25497207e-01
    9.46013536e-03 2.83296518e-02 5.53844012e-02 1.82225893e-03
    -1.91544499e-02 -4.22575064e-02 -5.91686293e-02 -4.10715193e-02
    3.92922275e-02 -1.76705308e-02 -1.94000453e-02 -1.34458151e-02
    -8.87855235e-03 -8.90253391e-03 2.31235586e-02 -4.48847450e-02
    2.08627656e-02 2.53902227e-02 3.22098732e-02 1.48299364e-02
    -4.96465247e-04 -5.87957799e-02 -1.78059433e-02 2.45151878e-03
    -4.16038334e-02 3.41420397e-02 -2.30652373e-02 -5.85511513e-03
    6.52254140e-03 -5.85236140e-02 7.41467997e-03 8.48088507e-03
    -7.67959701e-03 -2.12992560e-02 2.13507004e-02 4.71504144e-02
    5.49408495e-02 3.16093154e-02 1.83724463e-02 -3.02685536e-02
    7.55846873e-03 -1.82538554e-02 -2.83845160e-02 -2.41749715e-02
    -9.88667598e-04 -1.87242385e-02 3.96237848e-03 -3.90274711e-02
    -5.84906619e-03 -4.22710963e-02 -3.98294963e-02 -2.50170957e-02
    -1.49050206e-02 -3.06313690e-02 -2.37361621e-03 -7.77025591e-04
    7.90964160e-03 -2.94703897e-02 -6.56948425e-03 4.77391761e-03
    1.40616484e-03 2.51556262e-02 -5.38620688e-02 1.43868933e-02
    1.68421008e-02 -2.13846918e-02 1.51696429e-02 -1.87534206e-02
    -1.48033807e-02 5.49169518e-02 -1.75928790e-02 -3.09003219e-02
    -2.55136862e-02 -8.22425354e-03 2.21334733e-02 1.95122715e-02
    3.03323604e-02 6.77619409e-03 3.29559185e-02 -2.60148887e-02
    -2.88015921e-02 -9.13741998e-03 1.05222892e-02 1.92411114e-02
    -3.10530402e-02 -1.79631729e-02 -7.19144568e-03 1.58341117e-02
    3.12139075e-02 -3.26926261e-02 -2.27583498e-02 -3.56903742e-03
    -6.13079257e-02 1.01711759e-02 4.09622863e-02 2.32662149e-02
    3.77937816e-02 6.98952936e-03 -6.07899965e-05 -1.87254231e-02
    1.58642739e-04 -2.59452462e-02 -2.62990035e-02 -2.52492856e-02
    -1.88789535e-02 3.92789952e-02 1.59194376e-02 -2.24843249e-02
    -5.90759590e-02 -7.54325790e-03 -3.33690569e-02 2.94818031e-03
    3.66793014e-03 9.17732902e-03 5.83585985e-02 -5.13185980e-03
    -2.40452271e-02 -3.84169146e-02 5.72232530e-03 -3.98771241e-02
    6.46448275e-03 1.29026882e-02 -1.16427918e-03 1.13676153e-02
    -7.33011262e-03 5.12414053e-03 6.66286983e-03 3.71653051e-03
    5.56818303e-03 9.12110042e-03 1.00771952e-02 1.49664786e-02
    2.33242605e-02 5.50933555e-02 3.28840017e-02 3.13431509e-02
    1.97834894e-02 -6.00298680e-03 -7.94733223e-03 -3.46730612e-02
    6.97624311e-03 -4.29567322e-03 -4.22847569e-02 -5.80108576e-02
    -3.85230891e-02 -1.54036470e-02 -2.78043654e-02 -2.82029584e-02
    -2.46605724e-02 -2.76552550e-02 5.44573297e-04 -5.30097298e-02
    -2.46469844e-02 -3.43447775e-02 -2.99815834e-02 -4.58369143e-02
    -3.44333649e-02 -3.14732306e-02 -2.28228047e-02 -3.23385932e-02
    5.74581958e-02 1.98716274e-03 2.91893259e-02 1.16434963e-02
    -2.30720248e-02 -2.86073238e-02 -5.31563051e-02 -3.51555347e-02
    1.21629471e-02 1.71573516e-02 5.25603965e-02 -6.74190326e-03
    1.95180383e-02 6.21420145e-03 -3.53023522e-02 -4.91166636e-02
    -6.40053749e-02 -4.00224701e-02 -5.43755153e-03 -3.67643461e-02
    -7.09957629e-03 -1.33606372e-02 -1.78920180e-02 5.10906475e-03
    -2.35593561e-02 -4.28293943e-02 -3.35283251e-03 -3.34217288e-02
    -2.06942353e-02 1.59840414e-03 -3.41436523e-03 1.92833673e-02
    5.19894389e-03 -9.26212640e-04 7.98804453e-04 2.28322996e-03
    6.68964833e-02 2.52750684e-02 5.00345975e-03 2.10906751e-02
    1.10467095e-02 -8.84975027e-03 -3.68925650e-03 -6.18424360e-03
    6.50495524e-03 4.59686965e-02 3.21938656e-02 5.08273952e-03
    -2.56516668e-03 2.08973400e-02 2.46041734e-02 4.63110022e-03
    -1.70705020e-02 -2.84805093e-02 -5.54765994e-03 6.09025918e-03
    2.72057764e-02 2.53478754e-02 3.47170532e-02 5.68982540e-03
    1.50905531e-02 -6.97121141e-04 1.47253217e-03 -1.14497440e-02
    -1.81001972e-03 -4.29793989e-04 -1.06597049e-02 1.77696124e-02
    -3.52415517e-02 -3.18359071e-03 -1.01538533e-02 3.92015139e-03
    1.01760037e-01 1.07033774e-01 -2.75800675e-02 4.67258506e-03
    3.45865358e-03 -8.24012700e-03 -1.51506271e-02 -3.55146118e-02
    -3.74255106e-02 1.84697174e-02 1.43600414e-02 -4.64158691e-02
    -4.16744426e-02 -2.18794663e-02 1.99946342e-03 2.37298179e-02
    -1.16131548e-02 5.58982976e-02 5.30088246e-02 5.04738241e-02
    -3.22571695e-02 8.48346390e-03 1.74140818e-02 -1.09241083e-02
    -1.01517979e-02 -3.27058099e-02 1.36499219e-02 2.58548465e-02
    -2.00419929e-02 -9.25401673e-02 -3.02568339e-02 -1.52705275e-02
    -2.09886283e-02 1.04702404e-02 -2.51339823e-02 -3.27249244e-02
    4.09714058e-02 5.65279834e-02 2.45951465e-03 -1.78010687e-02
    -9.82619263e-03 -3.63531224e-02 1.10387336e-02 -4.32670452e-02
    -7.79792070e-02 2.89892927e-02 5.46497339e-03 -4.51950803e-02
    -1.48686981e-02 -5.35371043e-02 -6.42782543e-04 1.46556338e-02
    -3.00823506e-02 -3.34433629e-03 1.71433911e-02 1.87922027e-02
    -4.00457494e-02 -6.86834380e-03 -1.52114471e-02 -3.14096548e-02
    2.92895027e-02 -4.93363813e-02 -6.69926703e-02 -1.35208061e-02
    -2.43141502e-03 -6.20633513e-02 -1.39037967e-02 -2.06411835e-02
    -4.23386833e-03 -4.43779044e-02 -4.93347123e-02 3.51221524e-02
    6.21030442e-02 -7.36443605e-03 -2.36582346e-02 -1.32086053e-02
    3.13462364e-03 4.63194773e-03 -2.77771801e-02 -3.56000029e-02
    9.35484748e-03 2.84776464e-02 -6.77268617e-05 -3.36821303e-02
    -1.68700702e-02 1.50168838e-03 -1.06203265e-03 -2.09618788e-02
    -4.23259735e-02 -1.10076759e-02 2.47840974e-02 3.05401087e-02
    -6.44378066e-02 -5.77312149e-02 -8.58694257e-04 -4.48945095e-04
    -1.81252211e-02 -4.47517037e-02 -1.20200654e-02 -2.06163581e-02
    -7.95000326e-03 -4.62376662e-02 -2.55505461e-02 1.07948277e-02
    -4.78844866e-02 -6.05288595e-02 -5.60589246e-02 3.88892889e-02
    5.78225516e-02 3.45120169e-02 -3.85526493e-02 -2.92564780e-02
    -4.42340076e-02 -3.02626919e-02 -2.79952772e-02 -3.64830978e-02
    4.06546555e-02 4.09617499e-02 -1.10580504e-03 -3.69540676e-02
    8.60211533e-03 -3.43102440e-02 -4.52381894e-02 -2.85543259e-02
    -5.02967238e-02 2.14051194e-02 1.86705182e-03 4.97667007e-02
    -5.88136837e-02 -5.19967861e-02 -4.78775464e-02 -3.72556672e-02
    1.85136870e-02 -4.32828516e-02 -6.77712681e-03 -8.60649999e-03
    5.33515401e-02 -4.79534380e-02 -2.92564165e-02 -2.77188402e-02
    -3.41947488e-02 -4.38492782e-02 -5.01014292e-02 -6.98508555e-03
    2.92494353e-02 -2.70034615e-02 -4.93925549e-02 -2.15637702e-02
    -3.01148985e-02 -6.47716075e-02 -4.81808707e-02 -6.41007498e-02
    1.17072333e-02 5.02277464e-02 3.41608264e-02 -4.44014147e-02
    -2.66822409e-02 -4.43198271e-02 -3.72151397e-02 -2.80167013e-02
    -6.61549866e-02 -3.08052301e-02 -1.02903703e-02 -2.34254333e-03
    -4.69281264e-02 -5.06339148e-02 -3.26455645e-02 -5.61625548e-02
    -3.17182839e-02 -6.21593446e-02 3.21861394e-02 3.81418876e-03
    2.43060905e-02 -6.61416948e-02 -5.30207045e-02 -6.40839860e-02
    -4.41059358e-02 -5.50805964e-02 -7.03534484e-02 -2.97193956e-02
    4.36984561e-02 -4.81835604e-02 -4.48369458e-02 -4.20506448e-02
    -3.02324258e-02 -1.85006410e-02 -4.07348536e-02 -3.95476744e-02
    1.14341232e-03 4.05087173e-02 -1.71362981e-02 -2.77898889e-02
    -2.50373036e-02 -2.73646973e-02 -3.17004025e-02 -3.82143371e-02
    -5.24187796e-02 -4.49151993e-02 -4.58581327e-03 -9.41558927e-03
    -8.08231756e-02 -6.38673753e-02 -4.82511893e-02 -2.56681051e-02
    -2.57178377e-02 -2.90551987e-02 -3.11430804e-02 -3.72116268e-03
    6.74308091e-03 -4.40176912e-02 -3.52816656e-02 -1.82208773e-02
    -4.28263936e-03 -1.27569791e-02 -2.24341406e-03 1.94092616e-02
    6.21936880e-02 3.89217678e-03 1.99421439e-02 -7.17704603e-03
    -1.16783809e-02 9.59715340e-03 1.77317876e-02 7.88434595e-03
    2.75873318e-02 4.46805209e-02 3.62494923e-02 3.22486646e-02
    -9.18240985e-05 5.67939505e-03 1.19906873e-03 -9.78608057e-03
    1.14144031e-02 4.52572946e-03 2.42770482e-02 2.80133095e-02
    -5.26612997e-03 5.10807382e-03 6.26463769e-03 2.07626559e-02
    5.75447455e-03 2.08459608e-02 2.09830664e-02 -2.60098483e-02
    1.50354020e-02 7.51585187e-03 2.35434435e-02 2.27876771e-02
    4.41691233e-03 2.96485778e-02 2.71490612e-03 3.31604630e-02
    8.42321068e-02 3.62485573e-02 -1.47919878e-02 1.01489462e-02
    1.00961169e-02 -3.22737405e-03 2.44876440e-03 -2.04164591e-02
    -1.17373718e-02 5.11083342e-02 -2.33906880e-02 -5.82513697e-02
    -6.26442209e-03 7.54928100e-04 2.21441817e-02 5.25136292e-03
    -3.05480342e-02 4.51734103e-02 4.26468924e-02 3.04456372e-02
    -4.27910173e-03 2.94794813e-02 1.94296334e-02 4.51848656e-03
    -1.71610564e-02 -5.66696562e-02 -2.39010807e-02 -6.24317257e-03
    -2.07021963e-02 -3.24819237e-02 -4.49480460e-04 2.35195272e-03
    -1.38186552e-02 1.37449540e-02 -1.12919640e-02 -1.10200047e-02
    4.24583815e-02 9.77580994e-03 -2.11049877e-02 1.57368113e-03
    -2.58033648e-02 -2.97174733e-02 2.84038181e-03 -5.77178746e-02
    -6.08555228e-02 -6.65087113e-03 -1.43459262e-02 -4.59625013e-02
    2.48986343e-03 -1.54464431e-02 -2.33165380e-02 -1.89490523e-03
    -2.08498444e-02 -5.80224628e-03 1.16308557e-03 1.09381787e-03
    -1.93746760e-02 1.96147300e-02 -1.45687973e-02 -1.61522292e-02
    4.39848052e-03 -6.14220724e-02 -2.47421265e-02 -5.05533181e-02
    -5.58259785e-02 -5.27583659e-02 6.88871322e-03 -3.05252746e-02
    3.91725823e-02 -9.50314663e-03 -1.01436945e-02 -2.41934471e-02
    2.97854305e-03 5.91037646e-02 7.95280270e-04 -1.91819910e-02
    3.76751982e-02 3.90711799e-02 1.58340130e-02 7.63670774e-03
    -2.85393875e-02 -1.25284176e-02 4.52186242e-02 1.80110727e-02
    4.05334681e-02 3.52078155e-02 7.71899661e-03 -2.80173076e-03
    -1.13995373e-02 -3.54905650e-02 -2.72810664e-02 -1.69563163e-02
    -4.36014459e-02 -4.89047207e-02 -1.46856310e-03 -2.56391447e-02
    -4.67089377e-03 -7.92060164e-04 -4.81339842e-02 -8.93971138e-03
    7.41831819e-03 -2.30227225e-03 -1.41157657e-02 -1.88038833e-02
    -1.77831370e-02 -5.78334439e-04 -5.22543639e-02 -3.35223787e-02
    4.54446860e-02 6.41305521e-02 5.47622703e-03 -9.48459655e-03
    -1.66908558e-02 -1.68407466e-02 1.83733404e-02 -2.47825030e-02
    -3.17160524e-02 2.77732499e-02 6.85441941e-02 1.89716555e-02
    2.41208705e-03 9.85046104e-03 -7.48413354e-02 -2.75567919e-02
    -3.61064672e-02 -3.23405117e-02 -4.87282500e-03 3.03221028e-02
    -1.45031679e-02 -2.69149989e-02 -3.34696770e-02 -2.38786582e-02
    8.23173730e-04 -1.95010304e-02 -2.36381474e-03 -1.46730309e-02
    3.77656892e-02 2.95976497e-04 3.45249549e-02 8.12749565e-03
    -2.27346318e-03 -7.58843357e-03 -3.51313129e-02 -7.44048804e-02
    -2.84862574e-02 -6.69428147e-03 1.70786567e-02 -3.18339057e-02
    1.36639015e-03 -2.87977923e-02 -1.78215057e-02 -1.40815703e-02
    -2.84117870e-02 -2.26257462e-02 -1.63523462e-02 -5.67893637e-03
    -1.44269709e-02 -1.12144537e-02 1.75216503e-03 -4.30158433e-03
    -3.12025509e-06 1.66644379e-02 -2.59355493e-02 -4.81818384e-03
    -1.86386928e-02 1.28908688e-02 1.31679783e-02 -9.27793421e-03
    2.44416613e-02 3.70039195e-02 2.90797688e-02 2.35339217e-02
    3.33244242e-02 1.13987562e-03 1.81889795e-02 1.21831326e-02
    -1.52414562e-02 -2.20823698e-04 1.34226764e-02 -3.37651335e-02
    2.83391364e-02 -3.12798917e-02 -3.45248505e-02 -2.98845451e-02
    -2.77553182e-02 1.38406875e-02 1.87334383e-03 2.07799673e-02
    -1.61574855e-02 2.26384830e-02 8.75951489e-04 -2.40045581e-02
    -1.18691353e-02 1.22578833e-02 -3.75994109e-02 1.51582640e-02
    1.67056303e-02 -3.28133977e-03 2.01604851e-02 2.70135351e-03
    -1.82761904e-02 -2.90541276e-02 -3.59077603e-02 2.89787934e-03
    1.63035877e-02 -1.81141365e-02 4.98664491e-02 -2.15779990e-02
    2.19439864e-02 -3.51400264e-02 -5.61062619e-02 -2.66655441e-02
    3.09407990e-02 1.61234364e-02 2.82010660e-02 1.72223486e-02
    1.94984041e-02 -2.84615718e-02 -1.30210835e-02 9.93162021e-03
    2.58560032e-02 6.31406019e-03 -1.49650953e-03 3.11959023e-03
    9.40775685e-03 1.26830041e-02 8.68178904e-04 -3.61213554e-03
    1.89563390e-02 8.92229204e-04 1.70266964e-02 5.64535428e-03
    -1.29988920e-02 2.63679400e-02 3.58326472e-02 1.33721670e-02
    1.98844797e-03 -1.78691912e-02 6.45113876e-03 2.71577109e-02
    -2.01328769e-02 -1.77797675e-02 2.22668666e-02 -1.16290804e-02
    2.34587900e-02 -6.96331309e-03 -1.92959290e-02 -9.08589922e-03
    1.09113613e-03 7.92810228e-03 -3.00114397e-02 6.65271506e-02
    9.47102755e-02 2.80338060e-02 -1.15623204e-02 2.19180286e-02
    -7.63732428e-03 -2.23471224e-02 -2.31830645e-02 -7.52849355e-02
    -2.89168122e-04 5.63689061e-02 -1.83852296e-02 -3.70205231e-02
    -8.00316595e-03 -1.90004352e-02 7.60048907e-03 -2.01688870e-03
    -4.07021418e-02 9.61621329e-02 6.22109622e-02 2.01612934e-02
    -1.20218433e-02 -3.78348702e-03 -3.56273502e-02 -1.09500969e-02
    -4.23576683e-02 -4.11043428e-02 -1.22677640e-03 -2.99481265e-02
    -4.15130816e-02 -4.49089520e-02 -1.55990161e-02 -7.04241870e-03
    -2.32105646e-02 4.24139171e-06 -1.83852781e-02 2.02308875e-02
    4.90730815e-02 -3.41398316e-03 -2.47812066e-02 2.36451663e-02
    -1.12916883e-02 -3.32709998e-02 3.49021138e-04 -2.58002281e-02
    9.95344855e-03 1.67637859e-02 -6.96207434e-02 -3.94181646e-02
    3.28802951e-02 -3.34000550e-02 -4.33249259e-03 -1.85904019e-02
    1.41694462e-02 3.29857320e-02 1.23112872e-02 -6.35424769e-03
    -4.02330309e-02 9.60904546e-03 -1.69852953e-02 -4.67927866e-02
    -2.94489018e-03 -4.28058021e-02 1.28866434e-02 1.94399490e-03
    -6.45223856e-02 -5.25504127e-02 1.09260883e-02 -2.94036958e-02
    2.34785229e-02 6.69273501e-03 1.80382200e-03 -5.85150160e-03
    9.95128974e-03 -6.47300342e-03 -5.01894741e-04 -2.42680148e-03
    1.79196429e-02 -2.59125605e-02 -1.88009988e-04 3.98391783e-02
    -1.18721230e-03 2.48161703e-02 3.61980982e-02 4.11227234e-02
    3.84570509e-02 5.69604570e-03 -4.68201898e-02 -1.71092059e-02
    -4.85683791e-03 -2.86990218e-02 -3.38134095e-02 -2.64277291e-02
    -1.73013601e-02 4.08843905e-03 -1.76383946e-02 -5.38638011e-02
    -3.93186435e-02 5.91927767e-03 -2.01563574e-02 -1.96195766e-02
    -8.45792703e-03 2.69230083e-02 3.75422090e-02 1.84189901e-02
    -5.15191816e-02 -7.38101546e-03 8.57782923e-03 -6.42551780e-02
    -3.34235243e-02 2.74644401e-02 2.21179631e-02 3.54640372e-02
    -2.96546565e-03 5.60924551e-03 1.97986253e-02 2.17029732e-02
    1.98417506e-03 2.19316743e-02 7.48145506e-02 4.08408791e-02
    7.70383626e-02 4.40721251e-02 -6.06311373e-02 -4.94199209e-02
    -2.31616888e-02 -3.34024914e-02 -5.14735505e-02 -4.92081270e-02
    -3.13644707e-02 5.64484019e-03 6.25736872e-03 -1.98214855e-02
    -3.76384445e-02 -1.87210087e-02 -8.82531051e-03 -3.10739167e-02
    3.38710994e-02 1.05299540e-02 3.02415155e-02 4.81163114e-02
    1.36301406e-02 3.59955593e-04 4.00806330e-02 2.55807042e-02
    -5.53963520e-03 -4.08015884e-02 1.56314857e-02 2.66407244e-02
    1.11774774e-02 3.79736871e-02 3.34333330e-02 5.40366210e-02
    3.42808515e-02 2.98035201e-02 2.29190849e-02 4.47925739e-02
    5.26325628e-02 5.69792800e-02 -1.41038150e-02 -7.72075402e-03
    2.20566336e-02 -3.45457834e-03 -4.09963131e-02 -2.43754927e-02
    -2.69758124e-02 -1.11232894e-02 2.71883197e-02 1.51777109e-02
    2.65663373e-03 2.93276459e-02 -8.69724154e-03 -5.24511980e-03
    -2.97239292e-02 9.52147227e-03 -6.16133912e-03 1.74138229e-02
    1.79977051e-03 2.65727900e-02 3.24908569e-02 4.79209684e-02
    2.83992048e-02 2.55900100e-02 3.67622972e-02 1.67769324e-02
    2.25395299e-02 7.81600550e-03 1.77634750e-02 5.85591979e-03
    5.85610829e-02 2.70659756e-02 4.34188843e-02 4.38741483e-02
    4.87183407e-03 1.89483203e-02 -3.63664627e-02 -2.89149377e-02
    3.96912731e-02 4.22214642e-02 2.12322678e-02 -2.17598248e-02
    1.36167351e-02 -4.73809876e-02 -2.07036082e-02 4.08750400e-03
    6.77226670e-03 3.10339481e-02 3.32635194e-02 1.27289891e-02
    -1.25428392e-02 -4.14486416e-03 -3.06492727e-02 -3.74052115e-02
    5.24028484e-03 1.85038801e-02 7.28481216e-03 5.80125824e-02
    3.97546664e-02 2.03235671e-02 1.89445559e-02 -1.46044428e-02
    1.32414717e-02 6.18917830e-02 -3.08686809e-04 1.32811433e-02
    7.08772317e-02 1.01207914e-02 -9.74018499e-03 -6.17299555e-03
    -9.77901183e-03 4.27314937e-02 -3.60752940e-02 -8.85825418e-03
    2.44621933e-02 4.07425463e-02 5.34945354e-03 -3.71837728e-02
    -1.72911491e-02 -4.84742485e-02 -5.78830950e-02 -3.27788410e-03
    -4.40487042e-02 -1.05305035e-02 1.91357210e-02 -5.99589273e-02
    -3.08418088e-02 -1.04494151e-02 -3.43361543e-03 2.13988982e-02
    5.47077581e-02 3.27594578e-02 2.16352828e-02 1.50932312e-01
    4.01557498e-02 -3.25713418e-02 -1.94975268e-02 1.68918520e-02
    2.25730315e-02 -9.89045110e-03 -1.02843549e-02 -1.20178126e-02
    5.19456342e-02 -1.48256570e-02 -6.47710487e-02 -3.38670500e-02
    2.14275951e-03 6.10458618e-03 2.15759687e-02 -1.21994619e-03
    3.02834972e-03 7.77890012e-02 -7.90265948e-03 -6.53369501e-02
    -1.46887489e-02 7.31809111e-03 2.58555319e-02 -3.17045227e-02
    -4.77922484e-02 -6.82180002e-02 2.33111135e-03 -6.82274774e-02
    -7.06238896e-02 -3.79521810e-02 -4.07860652e-02 -2.78971326e-02
    3.43202497e-03 2.97276657e-02 5.83530292e-02 5.66335581e-02
    4.17358205e-02 -1.30406767e-02 -3.83979408e-03 2.82991473e-02
    9.52410046e-03 -5.59654497e-02 4.24473407e-03 -8.47289898e-03
    2.05039419e-02 3.13675660e-03 -2.49017384e-02 -5.55784628e-03
    1.35662546e-02 -3.31116095e-02 -5.09101525e-03 9.73349717e-03
    1.33396424e-02 2.56772265e-02 1.27581982e-02 -4.03379053e-02
    1.20145967e-02 -1.21766999e-02 -4.59761638e-03 -5.73584624e-02
    2.53544692e-02 -8.83526634e-03 -1.62721705e-02 2.12255633e-03
    -4.55673300e-02 7.45926518e-03 -1.29071856e-02 -5.14504388e-02
    -2.75999885e-02 -1.59241725e-03 2.78367829e-02 1.50158331e-02
    -3.98197863e-03 2.03629080e-02 -1.79679680e-03 -2.53495458e-03
    -2.02990379e-02 -8.73743463e-03 4.86843567e-03 2.30380110e-02
    4.57735285e-02 -7.84926640e-04 -3.49559868e-03 1.82007328e-02
    7.20931450e-03 5.92947239e-03 -1.44409826e-02 -1.13547698e-03
    2.25557480e-02 -3.56252096e-03 -8.09615254e-02 1.10536339e-02
    9.21587739e-03 -1.72212049e-02 -6.47780346e-03 -2.80920658e-02
    -2.05770470e-02 -1.21264439e-02 1.93468761e-02 -5.55986501e-02
    2.15142053e-02 1.96982771e-02 6.41286327e-03 -1.85598794e-03
    -2.85648070e-02 -8.62779375e-03 1.42024783e-03 3.54992673e-02
    3.22412662e-02 2.75457297e-02 1.93395913e-02 2.45973449e-02
    6.59976574e-03 2.05265563e-02 2.66002677e-02 5.98893594e-03
    2.06110766e-03 1.27602760e-02 7.60187507e-02 7.68233240e-02
    7.39293098e-02 7.59267434e-02 -7.22564906e-02 -4.18473929e-02
    -3.49833742e-02 -1.72933843e-02 -3.90840024e-02 3.86264101e-02
    -1.17921280e-02 -7.68277189e-03 -3.62157635e-02 -1.52448202e-02
    1.22655313e-02 -4.49401280e-03 -4.69658151e-02 -6.72014281e-02
    2.57198978e-02 4.35386924e-03 1.04054343e-02 1.34928050e-02
    1.50099825e-02 3.65346931e-02 4.63883728e-02 -5.49992174e-03
    1.74581762e-02 3.00015006e-02 3.47377136e-02 2.99024768e-02
    3.72834802e-02 5.49501851e-02 3.75741944e-02 7.62971416e-02
    1.74428169e-02 6.59210905e-02 2.75375135e-02 6.52303025e-02
    2.78954264e-02 2.86427382e-02 1.73414927e-02 -7.94032495e-03
    -1.60136372e-02 -6.03323430e-02 -2.46808156e-02 -7.71898031e-03
    -2.42726225e-02 -3.14998962e-02 4.99189086e-03 5.48532512e-03
    -4.72111106e-02 -2.48109251e-02 -7.70118386e-02 -2.09279871e-03
    1.51740760e-02 5.10907881e-02 2.84314845e-02 2.43818928e-02
    3.75512503e-02 2.94919685e-02 8.02734643e-02 2.61248592e-02
    2.39618681e-02 -2.94956379e-03 6.62245378e-02 1.32831372e-02
    -5.62444516e-03 5.26665524e-02 8.91931653e-02 8.50114897e-02
    4.00276966e-02 4.19723950e-02 7.19749741e-03 6.05903380e-02
    5.49825728e-02 2.40322556e-02 -1.38742793e-02 3.08982853e-04
    1.45737687e-02 -7.45136663e-02 -6.45868629e-02 -2.76642870e-02
    3.28007936e-02 4.06749267e-03 1.87884849e-02 2.56477166e-02
    3.96424942e-02 -3.64979170e-03 -1.91533081e-02 -3.80506739e-02
    -1.38648748e-02 2.60998923e-02 3.32306586e-02 2.91562025e-02
    3.32918093e-02 6.98633865e-02 1.11142628e-01 5.46630099e-02
    2.52005327e-02 2.72286274e-02 5.70721589e-02 4.37090509e-02
    2.53570806e-02 4.71092984e-02 3.09434459e-02 6.26306385e-02
    1.60879232e-02 -2.00485326e-02 2.59374864e-02 4.95334528e-02
    5.96622042e-02 5.15432954e-02 1.00509711e-02 5.10438792e-02
    5.35568164e-04 -5.58054373e-02 -6.70576319e-02 9.28712077e-03
    1.32448096e-02 2.00896878e-02 5.28894970e-03 -2.02023145e-03
    5.45485644e-03 -1.28614614e-02 -9.15013701e-02 -8.48878026e-02
    -1.34953354e-02 1.36712715e-02 7.39638880e-03 5.85156167e-03
    3.24619487e-02 3.59526612e-02 8.25992525e-02 1.01966843e-01
    4.79739010e-02 -5.06824488e-03 1.14732450e-02 5.11909574e-02
    5.20891510e-02 1.49592583e-03 1.75334234e-02 1.35370400e-02
    4.28008549e-02 8.58296454e-03 -6.68458000e-04 7.45038828e-03
    -1.01193879e-02 -1.17998999e-02 1.83351594e-03 2.14345455e-02
    2.75754463e-02 -1.03592910e-02 -2.00089850e-02 -7.44046783e-03
    -2.22787317e-02 -1.39400484e-02 1.77618768e-02 6.00328483e-03
    2.78724339e-02 -1.21687455e-02 -6.88298866e-02 -1.04923300e-01
    -4.19776179e-02 -4.35149707e-02 -6.51040748e-02 -9.86052956e-03
    4.46480475e-02 3.45030054e-02 2.63369847e-02 1.86002087e-02
    5.38295917e-02 -6.68939995e-03 3.59445028e-02 1.50327440e-02
    1.37098031e-02 1.15954208e-04 7.56405890e-02 5.00999652e-02
    -9.42334905e-03 2.50828103e-03 -1.27571113e-02 4.96965572e-02
    4.82908078e-02 -1.94678325e-02 2.62024552e-02 3.62008326e-02
    2.98518669e-02 -4.08659391e-02 -3.31894718e-02 -3.95284109e-02
    3.93297430e-03 -3.53726335e-02 -3.13927233e-02 -5.86236641e-02
    5.27223153e-03 -2.87296325e-02 -7.21045732e-02 -1.08373009e-01
    -5.40332571e-02 1.56500880e-02 -1.22466600e-02 -8.75389725e-02
    -7.32584119e-01</SVMDetector></HOG_SVM_DESCRIPTOR>
</opencv_storage>
