<?xml version="1.0"?>
<opencv_storage>
<hog_svm_detector_2 type_id="opencv-object-detector-hog">
  <winSize>
    64 64</winSize>
  <blockSize>
    16 16</blockSize>
  <blockStride>
    8 8</blockStride>
  <cellSize>
    8 8</cellSize>
  <nbins>9</nbins>
  <derivAperture>1</derivAperture>
  <winSigma>4.</winSigma>
  <histogramNormType>0</histogramNormType>
  <L2HysThreshold>2.0000000000000001e-01</L2HysThreshold>
  <gammaCorrection>1</gammaCorrection>
  <nlevels>64</nlevels>
  <signedGradient>0</signedGradient>
  <SVMDetector>
    -5.48846908e-02 4.88658575e-03 -5.36817312e-03 -2.62868740e-02
    -1.09700404e-01 -2.54676044e-02 5.25134504e-02 9.30881500e-03
    -6.50529414e-02 -4.19198647e-02 2.89159380e-02 5.04527614e-02
    -6.31733506e-04 -1.10534884e-01 -1.39205595e-02 -3.75216419e-04
    -2.84195803e-02 -5.32842539e-02 -3.11844924e-04 2.53640208e-03
    4.70155431e-03 2.09308555e-03 -8.99553299e-02 -4.35845293e-02
    2.14628372e-02 2.29492243e-02 -4.35197800e-02 1.36141051e-02
    2.57780775e-02 -3.32151959e-03 1.03292717e-02 -1.83116309e-02
    8.42294097e-03 4.42890152e-02 6.39469456e-03 -1.35258399e-02
    -6.68479726e-02 4.99332137e-03 6.29380951e-03 -2.23160181e-02
    -8.05753395e-02 -3.65448669e-02 -1.52114443e-02 -5.30543998e-02
    -5.49478494e-02 -7.99886696e-03 5.75798973e-02 1.44515987e-02
    -3.34463455e-02 -8.70493427e-02 -7.16207325e-02 3.66266556e-02
    2.37142276e-02 7.03334901e-03 1.38524836e-02 1.77769773e-02
    2.30156686e-02 2.50903331e-03 -2.03555487e-02 1.55074904e-02
    1.79066602e-02 -3.39995101e-02 -3.00414953e-02 7.12355375e-02
    7.17772320e-02 7.32332170e-02 3.38124298e-02 -1.54032102e-02
    -1.58322323e-02 2.16341112e-02 1.58270020e-02 -7.04393908e-03
    -2.24657357e-02 -1.17261393e-03 -1.78019349e-02 -4.58365157e-02
    -8.05805475e-02 -4.98761274e-02 1.89634766e-02 5.81568049e-04
    -3.16826329e-02 1.26821920e-02 2.83974782e-02 3.98637205e-02
    -2.56946124e-02 -7.61395469e-02 -5.06714731e-02 4.55448730e-03
    1.21201612e-02 -2.94717513e-02 1.71556156e-02 5.09137735e-02
    3.16091441e-02 -4.56745998e-04 -3.02365422e-02 -1.90201551e-02
    4.20706645e-02 1.64435618e-02 -2.64374111e-02 4.45362963e-02
    3.49485837e-02 5.57962060e-02 3.29642780e-02 2.82907765e-02
    4.53060344e-02 3.50145996e-02 3.54443379e-02 7.90387671e-03
    3.15615721e-03 -5.14651416e-03 4.35162410e-02 -5.91351837e-02
    -7.66653940e-02 -5.23489788e-02 2.85094982e-04 3.03539541e-02
    -1.18334834e-02 8.62834789e-03 3.06783468e-02 6.24627806e-02
    -3.03996988e-02 -5.89280091e-02 -3.35334651e-02 -1.82982045e-03
    3.69495489e-02 4.34703939e-02 2.67451145e-02 1.99334938e-02
    3.86963300e-02 1.70476828e-03 5.26190177e-03 1.42593514e-02
    2.26677246e-02 3.19279060e-02 3.77450474e-02 2.07047891e-02
    3.34293358e-02 2.34321784e-02 1.77452639e-02 3.07810344e-02
    1.07657518e-02 3.82602550e-02 8.04529265e-02 7.52401575e-02
    -6.78941607e-03 2.20076330e-02 3.57633159e-02 -2.27253754e-02
    -7.66825005e-02 -7.94502795e-02 -1.98656917e-02 4.08212505e-02
    1.68530568e-02 1.43720722e-03 1.86804950e-03 4.43467982e-02
    1.69841107e-02 -5.91022298e-02 -5.71485162e-02 -1.31182615e-02
    4.62429114e-02 3.00852600e-02 6.35949196e-03 1.49784796e-02
    1.18831294e-02 1.74546577e-02 -1.09866925e-03 2.68696360e-02
    5.72812334e-02 7.19885007e-02 1.04836132e-02 3.42439413e-02
    5.75588122e-02 3.58890481e-02 6.30997941e-02 -2.01152582e-02
    3.36177461e-02 2.61766370e-02 5.41762561e-02 6.12066649e-02
    7.40682334e-03 -1.79425795e-02 1.88886058e-02 -9.50845890e-03
    -4.12784293e-02 -5.05120354e-03 3.03949565e-02 3.40377502e-02
    -2.02823356e-02 3.73903755e-03 -3.00145056e-02 -2.68596746e-02
    -4.63656597e-02 -9.11058709e-02 -2.38718390e-02 2.18183710e-03
    7.28827994e-03 -4.00522314e-02 6.20409884e-02 5.22997826e-02
    2.16837041e-02 1.80388037e-02 1.07024089e-02 6.32931218e-02
    8.50263312e-02 4.04664464e-02 3.45157310e-02 2.57444624e-02
    3.11634988e-02 4.51236177e-04 1.67134982e-02 -3.34845372e-02
    5.07574566e-02 2.73642363e-03 1.83344763e-02 1.62082799e-02
    9.90444422e-03 7.27711711e-03 1.14871887e-03 -6.20616861e-02
    -3.84324454e-02 -2.87117045e-02 4.98735048e-02 5.50402291e-02
    5.47175342e-03 -5.19784018e-02 1.83056574e-02 3.71990819e-03
    -8.96382704e-02 -8.79928246e-02 -4.64043990e-02 -7.93643668e-03
    1.57012530e-02 -5.63917458e-02 4.87844422e-02 1.64745413e-02
    -1.77275026e-04 1.76401297e-03 4.17495146e-03 1.51804639e-02
    -1.03812823e-02 3.17721143e-02 3.03543173e-02 -3.12349014e-03
    8.23675469e-03 -1.70849543e-02 -1.51630137e-02 -5.03126010e-02
    1.35041261e-02 1.98286083e-02 2.80109439e-02 -2.91435327e-03
    -3.41096558e-02 -2.92788409e-02 -1.53182168e-02 -8.59052967e-03
    -5.86518943e-02 -5.23118973e-02 -1.96097023e-03 -5.34970649e-02
    -7.13452995e-02 6.86317123e-03 2.05915533e-02 1.40425200e-02
    3.29956934e-02 4.56008036e-03 -3.24679725e-02 1.27827208e-02
    -5.55537790e-02 -7.51963779e-02 -2.44000852e-02 -8.08692537e-03
    -6.28363993e-03 8.85969400e-03 -3.35089378e-02 -5.99089228e-02
    6.74260454e-03 1.02457302e-02 -2.19850875e-02 1.56994890e-02
    5.32960705e-02 1.77956652e-02 2.99622640e-02 -9.13050212e-03
    -1.73581019e-02 4.42994907e-02 1.80246737e-02 -1.98363774e-02
    -3.55175557e-03 -2.52032429e-02 7.35299429e-03 -2.82243062e-02
    -4.31702100e-02 -4.12337892e-02 3.94402770e-03 -8.15574676e-02
    -6.51736557e-02 1.64183378e-02 -2.83174240e-03 1.99792888e-02
    1.56125724e-02 -2.09101588e-02 -5.19378036e-02 -2.28432454e-02
    -2.86346842e-02 -5.48848473e-02 2.77379598e-03 1.56392362e-02
    3.15073207e-02 3.72395152e-03 -8.33844393e-02 -5.47276475e-02
    1.44827040e-02 -9.67808813e-03 -4.76719216e-02 4.95877601e-02
    6.93740547e-02 3.98475341e-02 3.47682759e-02 -2.22183373e-02
    8.01863731e-04 1.96796227e-02 2.70961355e-02 7.01775495e-03
    -2.06018966e-02 -2.17632744e-02 -3.35502923e-02 -2.00412981e-02
    -2.69007739e-02 -3.96336354e-02 1.05485143e-02 -2.08463427e-02
    -5.59567623e-02 -1.75878666e-02 -2.78078411e-02 -3.40096466e-03
    -1.07935239e-02 2.10724305e-02 -2.24201810e-02 -3.08746123e-03
    -3.31600457e-02 -3.49524692e-02 6.28813822e-03 2.87754703e-02
    -4.46573831e-03 -1.30383926e-03 -2.10289396e-02 -1.46399988e-02
    3.29347327e-02 1.12919677e-02 -4.98696370e-03 5.35206981e-02
    5.62804751e-02 1.18303401e-02 5.17356917e-02 2.56314725e-02
    2.25827545e-02 3.85210514e-02 3.99929099e-02 3.93737145e-02
    -1.23077035e-02 -3.22486162e-02 -2.71661282e-02 -4.55483496e-02
    6.61198748e-03 -3.00297770e-03 -1.06351217e-02 -4.11603004e-02
    -5.14823720e-02 -4.61699739e-02 -4.58125249e-02 -5.43052331e-02
    -2.71299500e-02 1.43202040e-02 -1.17220618e-02 -7.08248606e-03
    -3.04312240e-02 -3.13037187e-02 1.12505862e-02 2.72435248e-02
    -1.07316626e-02 2.18416508e-02 9.09702294e-03 3.28732021e-02
    2.02370882e-02 4.49969247e-02 2.79248389e-03 3.10568623e-02
    1.48354406e-02 8.30661319e-03 4.64368053e-02 1.23992367e-02
    5.04979193e-02 -3.22625181e-03 7.50262942e-03 -9.30371229e-03
    -8.22050050e-02 -5.68263344e-02 -5.00951894e-02 -5.23168594e-02
    3.16977464e-02 -2.40100920e-02 7.40262214e-03 -1.16377110e-02
    -6.52138442e-02 -1.24128889e-02 -1.23351859e-02 -2.47593578e-02
    -8.10611527e-03 4.42220923e-03 1.13394600e-03 -3.50004397e-02
    -2.90587842e-02 -5.81088290e-02 4.02968936e-02 2.24569440e-02
    -1.10276630e-02 1.64156929e-02 2.01860573e-02 5.58854174e-03
    4.48556542e-02 4.07357812e-02 -8.23231705e-04 3.59516852e-02
    1.58728436e-02 -2.01759078e-02 2.14303304e-02 -4.05804291e-02
    3.95618044e-02 9.16813035e-03 3.05521339e-02 4.22764979e-02
    -4.06830572e-03 -1.70702767e-02 -5.93103953e-02 -4.65810671e-02
    3.47084738e-02 2.94474382e-02 4.60412866e-03 -6.31766487e-03
    -9.11120232e-03 -2.17329618e-02 -1.35337589e-02 -6.44698218e-02
    -6.29572794e-02 -3.61229517e-02 -3.39677520e-02 -4.33024429e-02
    -3.72280329e-02 -4.63377638e-03 3.73836942e-02 1.55539159e-02
    -4.72573787e-02 -5.47620840e-03 2.33208705e-02 7.31018260e-02
    2.30343435e-02 4.38301787e-02 4.29970212e-02 -2.59022275e-03
    -2.05345824e-02 -6.25068843e-02 -2.98634935e-02 -7.14008883e-02
    3.04320175e-02 1.30625898e-02 -9.06680804e-03 1.78511906e-03
    -1.49511509e-02 -1.75029859e-02 -4.73487191e-02 -3.44304517e-02
    3.05729918e-02 -8.10231082e-03 -3.07259453e-03 7.36528600e-04
    -8.75356700e-03 -6.37073889e-02 -5.44086695e-02 -9.39605758e-02
    -6.89124316e-02 3.43263894e-02 -2.77459566e-02 -1.88834798e-02
    -2.15685703e-02 -5.09774908e-02 2.10811347e-02 2.44780816e-02
    -2.09821854e-02 2.52461620e-02 -2.27446537e-02 2.93801893e-02
    2.02430412e-02 2.62602568e-02 3.73380668e-02 -2.54462268e-02
    -5.56543656e-03 -8.27504843e-02 -1.97647009e-02 -3.80026735e-02
    -1.25287892e-02 -2.42890939e-02 -5.46415336e-04 -2.61474587e-02
    -7.10100830e-02 -5.81760332e-02 -5.59710413e-02 -1.50881489e-04
    -2.26343535e-02 -6.65044188e-02 -1.22151850e-02 -6.69136504e-03
    -5.60435019e-02 -3.52599956e-02 1.11075360e-02 -3.66756343e-03
    -3.80378147e-03 6.38498808e-04 -5.33487648e-02 -1.06814841e-03
    -1.49478568e-02 -4.90425900e-02 -4.01330553e-02 -3.95578779e-02
    -4.46603335e-02 9.16076731e-03 -2.32959818e-02 -1.85387116e-02
    -3.06167509e-02 9.49966069e-03 -2.68516056e-02 7.94369448e-03
    2.62604430e-02 -1.31803472e-02 3.92485410e-02 1.92829557e-02
    8.34200159e-03 5.15198195e-03 9.72965080e-03 -6.83398079e-03
    -5.48148826e-02 -2.72436049e-02 -3.24307196e-02 -1.35759171e-02
    -2.25721821e-02 -2.56248806e-02 -2.50555724e-02 -3.71533297e-02
    -7.50928894e-02 3.29496013e-03 2.42059603e-02 3.14618391e-03
    2.07582433e-02 8.77731759e-03 -2.19512056e-03 -2.90514082e-02
    -1.18343197e-02 -2.94609107e-02 -4.43947203e-02 8.98963364e-04
    -1.84921939e-02 3.81701514e-02 5.98679390e-03 -2.90046092e-02
    -5.26468828e-02 -3.56833786e-02 -4.82279919e-02 -2.08461541e-03
    3.91636863e-02 -4.69596533e-04 6.28442764e-02 1.36745106e-02
    -1.55764836e-04 -1.77004971e-02 2.81516537e-02 -6.74844999e-03
    1.38202151e-02 2.97871418e-03 -4.91405204e-02 -1.83859915e-02
    -1.72432456e-02 -1.48085626e-02 -1.17497267e-02 -2.26014105e-04
    -1.02648214e-02 1.08604250e-03 -5.63903479e-03 -2.75672637e-02
    1.11908969e-02 2.88052838e-02 2.92878523e-02 -2.26749456e-03
    1.32382754e-02 -8.81883688e-03 1.23506295e-03 -1.21858446e-02
    -4.90514524e-02 1.13284336e-02 1.49460277e-02 -2.10753810e-02
    -2.59424075e-02 1.43928593e-02 -1.35673326e-03 4.10241261e-03
    1.96377169e-02 -1.89126860e-02 1.38953570e-02 2.00523827e-02
    2.61797365e-02 -4.91965516e-03 8.59639887e-03 3.39986221e-03
    -3.17535549e-02 -2.10656133e-02 -5.55002466e-02 -3.68989818e-02
    3.02715134e-02 -1.37277963e-02 1.16674779e-02 3.96269634e-02
    -8.48298706e-03 -2.67825974e-03 -4.98974137e-03 -3.62747870e-02
    1.93866193e-02 1.65115781e-02 4.18483987e-02 -1.84518751e-02
    1.83161628e-02 -7.29009230e-03 -1.81045663e-02 -1.02597373e-02
    -3.31860408e-02 -3.31156999e-02 1.73104946e-02 -2.52841767e-02
    -1.14504537e-02 2.95328330e-02 1.27620129e-02 1.48657225e-02
    2.11893879e-02 -2.18368713e-02 -3.73374834e-03 1.08771669e-02
    1.51013248e-02 -2.79463679e-02 1.62456557e-02 2.49843560e-02
    1.79964444e-03 -1.70347188e-02 -4.97189127e-02 -1.92134222e-03
    5.59847914e-02 -1.57135371e-02 3.23652178e-02 1.67719088e-02
    -2.28760540e-02 -3.80413374e-03 -2.06788722e-02 -2.90774107e-02
    2.82957740e-02 4.07761633e-02 5.61328558e-03 1.09457290e-02
    5.44239627e-03 -1.46141751e-02 6.03798265e-03 -8.64909496e-03
    -4.63005342e-02 -2.53352821e-02 1.75954532e-02 2.34910334e-03
    2.10207719e-02 2.82068718e-02 1.83187742e-02 -1.58740417e-03
    -3.56938466e-02 -3.57325301e-02 4.19105543e-03 -8.90477933e-03
    -1.67361423e-02 1.78937018e-02 3.46239246e-02 8.64764862e-03
    -1.74970627e-02 -1.48376040e-02 -3.69799770e-02 1.15616787e-02
    1.08772017e-01 5.82776405e-02 1.12387668e-02 -5.15977666e-03
    2.18423991e-03 -4.96949665e-02 -4.66523804e-02 -7.07006976e-02
    -3.03806216e-02 1.40944142e-02 1.03308894e-02 -2.58297138e-02
    -4.75711524e-02 -3.68481427e-02 1.95535105e-02 8.47232528e-03
    -1.87351778e-02 5.35446070e-02 5.45830168e-02 3.42744105e-02
    2.56230496e-02 3.26792970e-02 2.53913496e-02 -1.03453221e-02
    -3.27216228e-03 -3.72028053e-02 1.64919291e-02 -3.61560285e-02
    -1.56074925e-03 -1.27946353e-02 -3.79061066e-02 -1.40302395e-02
    -1.42198745e-02 -1.58806350e-02 -4.36478667e-02 2.11728849e-02
    4.11533788e-02 2.39119865e-02 6.39556395e-03 6.25093654e-03
    3.21184611e-03 -3.52159329e-02 -2.32080091e-02 -7.84446150e-02
    -4.14586291e-02 2.10995954e-02 6.11478288e-04 -2.91853789e-02
    -2.91915610e-02 -5.07187210e-02 1.53756142e-02 1.53574664e-02
    -2.03742348e-02 3.07602473e-02 1.41928485e-02 4.61753309e-02
    2.58409325e-02 3.15917283e-02 2.78766993e-02 -9.14472416e-02
    -5.72984479e-02 -9.16399583e-02 -3.91924419e-02 -5.94063289e-02
    2.49364078e-02 -2.24857070e-02 -3.21417376e-02 -7.01160133e-02
    -4.54623513e-02 -6.78653643e-02 -5.83334081e-02 -2.56977808e-02
    5.33290505e-02 -2.30010487e-02 -5.01004905e-02 -4.15370539e-02
    -4.38226014e-02 -6.21984899e-03 -2.11533774e-02 -4.34362292e-02
    2.69466061e-02 6.32437170e-02 -1.66090596e-02 -6.96445033e-02
    -3.22442204e-02 -9.31743719e-03 -4.43636030e-02 -3.55253965e-02
    -4.19928432e-02 -2.97891181e-02 -6.06416911e-03 -2.21225470e-02
    -8.11168328e-02 -7.58665800e-02 -5.41289896e-02 -1.44853666e-02
    -2.23257653e-02 -6.45629466e-02 -2.79275775e-02 1.70852784e-02
    2.66117565e-02 -5.35110310e-02 -3.24892253e-02 -4.14583599e-03
    -5.60648367e-02 -2.81774271e-02 -5.39346747e-02 2.28334069e-02
    3.29176299e-02 2.28494443e-02 -4.71229702e-02 -4.20865752e-02
    -2.89089270e-02 -2.45103575e-02 -3.40180355e-03 -1.37671037e-02
    3.87513861e-02 4.51231822e-02 1.20030260e-02 -6.36396743e-03
    2.37117857e-02 -1.70901755e-03 -4.70039845e-02 -5.44907190e-02
    -7.11843818e-02 8.65058880e-03 -2.18974001e-05 2.32897159e-02
    -5.18189520e-02 -2.41369922e-02 -4.68932763e-02 -3.40977847e-03
    2.27510873e-02 -7.70680467e-03 1.23854307e-02 6.42301608e-03
    4.14753519e-02 -1.92794129e-02 -8.16427357e-03 -3.06808464e-02
    -1.12683838e-02 -3.01717967e-02 -6.59335703e-02 -8.60298425e-03
    6.43908009e-02 -1.02731884e-02 -3.02077085e-02 1.89322475e-02
    1.35513367e-02 -2.93011721e-02 -2.20191274e-02 -5.73873073e-02
    -1.37021486e-02 7.92436823e-02 2.65191756e-02 -3.04609109e-02
    -1.02839088e-02 -8.22473504e-03 1.05374865e-02 2.08724104e-02
    -4.59377021e-02 -1.73630994e-02 2.66152918e-02 1.24656335e-02
    -6.14489317e-02 -4.71982434e-02 -1.36462739e-02 1.62021723e-03
    -6.65125111e-03 -4.20280695e-02 1.41982017e-02 3.66808884e-02
    1.19496631e-02 -5.48730344e-02 -2.82570720e-02 -2.86037438e-02
    -2.84616835e-02 -3.64626534e-02 -3.87549400e-02 -2.49334425e-02
    7.85074979e-02 1.16530536e-02 -1.35591784e-02 -3.66660627e-03
    -1.35848857e-02 -1.52407018e-02 -1.56856943e-02 -3.87807861e-02
    -6.87403255e-04 6.92662373e-02 4.12657112e-03 -2.19304487e-02
    -3.96387931e-03 1.30342203e-03 1.10282024e-04 -1.96477558e-04
    -3.70314270e-02 7.50986347e-03 3.47150601e-02 -2.89771855e-02
    -4.72252369e-02 -3.87515984e-02 -2.45814919e-02 2.03980773e-04
    -1.60272345e-02 -4.87965047e-02 8.14344920e-03 1.12095976e-03
    -1.49126640e-02 -4.17093486e-02 -2.19535548e-02 -1.52669512e-02
    -1.95560902e-02 -1.47743775e-02 -2.98671499e-02 -1.45123024e-02
    8.05708393e-02 -1.48488358e-02 2.36156918e-02 -2.27420963e-03
    -2.03971937e-02 -1.19302748e-02 -6.98629767e-03 2.47854833e-03
    1.23067824e-02 3.97254825e-02 3.17541063e-02 2.38132011e-02
    3.79397324e-03 -1.24664698e-02 -2.67160721e-02 -1.98331028e-02
    7.59894913e-03 -1.04382681e-03 2.92104501e-02 -1.07275788e-02
    -2.33785715e-02 -1.30081400e-02 -9.81968734e-03 -4.86164237e-04
    -1.54237170e-03 -1.78758462e-04 1.54527957e-02 -2.35456917e-02
    2.23640306e-03 -6.67127594e-03 -1.30220614e-02 -2.56559905e-03
    1.51352899e-03 -3.25083616e-03 2.13830583e-02 3.26523297e-02
    1.26906425e-01 3.63270193e-02 1.64574683e-02 -1.07079567e-02
    -3.37273558e-03 -3.81812081e-03 3.78115638e-03 1.67038627e-02
    4.94980672e-03 3.04434840e-02 -1.34576419e-02 1.19554168e-02
    -4.29227464e-02 -2.29105186e-02 1.60527620e-02 -9.49094817e-03
    9.83360317e-03 2.60262862e-02 9.42073017e-02 3.29135023e-02
    8.95922445e-03 -1.13039240e-02 1.07112303e-02 -2.73554605e-02
    -4.76275943e-02 1.25886491e-02 -6.39559934e-03 -2.68276371e-02
    -1.95756014e-02 4.80835931e-03 -8.24632868e-03 9.32597835e-03
    2.05890425e-02 1.93208493e-02 3.14778574e-02 4.29387763e-02
    4.08835299e-02 1.37107158e-02 3.24360058e-02 -3.32884421e-03
    -1.08468868e-02 -7.22245499e-02 -6.90286681e-02 -7.79813975e-02
    -7.84929004e-03 -6.03923528e-03 2.26871353e-02 -4.99198027e-02
    -4.34351340e-02 -6.45016506e-02 1.24282930e-02 7.82356015e-04
    2.87034772e-02 2.36424617e-02 1.07811019e-02 1.97245907e-02
    1.72247533e-02 1.00855203e-02 2.91718543e-02 -6.13431260e-02
    -6.07848875e-02 -6.03981577e-02 1.49365608e-02 -5.53591847e-02
    -1.57184619e-02 -9.36183110e-02 -5.41982427e-02 -6.97904006e-02
    -1.03691993e-02 2.47787647e-02 -5.87713672e-03 -1.39861032e-02
    2.59758579e-03 1.88163854e-02 -1.51949860e-02 -2.89048627e-02
    -4.37099077e-02 -2.87698093e-03 1.06057469e-02 3.09210643e-02
    1.02736736e-02 2.60343645e-02 4.17035334e-02 1.46478685e-02
    3.90331298e-02 2.14929599e-02 -4.77964766e-02 6.93901395e-03
    -2.03320887e-02 -7.64944702e-02 -5.63193858e-02 -4.19824477e-03
    -4.53163050e-02 -5.52071296e-02 -7.35993385e-02 -4.77754585e-02
    -1.38643254e-02 -1.55980494e-02 -5.90988398e-02 -3.71729322e-02
    -1.56534407e-02 -6.99812919e-03 2.42725778e-02 -2.92995330e-02
    -4.57210802e-02 -2.73549967e-02 -3.73892598e-02 -3.24354991e-02
    2.37857662e-02 3.31998803e-02 1.33851385e-02 2.26715840e-02
    -2.67884433e-02 4.42169234e-03 4.63445485e-02 2.00426066e-03
    5.80117194e-05 6.11969829e-02 6.19189478e-02 2.97530740e-02
    4.39880304e-02 -3.05440743e-03 -8.04775357e-02 -3.29705067e-02
    -3.40011008e-02 -1.78751573e-02 -5.48048876e-02 -4.68189508e-04
    -3.34340073e-02 -2.33767945e-02 -4.66808826e-02 -4.19309326e-02
    -1.82695389e-02 -4.68293913e-02 -6.43041497e-03 -9.01716948e-03
    3.67452465e-02 9.87323280e-03 2.33970396e-02 -6.78942027e-03
    4.46843076e-03 2.20728610e-02 -1.71170272e-02 -1.85264386e-02
    4.74715307e-02 1.03354100e-02 -2.50342060e-02 -1.63770223e-03
    5.92549518e-03 -5.99747943e-03 1.44309048e-02 1.92739442e-02
    2.92786174e-02 6.72805756e-02 2.30006576e-02 -1.80111192e-02
    2.62287892e-02 1.17292861e-02 -1.89155769e-02 -8.19268450e-03
    -1.84573531e-02 -8.87122657e-03 -3.57173868e-02 -2.08109505e-02
    -6.27967715e-02 -5.31885261e-03 5.86962793e-03 -2.19156668e-02
    -8.05482734e-03 -1.36062026e-03 2.17961241e-02 -5.87393763e-03
    1.54681411e-02 -5.89826517e-02 -1.47713879e-02 2.38736719e-03
    1.05549174e-03 4.39329557e-02 7.00511038e-04 -3.50242816e-02
    5.37215397e-02 -3.46127450e-02 -2.82928552e-02 4.33867611e-03
    -1.02816122e-02 2.91824155e-02 3.08731254e-02 8.96704907e-04
    8.04276764e-03 4.34734374e-02 6.61699753e-03 -1.43808881e-02
    2.66952962e-02 2.14280207e-02 -1.75398812e-02 3.87729183e-02
    2.71328120e-03 -3.36939096e-02 -1.86110963e-03 -2.08002068e-02
    -6.31482452e-02 -2.73979772e-02 -2.81938165e-02 -1.05908420e-02
    2.76933494e-03 -4.36108597e-02 2.70758625e-02 -3.43482792e-02
    3.35153118e-02 -4.17146720e-02 -1.35107283e-02 2.07602396e-03
    9.61442105e-03 2.85671670e-02 4.48041931e-02 1.11137964e-02
    4.25724462e-02 -1.08822268e-02 -3.09478287e-02 -1.27414167e-02
    4.57417918e-03 9.40317661e-03 4.20866646e-02 3.26220617e-02
    -1.69263817e-02 3.21733579e-02 2.47253734e-03 -2.26573031e-02
    -3.80039215e-02 -8.87204986e-03 -2.11552363e-02 -4.91447398e-04
    9.73058026e-03 -2.01372206e-02 7.78312143e-03 5.73823368e-03
    -5.00728786e-02 -2.85737272e-02 1.15894191e-02 -1.06778303e-02
    -1.64991003e-02 -1.66253299e-02 6.77681342e-03 -2.36269850e-02
    1.14644356e-02 -3.48368660e-02 -2.93909330e-02 4.25781962e-03
    3.03376615e-02 4.93807532e-02 5.27601242e-02 3.87245156e-02
    1.01852715e-01 4.15606909e-02 -1.56410187e-02 4.06307401e-03
    1.21468622e-02 -3.52290389e-03 -2.20344607e-02 9.33532044e-03
    2.48388518e-02 2.99566742e-02 -5.22618694e-03 -4.95100319e-02
    -1.04290759e-02 -1.22086145e-02 1.82784051e-02 -1.03803761e-02
    5.40966075e-03 4.60170135e-02 4.31950279e-02 5.68082090e-03
    -4.34082039e-02 -6.87177666e-03 -1.29379630e-02 -3.47662978e-02
    -5.90450689e-02 -2.84925494e-02 2.06151512e-04 -5.82601503e-02
    -3.68053243e-02 -8.63384306e-02 -4.80176918e-02 -4.91833463e-02
    2.75692325e-02 3.28226760e-02 3.57017517e-02 5.02813682e-02
    6.44181073e-02 3.30356322e-02 -3.50404456e-02 9.90144257e-03
    1.89123359e-02 -7.14579150e-02 -3.35792266e-02 -1.13637419e-02
    2.47152988e-02 1.03713979e-03 -2.94112246e-02 -8.15844834e-02
    -4.53379340e-02 -7.56759867e-02 2.19387538e-03 -6.15223683e-03
    6.39337627e-03 1.64153706e-02 7.60029303e-03 2.67182123e-02
    -5.30850776e-02 -1.64604168e-02 -6.21431042e-03 -5.88289574e-02
    -3.26106474e-02 -3.33164148e-02 -8.34475085e-03 -2.23419555e-02
    -4.01143990e-02 -9.07293260e-02 -4.73131090e-02 -4.62075621e-02
    -1.66608170e-02 1.79514512e-02 1.87989417e-02 -3.14611718e-02
    -2.34835055e-02 2.15367973e-02 2.83297524e-02 2.97384337e-03
    -2.52927653e-02 -4.83907945e-03 2.58812457e-02 5.13376482e-02
    -1.30657991e-02 6.25813054e-03 3.75397317e-02 2.71210521e-02
    6.45651817e-02 2.54573599e-02 -7.82526284e-02 -3.77379246e-02
    -5.85602177e-03 -4.17995118e-02 -6.91329166e-02 -3.27124214e-03
    -1.81467831e-02 -2.28854120e-02 -3.20956931e-02 -6.88810870e-02
    -4.18480448e-02 -9.47294943e-03 -2.39461288e-02 9.72686335e-04
    1.70455575e-02 -1.48939211e-02 1.29074957e-02 -7.65256071e-03
    -2.89935302e-02 6.89087552e-04 2.14224029e-02 -4.59252596e-02
    -4.61920016e-02 2.84038205e-02 4.34822291e-02 1.00096632e-02
    -7.13603280e-04 7.98684731e-03 4.16327640e-02 4.19638529e-02
    8.02283082e-03 1.98010914e-02 4.98279966e-02 6.47943243e-02
    6.19153082e-02 4.08750772e-02 -6.40697777e-02 -8.26965645e-02
    -1.48482062e-02 -4.45010886e-02 -5.15809730e-02 -4.45111953e-02
    -1.29372943e-02 -3.12939100e-02 -1.75915789e-02 -4.49845530e-02
    -2.21365616e-02 -4.05547470e-02 -5.68636395e-02 -2.13058293e-02
    1.41151901e-02 3.11089102e-02 -9.96863563e-03 1.98483896e-02
    -6.05406065e-04 2.82403547e-02 4.55704741e-02 -3.84926889e-03
    -3.10885534e-03 4.06121323e-03 1.69180706e-02 1.94755364e-02
    -1.70535094e-03 5.45744114e-02 5.19192591e-02 6.24179654e-02
    1.65215880e-02 4.23925370e-02 3.98059003e-02 1.88371539e-02
    5.81418909e-02 5.76011427e-02 -5.52458391e-02 -1.93722509e-02
    -2.07386930e-02 -4.55023609e-02 -2.39454620e-02 -4.92236298e-03
    -2.58368086e-02 -1.55305993e-02 -7.77866039e-03 -3.48909609e-02
    -2.16178223e-02 -2.33801343e-02 -1.58205125e-02 1.35817565e-02
    -1.14772255e-02 -1.14086252e-02 -1.22357886e-02 -1.11535424e-03
    1.68852918e-02 4.66381125e-02 3.36325131e-02 1.70514341e-02
    3.29734758e-02 2.68645622e-02 8.60027038e-03 3.63232680e-02
    2.40377970e-02 1.06389783e-02 2.72205621e-02 2.33536847e-02
    4.41295207e-02 4.66934852e-02 7.01393932e-02 2.28325855e-02
    2.65613552e-02 3.56364883e-02 -3.46720070e-02 -3.01865730e-02
    -2.41907388e-02 4.43098979e-04 -1.73799694e-02 -3.36614475e-02
    -3.68112847e-02 -3.45782451e-02 -5.39054256e-03 -1.15485433e-02
    -2.26921570e-02 -1.29056536e-02 -1.52211823e-02 -2.20992677e-02
    -2.39100419e-02 -4.05473374e-02 -4.99586761e-02 -4.72655371e-02
    -5.35642868e-03 5.32515422e-02 6.23319708e-02 1.94963459e-02
    5.94793260e-02 2.65538860e-02 3.14423349e-03 2.80070603e-02
    4.87010144e-02 3.90413292e-02 3.78183164e-02 3.05402260e-02
    4.56290990e-02 4.13657399e-03 2.31602862e-02 -1.10582132e-02
    3.15754823e-02 4.62536551e-02 -5.12721241e-02 -2.57601403e-03
    2.58940854e-03 -1.70041993e-02 -1.13087529e-02 -5.22982776e-02
    -5.59511222e-02 -6.40047640e-02 -8.60817209e-02 -4.56415489e-02
    -3.28536481e-02 -4.20731604e-02 6.08736323e-03 -4.08790298e-02
    -6.63426844e-03 -3.56715135e-02 -1.69051513e-02 -2.02423334e-02
    3.88708003e-02 5.43696545e-02 4.32421416e-02 8.26073736e-02
    5.36875799e-02 -1.16397925e-02 -4.17461768e-02 1.40976328e-02
    3.00627258e-02 1.17768301e-03 -4.81571164e-03 1.62185542e-02
    2.26872973e-02 -6.19733334e-03 -2.95426045e-02 -3.91333140e-02
    1.02462200e-02 1.02420356e-02 -2.57858075e-03 -3.14596668e-03
    1.00451186e-02 4.41466235e-02 -6.67735469e-03 -4.19054553e-02
    -5.55382743e-02 -1.86088029e-02 -4.74833790e-03 1.20802317e-03
    -4.63155583e-02 -4.40796725e-02 -2.32742615e-02 -8.11695680e-02
    -6.34481758e-02 -5.43210804e-02 -1.28959781e-02 -1.68542601e-02
    1.85576882e-02 2.32282449e-02 2.68471017e-02 1.18670780e-02
    2.83326413e-02 2.19767876e-02 -1.66116022e-02 3.23954001e-02
    2.04899274e-02 -1.51079101e-02 2.49257535e-02 -4.56567761e-03
    -1.16539504e-02 1.42048681e-02 -3.43589783e-02 -7.90040940e-02
    -2.13355105e-02 -2.49706358e-02 -8.39441456e-03 -1.25291776e-02
    -1.77428033e-02 -3.41397547e-03 -5.39157819e-03 -2.13174261e-02
    -3.69488634e-02 -2.08478104e-02 -1.87770016e-02 -6.08581826e-02
    -2.18392648e-02 -2.75568105e-02 -1.28556611e-02 -9.78405587e-03
    -8.31608847e-02 -1.03340261e-01 -6.77354857e-02 -6.38531595e-02
    -4.06753905e-02 2.58584321e-02 3.88370566e-02 -3.32374498e-02
    -7.61287585e-02 7.96367414e-03 2.23644879e-02 1.68796852e-02
    -9.12101381e-03 -1.11682890e-02 1.72272176e-02 5.67286089e-02
    1.29186222e-02 -1.49132637e-02 8.30666907e-03 1.06609622e-02
    5.16372882e-02 2.27016713e-02 -6.74274489e-02 7.53447064e-04
    3.69624160e-02 -3.50129232e-02 -1.12950787e-01 -3.46405581e-02
    -6.65116729e-03 4.40221094e-03 -5.80820628e-02 -4.95566390e-02
    -1.73591208e-02 -3.34474165e-03 -6.03264058e-03 -1.00796081e-01
    -5.61190071e-03 3.83143462e-02 2.89937835e-02 -3.98092270e-02
    -2.66672820e-02 -2.67873332e-02 1.60805043e-02 4.70153475e-03
    -1.75414607e-02 1.69520117e-02 3.56388167e-02 3.79492342e-02
    1.32823540e-02 -3.54526239e-03 2.19540894e-02 3.44448164e-02
    -1.79272592e-02 -6.28382573e-03 3.94335613e-02 8.52967575e-02
    8.70394185e-02 6.22702166e-02 -5.80337457e-02 -4.00332510e-02
    -2.92435829e-02 -3.15823443e-02 -8.47152397e-02 -1.27113201e-02
    -5.73000824e-03 9.22454707e-03 -6.67610019e-02 1.16776023e-03
    2.97484174e-02 4.60856184e-02 -4.25358973e-02 -8.08784291e-02
    -2.31583975e-02 1.13555649e-02 6.24599159e-02 2.17166659e-03
    -2.49425005e-02 2.06860825e-02 4.02537622e-02 -2.76069008e-02
    -5.33074467e-03 2.77871313e-03 4.18682992e-02 5.59882931e-02
    2.23908052e-02 2.66243406e-02 6.32574931e-02 2.78340224e-02
    3.77469584e-02 3.11088469e-02 3.38293947e-02 6.28661662e-02
    3.57333310e-02 4.86544818e-02 -3.47185135e-02 -6.60959980e-04
    7.70525588e-03 -4.85788509e-02 -7.55993053e-02 -5.72852418e-02
    -1.60359088e-02 -1.27391366e-03 -1.23400372e-02 -2.04901248e-02
    1.91711821e-02 -2.61300616e-03 -4.06083055e-02 -5.41131459e-02
    -2.88833827e-02 5.18716983e-02 3.49161103e-02 2.46095490e-02
    6.11128584e-02 7.11305290e-02 4.48223650e-02 3.33576500e-02
    1.77202243e-02 1.33532872e-02 4.70811501e-02 1.60966273e-02
    2.31848899e-02 8.57255086e-02 1.03086501e-01 5.42528480e-02
    1.63839776e-02 4.15116288e-02 2.36940980e-02 4.47347276e-02
    3.83380651e-02 2.71498151e-02 -1.27174603e-02 3.34889106e-02
    -9.74591076e-03 -3.53723615e-02 -6.37043789e-02 -3.52609679e-02
    5.44711165e-02 -7.16124987e-03 2.30944366e-03 2.61330064e-02
    3.54341790e-02 -1.08719626e-02 -1.74928792e-02 -6.31443486e-02
    -1.24654388e-02 7.20258206e-02 3.35064381e-02 6.54552190e-04
    2.03106329e-02 8.76465365e-02 5.60412183e-02 1.94583610e-02
    1.18932333e-02 2.82368436e-02 3.90726291e-02 2.76793540e-02
    4.04046010e-03 6.73455596e-02 6.32454157e-02 4.71644253e-02
    4.84294109e-02 9.34023596e-03 5.77071682e-02 4.55077663e-02
    4.92043421e-02 2.62119845e-02 7.75858713e-03 3.33948135e-02
    -2.49770731e-02 -5.52049950e-02 -8.62362683e-02 -1.35595100e-02
    2.57615875e-02 2.49219537e-02 -8.44892301e-03 2.05629002e-02
    3.81754823e-02 1.22727733e-05 -5.18822223e-02 -9.32449475e-02
    5.06649492e-03 4.21649441e-02 1.20856380e-02 7.65260402e-03
    3.55946086e-02 5.39575890e-02 9.60776582e-02 8.66560265e-02
    4.98554595e-02 1.34897130e-02 3.22375409e-02 4.41236161e-02
    6.18159249e-02 1.86400488e-02 3.18040587e-02 1.60641633e-02
    5.30752018e-02 8.66732153e-04 7.44608091e-03 6.36801124e-03
    3.16144489e-02 3.42316739e-02 -1.00687388e-02 2.05052067e-02
    1.89275984e-02 -1.68632548e-02 -4.49259542e-02 5.99007821e-03
    2.39145122e-02 -5.14577376e-03 1.67212747e-02 -1.97209790e-02
    1.24666570e-02 -2.88305484e-04 -3.60159948e-02 -1.14243455e-01
    -3.08474489e-02 -2.60257386e-02 -3.51381190e-02 3.66419583e-04
    4.09621000e-02 3.69035229e-02 7.41996896e-03 1.25215650e-02
    3.09223924e-02 -1.20892739e-02 8.06236174e-03 2.77768373e-02
    3.75504345e-02 -1.29080219e-02 1.32725816e-02 1.65524036e-02
    2.23014946e-03 -6.38065021e-03 -3.32370140e-02 -1.72089580e-02
    3.66185680e-02 -5.76201919e-03 2.72308253e-02 5.50264046e-02
    5.08982651e-02 -3.27640064e-02 -5.81867099e-02 -6.41071498e-02
    9.24445596e-03 1.34774018e-02 8.82044435e-03 -6.04818612e-02
    -1.34100253e-02 -3.19334567e-02 -4.24493179e-02 -1.16319418e-01
    -7.92880803e-02 -2.27934145e-03 3.90434973e-02 -5.35734557e-02
    6.65212125e-02</SVMDetector></hog_svm_detector_2>
</opencv_storage>
