<?xml version="1.0"?>
<opencv_storage>
<trained_hog type_id="opencv-object-detector-hog">
  <winSize>
    64 64</winSize>
  <blockSize>
    16 16</blockSize>
  <blockStride>
    8 8</blockStride>
  <cellSize>
    8 8</cellSize>
  <nbins>9</nbins>
  <derivAperture>1</derivAperture>
  <winSigma>4.</winSigma>
  <histogramNormType>0</histogramNormType>
  <L2HysThreshold>2.0000000000000001e-01</L2HysThreshold>
  <gammaCorrection>1</gammaCorrection>
  <nlevels>64</nlevels>
  <signedGradient>0</signedGradient>
  <SVMDetector>
    -5.57678193e-02 -6.80773286e-03 -1.32913946e-03 -2.71531288e-02
    -1.17515244e-01 -3.36961038e-02 4.93046418e-02 1.40135260e-02
    -5.12124822e-02 -2.78044064e-02 1.61858946e-02 5.86850978e-02
    9.21903457e-03 -1.16011366e-01 -9.63092409e-03 -4.01363382e-03
    -2.79384963e-02 -2.62812618e-02 -4.61638992e-04 1.10980461e-03
    9.43914428e-03 1.95093025e-02 -6.56228140e-02 -1.66269392e-02
    3.29336524e-02 2.04306655e-02 -5.28487973e-02 3.06398179e-02
    2.42808051e-02 -3.76264611e-03 5.31491765e-04 -1.04690166e-02
    1.51420990e-03 3.55498344e-02 1.81819797e-02 6.45443331e-03
    -5.61756380e-02 -9.49220359e-03 4.15821141e-03 -2.31269025e-03
    -8.02729800e-02 -2.00372413e-02 -1.92660950e-02 -5.85028306e-02
    -4.70155105e-02 1.14921425e-02 7.25648999e-02 1.56472605e-02
    -2.82268766e-02 -8.68720710e-02 -6.71526119e-02 3.06707490e-02
    1.57879256e-02 7.58020394e-03 1.12878829e-02 1.79962274e-02
    2.48915274e-02 8.03439785e-03 -1.58004425e-02 2.06897128e-02
    9.12804157e-03 -3.59226018e-02 -2.81508863e-02 6.89148605e-02
    8.56477842e-02 7.46693388e-02 3.00251134e-02 -2.92611355e-03
    -8.13332852e-03 1.63777079e-02 1.78892147e-02 3.95309238e-04
    3.33444844e-03 1.18269268e-02 -1.91821605e-02 -4.71217446e-02
    -7.49081299e-02 -5.80912344e-02 1.76149830e-02 8.84859636e-03
    -2.63915658e-02 3.24740894e-02 3.15756872e-02 4.62266877e-02
    -2.27198936e-02 -6.79220557e-02 -4.10607345e-02 2.28650197e-02
    2.54475232e-02 -2.48477999e-02 3.09884418e-02 5.53932525e-02
    3.57003547e-02 -9.83942300e-03 -2.72446182e-02 -3.32506225e-02
    3.75163183e-02 1.77343469e-02 -1.69111174e-02 5.19815162e-02
    3.56242917e-02 4.88812216e-02 2.99349315e-02 1.62747558e-02
    3.79227027e-02 4.62839082e-02 4.69280072e-02 2.06514411e-02
    8.62652063e-03 -4.98516252e-03 5.82801290e-02 -3.80522422e-02
    -5.19177504e-02 -3.23595293e-02 1.22138411e-02 3.98842171e-02
    -1.65696368e-02 1.22839380e-02 2.42191274e-02 5.85964508e-02
    -1.83049813e-02 -5.84696718e-02 -5.14111742e-02 1.93010527e-03
    3.65355015e-02 3.36637348e-02 2.37901378e-02 1.80361401e-02
    4.67443913e-02 7.60049606e-03 3.14928568e-03 2.46807896e-02
    2.54417881e-02 4.84821163e-02 3.76816206e-02 3.01863570e-02
    4.11001518e-02 3.44834067e-02 3.01911607e-02 4.45450284e-02
    1.72572825e-02 3.65584381e-02 8.33440945e-02 7.21988305e-02
    7.97498942e-05 1.80649310e-02 3.60790826e-02 -1.28281573e-02
    -8.39256719e-02 -7.57751390e-02 -2.16262937e-02 3.74578796e-02
    4.70835529e-03 7.28465850e-03 7.07305968e-03 5.14238700e-02
    1.00942738e-02 -7.35990778e-02 -6.29651174e-02 -2.44581979e-02
    2.87989639e-02 1.50811113e-02 2.65529230e-02 1.88507047e-02
    1.28258318e-02 2.28569247e-02 -5.19938860e-03 3.12977582e-02
    5.62352911e-02 6.47895038e-02 1.78528819e-02 4.84648235e-02
    5.27076349e-02 4.25607823e-02 5.38690649e-02 -4.08488363e-02
    2.17365455e-02 3.27676907e-02 6.50259554e-02 7.56766200e-02
    9.82710999e-03 -1.20161902e-02 2.37277709e-02 -1.65100656e-02
    -4.29377519e-02 -1.11590959e-02 2.24088933e-02 3.65704708e-02
    -1.17519740e-02 -9.99368727e-03 -3.45322303e-02 -3.36411558e-02
    -5.38415127e-02 -8.79203007e-02 -3.13684493e-02 1.03322407e-02
    1.42206103e-02 -2.88788453e-02 5.64471222e-02 5.13932891e-02
    3.16208452e-02 8.99118744e-03 1.92070324e-02 7.41698742e-02
    1.06751449e-01 6.46818653e-02 5.05462177e-02 2.39942968e-02
    3.27162892e-02 -9.70898475e-03 -1.15954899e-03 -2.55171824e-02
    5.14529981e-02 1.07562393e-02 3.93053405e-02 1.44457845e-02
    4.04728530e-03 -6.93607796e-03 -1.77394343e-03 -6.78059459e-02
    -3.21767777e-02 -2.64829230e-02 5.21736667e-02 4.54287268e-02
    9.81652830e-03 -6.47922009e-02 1.01600224e-02 2.55697803e-03
    -9.16786119e-02 -9.19731632e-02 -3.42265330e-02 -1.80786550e-02
    -1.32756988e-02 -7.31660128e-02 4.55175340e-02 2.80901492e-02
    1.22144138e-02 -1.90569274e-02 2.68211924e-02 1.72534343e-02
    -1.50739483e-03 3.61297131e-02 4.48165499e-02 5.81693975e-03
    2.79801264e-02 -6.40887476e-04 -2.38230415e-02 -2.47982815e-02
    3.17829549e-02 8.58757738e-03 3.23672369e-02 6.85373088e-03
    -3.09474766e-02 -3.92928235e-02 -2.16111243e-02 7.00137671e-03
    -3.94818448e-02 -1.78563427e-02 1.48424851e-02 -4.85655107e-02
    -7.75950328e-02 9.11231805e-03 1.05902152e-02 1.06440810e-02
    1.69575047e-02 6.82320679e-03 -3.13805044e-02 9.05067381e-03
    -4.51126099e-02 -7.16169029e-02 -1.37312757e-02 -5.62064303e-03
    -1.02018034e-02 8.55245721e-03 -4.49475832e-02 -4.11216654e-02
    1.72303505e-02 8.99624545e-03 -1.17597794e-02 2.27763914e-02
    5.26055619e-02 1.46477288e-02 3.35218981e-02 -7.73212034e-03
    -1.52759627e-02 5.30018657e-02 1.85768865e-02 -2.86328364e-02
    -1.10532986e-02 -2.84523033e-02 -1.35201390e-03 -3.90273370e-02
    -4.48534116e-02 -3.02485209e-02 -2.72384495e-03 -7.04779029e-02
    -6.31555095e-02 1.04174558e-02 2.02744058e-03 1.83741059e-02
    4.42188838e-03 -4.42743581e-03 -3.81593257e-02 -2.81979050e-02
    -1.81864072e-02 -4.41299267e-02 3.51657101e-04 9.63772554e-03
    2.26068124e-02 4.24657762e-03 -7.03129843e-02 -4.52111252e-02
    2.38081366e-02 -7.58824579e-04 -5.00351861e-02 5.30789346e-02
    6.89058006e-02 2.60395929e-02 2.57323831e-02 -4.33741929e-03
    1.55434599e-02 1.81904528e-02 3.83827575e-02 -1.56042445e-03
    -2.22036112e-02 -1.31752165e-02 -2.55566370e-02 -2.19144449e-02
    -1.45279495e-02 -3.96072268e-02 5.22807101e-03 -1.40862577e-02
    -4.69110273e-02 -1.54123316e-02 -1.94240175e-02 4.75245062e-03
    -2.25288887e-02 6.99617667e-03 -2.52753180e-02 -6.19116100e-03
    -3.37672532e-02 -2.79855058e-02 -5.63976530e-04 2.57794540e-02
    8.52092821e-03 -1.84078026e-03 -1.57968793e-02 -8.68530571e-03
    4.66983803e-02 2.81946920e-02 -8.27190373e-03 4.37709391e-02
    5.26683703e-02 2.17854418e-02 3.54285799e-02 3.77485156e-03
    2.21983977e-02 4.85291854e-02 4.67005521e-02 3.34983654e-02
    3.70255875e-04 -3.65162082e-02 -2.69600116e-02 -5.57487905e-02
    -7.48016825e-03 3.11296177e-03 -1.39647191e-02 -3.47642191e-02
    -4.36951369e-02 -3.15339044e-02 -3.67389135e-02 -4.76343147e-02
    -3.02104913e-02 1.62843391e-02 5.04680490e-03 -2.92895682e-04
    -3.04263420e-02 -3.07777710e-02 2.10085455e-02 1.99437346e-02
    -1.33550717e-02 1.00390911e-02 1.43105490e-02 4.19705100e-02
    2.78266612e-02 4.14024517e-02 5.97322872e-03 4.00704816e-02
    2.19106581e-02 5.56388497e-03 3.90438326e-02 9.63813998e-03
    6.78032413e-02 2.03292258e-02 1.00511555e-02 -7.33408798e-03
    -6.91078752e-02 -4.25036401e-02 -4.26869467e-02 -5.14842644e-02
    3.19206044e-02 -2.22638380e-02 1.60665456e-02 -1.40574118e-02
    -6.81648105e-02 -1.42711429e-02 -2.06962619e-02 -2.47335266e-02
    -8.13627895e-03 1.63929071e-03 -4.49507078e-03 -3.62678617e-02
    -3.38330790e-02 -5.73150180e-02 4.13435325e-02 1.91895012e-02
    -1.23508573e-02 1.22313397e-02 2.49968227e-02 1.60704628e-02
    5.83208054e-02 3.64952274e-02 -5.37550170e-03 2.85601616e-02
    9.25928447e-03 -1.54995844e-02 3.28888185e-02 -3.62413712e-02
    4.52145524e-02 1.38204284e-02 2.45827734e-02 5.45324385e-02
    -5.80895133e-03 -1.92528106e-02 -5.86352535e-02 -5.78537621e-02
    3.18000726e-02 3.19689959e-02 1.58468373e-02 -9.32239927e-03
    -1.38009302e-02 -2.14370750e-02 -8.14012345e-03 -6.15577698e-02
    -7.18576461e-02 -2.55588535e-02 -3.40466239e-02 -4.82744612e-02
    -4.02632058e-02 -1.71071347e-02 3.37774977e-02 9.62958764e-03
    -3.73524390e-02 5.57215093e-03 2.48002037e-02 7.20376149e-02
    3.67799290e-02 3.98019329e-02 5.48029207e-02 -1.62667478e-03
    -1.26756039e-02 -6.12831153e-02 -2.54384186e-02 -6.92614242e-02
    1.88841876e-02 2.14626491e-02 -4.95094433e-03 -1.26073486e-03
    -2.73174383e-02 -1.34600382e-02 -3.39689292e-02 -4.68162335e-02
    4.12180983e-02 -1.79070253e-02 -4.55265306e-03 -2.34548561e-03
    -2.28857212e-02 -6.19062781e-02 -5.19991256e-02 -8.29169378e-02
    -8.22527856e-02 3.43960375e-02 -2.74145901e-02 -1.82590969e-02
    -1.78455785e-02 -3.43765728e-02 9.43494868e-03 2.77459938e-02
    -1.38896145e-02 2.01594401e-02 -1.35385552e-02 2.29385253e-02
    2.59331074e-02 2.67649628e-02 2.32430827e-02 -2.80881934e-02
    -9.54703055e-03 -7.02200457e-02 -1.51382647e-02 -3.79345566e-02
    -6.39887433e-03 -1.75259705e-03 2.31274851e-02 -1.05711939e-02
    -6.56085387e-02 -5.21748848e-02 -4.63769175e-02 -5.22084394e-03
    -2.59265937e-02 -5.68119846e-02 -1.22658061e-02 -1.19619006e-02
    -4.38743457e-02 -1.49213132e-02 2.74840388e-02 8.72914866e-03
    -2.38951365e-03 -8.58542416e-03 -4.92407046e-02 1.53437746e-03
    -1.88068449e-02 -4.96580787e-02 -4.00813073e-02 -4.59115952e-02
    -3.49065959e-02 6.48474600e-03 -3.30917016e-02 -1.41394204e-02
    -3.93409804e-02 1.04773939e-02 -2.29193140e-02 2.69812439e-02
    3.11840996e-02 4.73415945e-04 2.93439422e-02 1.21903629e-03
    1.11526530e-03 4.24428890e-03 1.71990730e-02 5.29027777e-03
    -3.21977846e-02 -1.22569501e-02 -2.74942722e-02 -4.84254071e-03
    -1.73083544e-02 -2.75044646e-02 -1.55093744e-02 -3.90380882e-02
    -8.00465867e-02 9.98859294e-03 3.03241685e-02 1.00561194e-02
    1.98324826e-02 3.09607852e-02 1.44295618e-02 -1.94231682e-02
    6.92298356e-03 -3.72111350e-02 -2.91369241e-02 4.96829813e-03
    -2.29530279e-02 3.31575014e-02 8.25803634e-03 -3.38467471e-02
    -4.31241579e-02 -3.48729640e-02 -5.03779426e-02 -4.24518622e-03
    4.88423668e-02 7.20049953e-03 4.71096225e-02 1.51431682e-02
    5.80080226e-03 -1.07946657e-02 3.13660838e-02 7.32003420e-04
    7.40192505e-03 -2.22555362e-03 -4.74389419e-02 -1.84492990e-02
    -1.23082437e-02 -1.45069733e-02 3.79848666e-03 1.53584098e-02
    -1.06551126e-02 1.63458020e-03 -1.06107304e-02 -3.40690687e-02
    7.42296735e-03 1.89102553e-02 1.83400549e-02 8.07342958e-03
    1.64086949e-02 -2.22876831e-03 6.10713102e-03 -1.21866055e-02
    -4.61012498e-02 6.06911816e-03 1.71844661e-02 -1.59364790e-02
    -4.07316424e-02 6.33582892e-03 8.90191738e-03 2.61155982e-02
    2.10714564e-02 -3.25745009e-02 1.73478704e-02 2.11732667e-02
    3.01841479e-02 -1.69027783e-02 -4.75718686e-03 1.09902825e-02
    -3.02358773e-02 -3.66598554e-02 -6.69925064e-02 -3.74004543e-02
    4.40036356e-02 -1.43866409e-02 1.63848754e-02 3.79470252e-02
    -8.24713425e-05 -1.93659822e-03 -2.05367412e-02 -4.24536914e-02
    2.28529219e-02 1.70377474e-02 3.80557179e-02 -1.99903231e-02
    1.52714346e-02 -1.13542564e-02 -6.02702377e-03 -1.25650167e-02
    -4.34985496e-02 -3.28919068e-02 2.04379410e-02 -3.70758697e-02
    -1.64516214e-02 2.75928266e-02 2.57009044e-02 1.16764130e-02
    1.27560385e-02 -2.02863328e-02 9.50425770e-03 8.92410055e-03
    9.30620637e-03 -2.85552274e-02 1.34840040e-02 3.73097211e-02
    4.55453046e-05 -2.95888260e-02 -5.00717387e-02 -5.85925905e-03
    4.88055386e-02 -2.42877863e-02 3.15624066e-02 1.99192297e-02
    -2.76843868e-02 -9.90494341e-03 -3.61348279e-02 -2.26562563e-02
    3.74531224e-02 3.69412415e-02 5.10606542e-03 4.10409598e-03
    6.15994353e-03 -4.14095540e-03 6.84035127e-04 -2.26323549e-02
    -4.10837419e-02 -1.87709350e-02 6.62930775e-03 -2.14485894e-03
    2.18694601e-02 1.91279948e-02 1.64847113e-02 -8.87240097e-03
    -4.62664180e-02 -2.76546720e-02 1.26205361e-03 -2.11036503e-02
    -2.04269793e-02 1.86283197e-02 3.68816629e-02 2.37504244e-02
    -1.37566105e-02 -1.69877075e-02 -2.76304260e-02 3.00166495e-02
    1.00328498e-01 5.32992259e-02 2.19541397e-02 6.42171036e-03
    1.06733320e-02 -4.41657156e-02 -4.65914123e-02 -8.21573585e-02
    -3.35198827e-02 3.32809659e-03 -5.59037132e-03 -2.73915678e-02
    -5.19932844e-02 -3.01185362e-02 9.98255331e-03 -1.43092708e-03
    -1.58263389e-02 6.43425658e-02 5.82734421e-02 4.35731597e-02
    3.30339484e-02 4.95079719e-02 3.58112641e-02 -2.15128269e-02
    -1.59108620e-02 -4.67790328e-02 8.41553695e-03 -3.82410660e-02
    5.01789851e-03 -1.02658924e-02 -1.62434839e-02 2.04499299e-03
    -1.49978865e-02 -1.72805395e-02 -4.65354659e-02 1.86126158e-02
    5.44182509e-02 2.84246542e-02 1.59311704e-02 -1.63875672e-03
    -2.30471720e-03 -4.66975421e-02 -2.61042044e-02 -8.30783248e-02
    -5.09192161e-02 2.11802945e-02 2.21770676e-03 -1.96626522e-02
    -2.54175644e-02 -5.98783940e-02 1.85730625e-02 1.59718115e-02
    -1.96353402e-02 3.11929490e-02 2.32970491e-02 5.09378761e-02
    3.33249979e-02 3.76734100e-02 3.87693197e-02 -8.26467201e-02
    -5.02053015e-02 -1.05593964e-01 -4.37620096e-02 -4.90876995e-02
    2.66571436e-02 -1.49541367e-02 -2.71077920e-02 -6.24117553e-02
    -4.58834879e-02 -7.52809793e-02 -5.81811741e-02 -2.63193510e-02
    5.42221740e-02 -1.35882087e-02 -4.22092043e-02 -4.04905789e-02
    -3.52467075e-02 -9.37108230e-03 -3.05885375e-02 -5.16864993e-02
    1.80355553e-02 6.78997487e-02 -5.82534820e-03 -5.14304712e-02
    -2.06355266e-02 -6.86697848e-03 -3.98789644e-02 -3.87052633e-02
    -4.59355302e-02 -1.56161077e-02 -8.08591861e-03 -2.60801651e-02
    -7.90290982e-02 -7.26860464e-02 -4.08309326e-02 -1.25959367e-02
    -2.09419783e-02 -7.09520206e-02 -2.66019050e-02 1.96503401e-02
    2.64234506e-02 -5.18530756e-02 -2.90573817e-02 -5.22636855e-03
    -6.14224598e-02 -3.65802869e-02 -6.46257922e-02 2.81380806e-02
    5.47076799e-02 3.64204198e-02 -4.53804061e-02 -4.36210856e-02
    -4.11761589e-02 -2.35877205e-02 -8.37690104e-03 -6.81627030e-03
    4.27556522e-02 4.65473682e-02 2.72969622e-02 -4.60209185e-03
    1.12932455e-02 -6.41495804e-04 -4.98194136e-02 -4.55438532e-02
    -6.22522980e-02 2.42749471e-02 1.99816935e-02 2.32710838e-02
    -7.14853778e-02 -3.98306921e-02 -5.53624816e-02 -3.97974811e-03
    2.70826072e-02 9.72937047e-03 3.34547423e-02 -1.25815964e-03
    3.15664038e-02 -2.63239667e-02 -1.44546479e-02 -2.46468931e-02
    1.58273394e-03 -3.13714296e-02 -5.56552410e-02 -5.35046542e-03
    6.76061958e-02 -8.03154241e-03 -3.91917564e-02 6.97113760e-03
    1.83382947e-02 -2.03306731e-02 -2.35896315e-02 -5.90609871e-02
    -3.99808306e-03 9.35278162e-02 2.77648270e-02 -3.91239077e-02
    -6.02496730e-04 -3.69392824e-03 1.97859220e-02 2.53240932e-02
    -3.58518511e-02 -9.36111715e-03 2.07830090e-02 -1.44745689e-03
    -6.56418875e-02 -3.82933617e-02 -7.71125592e-03 1.32748310e-03
    -4.33011400e-03 -4.60411943e-02 3.01356390e-02 4.65857275e-02
    1.21292649e-02 -5.71253374e-02 -1.78259723e-02 -1.77303199e-02
    -2.86980644e-02 -4.30958606e-02 -5.17267063e-02 -2.16116589e-02
    8.93320143e-02 8.06553476e-03 -2.44770907e-02 -2.14957097e-03
    -7.10121635e-03 -1.51283573e-02 -2.07920242e-02 -3.75600718e-02
    4.84059565e-03 6.45607933e-02 -1.17203966e-03 -1.30589316e-02
    -5.35290921e-04 7.22239446e-03 1.15848938e-02 1.57503423e-03
    -3.46857943e-02 7.52494577e-03 4.55014706e-02 -1.38148526e-02
    -6.12507239e-02 -5.17259426e-02 -2.15217751e-02 2.12288108e-02
    1.68098113e-03 -3.95181850e-02 2.07079388e-02 8.92836414e-03
    -2.40049381e-02 -5.60874529e-02 -2.18588226e-02 -1.22268219e-02
    -2.34146845e-02 -2.36710254e-02 -2.04399880e-02 -1.27990348e-02
    7.40609020e-02 -1.51127884e-02 2.87479516e-02 -3.98655003e-03
    -2.56965235e-02 -7.77597399e-03 -2.08055004e-02 -1.74691365e-03
    2.73478194e-03 3.76533046e-02 3.63375954e-02 2.28586737e-02
    5.35362493e-03 -8.38555768e-03 -1.88415181e-02 -1.93611421e-02
    7.81630166e-03 -8.00996844e-04 2.83308830e-02 -2.92258859e-02
    -3.47013846e-02 -1.22455796e-02 -2.25472655e-02 5.56916557e-03
    -1.23189008e-02 5.92095498e-03 1.95620712e-02 -2.83429753e-02
    3.32727190e-03 -4.05897200e-03 -1.62310544e-02 -3.77145805e-03
    -5.38688339e-03 -1.82175934e-02 1.76314246e-02 3.26983333e-02
    1.39272854e-01 5.26008643e-02 1.78389456e-02 -3.02282185e-03
    -8.48440733e-03 -1.93931255e-02 -1.89168174e-02 2.78819744e-02
    -4.17357543e-03 2.48279124e-02 5.96539769e-03 1.23718027e-02
    -3.06366254e-02 -2.26762332e-02 1.10717230e-02 -1.02242585e-02
    1.55539326e-02 3.37707736e-02 8.73582736e-02 3.63115408e-02
    1.17549337e-02 -1.83493122e-02 -1.47109444e-03 -1.81867220e-02
    -3.81663404e-02 2.14110613e-02 -1.36370035e-02 -2.56073754e-02
    -7.96066888e-04 1.81028224e-03 -1.05672097e-02 -1.27060497e-02
    7.72273354e-03 4.11613984e-03 2.98939738e-02 3.42740566e-02
    4.64849919e-02 6.78373128e-03 2.82412469e-02 5.77104650e-03
    -6.96657272e-03 -6.75333664e-02 -7.55548850e-02 -9.39941630e-02
    -1.16947237e-02 1.43630737e-02 2.67399997e-02 -5.47105521e-02
    -4.15159576e-02 -6.25268817e-02 3.49375256e-03 -6.13752613e-03
    4.36890759e-02 1.64392348e-02 6.27990905e-03 1.27621694e-02
    1.38764344e-02 1.70060080e-02 1.63501296e-02 -6.09262288e-02
    -6.36253282e-02 -5.91625012e-02 1.58396270e-02 -4.58250679e-02
    -1.65746789e-02 -9.04662684e-02 -5.50792553e-02 -6.74187392e-02
    -2.54524816e-02 1.49565674e-02 -1.85004938e-02 -1.88745279e-02
    4.99570649e-03 2.32536364e-02 -1.51956771e-02 -2.62625739e-02
    -4.04351912e-02 -8.60451534e-03 2.78860722e-02 3.68968919e-02
    1.40808588e-02 3.60493809e-02 4.49725129e-02 1.02877840e-02
    2.75765397e-02 1.93524938e-02 -6.07914925e-02 -4.98568965e-03
    -2.36237794e-02 -7.02823550e-02 -5.44841327e-02 1.80504064e-03
    -4.20169048e-02 -3.10647245e-02 -6.14285544e-02 -5.47134839e-02
    -1.69587173e-02 -6.68572541e-03 -5.36647551e-02 -3.29702571e-02
    -3.84037546e-03 -7.39459042e-03 2.54374314e-02 -2.12777834e-02
    -5.23179993e-02 -2.00059749e-02 -2.33696476e-02 -3.78079787e-02
    4.70912978e-02 3.25028151e-02 -2.10436503e-03 7.60017056e-03
    -3.07761673e-02 -7.53254211e-03 4.44263406e-02 1.10814841e-02
    -6.12104218e-03 5.10408096e-02 4.74939123e-02 2.60525383e-02
    5.01016900e-02 -7.21053872e-03 -7.77557418e-02 -3.73526961e-02
    -2.89014950e-02 -4.22632992e-02 -4.98200282e-02 3.73055530e-03
    -3.89927812e-02 -2.14021280e-02 -3.54732350e-02 -3.98687795e-02
    -1.78129747e-04 -4.78115380e-02 -5.91403618e-03 7.37108802e-03
    4.26682830e-02 1.72817167e-02 3.46067250e-02 3.29586724e-03
    7.61922682e-03 2.50742566e-02 -1.80217549e-02 -3.22818458e-02
    4.58187647e-02 5.23606874e-03 -2.50121560e-02 7.83041120e-03
    8.41363333e-03 3.61988717e-03 1.82686578e-02 1.24794934e-02
    1.45633360e-02 5.72177581e-02 1.70281064e-02 -2.85386536e-02
    3.68245803e-02 1.88459232e-02 -8.08700826e-03 8.88076611e-03
    -2.70469720e-03 -1.84012167e-02 -2.78247185e-02 -1.12466989e-02
    -5.92681430e-02 -7.29428430e-04 5.97369624e-03 -1.03378296e-02
    4.19470528e-03 7.48611661e-03 2.36551836e-02 2.31827772e-03
    1.15246354e-02 -6.10791184e-02 -1.27316536e-02 -6.22642972e-03
    1.73610635e-02 4.93877642e-02 9.46798921e-03 -3.70531268e-02
    6.99619651e-02 -1.40623562e-02 -3.79893072e-02 -1.10679329e-03
    -8.15575384e-03 3.35263051e-02 3.79640050e-02 -2.03451095e-03
    4.95224353e-03 6.39143288e-02 5.77266002e-03 -1.92179829e-02
    1.65153481e-02 5.10185352e-03 -1.10466415e-02 2.92886980e-02
    5.07249683e-03 -3.95051902e-03 1.93764828e-02 -2.13683881e-02
    -6.68322816e-02 -3.59371789e-02 -2.89997794e-02 -2.07299776e-02
    -1.62444764e-03 -4.52722907e-02 2.33748667e-02 -2.56455131e-02
    1.39629496e-02 -4.91031259e-02 -1.46194045e-02 -9.54900123e-03
    1.17194373e-02 3.07733696e-02 3.70373428e-02 -1.68256916e-03
    4.67834733e-02 -1.14026321e-02 -3.41872908e-02 -1.23306029e-02
    -7.51735223e-03 1.15900645e-02 5.15844822e-02 4.03859466e-02
    -1.17433732e-02 3.26218605e-02 2.26396769e-02 -1.28260115e-02
    -3.29632722e-02 -1.01559237e-02 -2.11420115e-02 4.74021910e-03
    1.41322957e-02 -3.39614637e-02 1.11992303e-02 3.95143731e-03
    -4.49166708e-02 -2.25953571e-02 -5.13783190e-03 -5.37633616e-03
    -3.27655789e-03 -1.87927410e-02 4.15098108e-03 -2.37305053e-02
    1.33741200e-02 -2.90489644e-02 -3.81894186e-02 -1.07744839e-02
    2.68681739e-02 5.26208915e-02 5.38082533e-02 3.65316197e-02
    1.07350014e-01 6.57285824e-02 -3.64892476e-04 5.38958563e-03
    1.34876277e-02 2.50267982e-03 -1.17865363e-02 3.65847163e-03
    1.62528660e-02 1.64448824e-02 1.19336937e-02 -4.40789312e-02
    -1.79849640e-02 -2.30937898e-02 9.63615812e-03 -3.00524815e-04
    2.89888261e-03 4.84411418e-02 3.96433920e-02 2.05691662e-02
    -2.44984441e-02 -1.25853131e-02 -9.23441816e-03 -3.12879421e-02
    -6.73970580e-02 -4.19596210e-02 -1.31353233e-02 -6.17518388e-02
    -2.12198980e-02 -7.85218477e-02 -5.52255511e-02 -5.05063236e-02
    3.03419642e-02 2.88217608e-02 3.30413580e-02 4.61638719e-02
    7.04126731e-02 3.19966041e-02 -2.64776796e-02 5.73367346e-03
    6.72294432e-03 -6.31547570e-02 -2.75267307e-02 -1.31005133e-02
    1.61007401e-02 9.72501468e-03 -2.69349348e-02 -8.05565789e-02
    -4.34531718e-02 -7.99020305e-02 6.24565268e-03 -1.31993145e-02
    2.33611465e-03 8.45865067e-03 -6.59166486e-04 2.45440882e-02
    -4.14791219e-02 -2.30175536e-02 -9.03761946e-03 -5.15365452e-02
    -2.79513523e-02 -2.94581000e-02 4.40473156e-03 -3.60305570e-02
    -3.80314328e-02 -8.86087269e-02 -3.73170413e-02 -4.17476632e-02
    -1.85251012e-02 9.47386026e-03 1.55862980e-02 -3.77294831e-02
    -2.45145056e-02 1.70614570e-02 1.88576560e-02 6.16435194e-03
    -1.50716081e-02 -1.69706233e-02 1.07404739e-02 4.96299826e-02
    -1.06207822e-02 1.22202644e-02 3.95870619e-02 2.88401991e-02
    5.86606003e-02 2.28460189e-02 -8.18452239e-02 -2.87441239e-02
    -5.23256324e-03 -4.79534306e-02 -6.34781867e-02 -1.50882788e-02
    -3.05106416e-02 -2.21817978e-02 -2.59715281e-02 -6.14936166e-02
    -3.31613794e-02 5.62824868e-03 -2.80561652e-02 5.08010527e-03
    1.47582674e-02 -9.67256352e-03 1.06548462e-02 1.01122428e-02
    -3.20983976e-02 -5.10421442e-03 2.33605411e-02 -4.57937010e-02
    -4.82494161e-02 2.50565186e-02 3.72226536e-02 1.37838535e-02
    7.32545322e-03 2.46564159e-03 3.51583511e-02 3.43000665e-02
    2.06464082e-02 2.17617787e-02 5.25996611e-02 5.00336587e-02
    6.64341226e-02 5.22358306e-02 -5.87886162e-02 -8.22886750e-02
    -1.39789693e-02 -3.44976485e-02 -6.03845716e-02 -4.03950736e-02
    -1.09482892e-02 -2.40640529e-02 -6.99403789e-03 -4.39980626e-02
    -3.61507684e-02 -4.29049544e-02 -4.42688242e-02 -2.37586908e-02
    1.44190518e-02 2.20276918e-02 9.06901143e-04 2.89317276e-02
    3.39418883e-03 2.63918322e-02 4.29254137e-02 8.99349456e-04
    -3.77790723e-03 1.70319807e-02 2.13756468e-02 2.35212296e-02
    -1.02640199e-03 5.82681857e-02 5.70958741e-02 5.50738759e-02
    1.95167344e-02 4.45878021e-02 4.22708653e-02 3.27592492e-02
    5.95949516e-02 5.05491681e-02 -5.62286377e-02 -3.59104648e-02
    -2.20704433e-02 -3.45805250e-02 -2.51713693e-02 -3.46663920e-03
    -2.81990990e-02 -7.97292590e-03 -1.34362727e-02 -3.78439315e-02
    -3.64824086e-02 -2.95406878e-02 -2.51391474e-02 9.08289105e-03
    -1.29655665e-02 -5.91160031e-03 -1.56043731e-02 -1.09723480e-02
    1.31744146e-02 4.61713858e-02 3.85564491e-02 3.25175785e-02
    3.71081829e-02 1.69698540e-02 1.11665688e-02 3.50400470e-02
    2.54662391e-02 -1.58153765e-03 2.46085729e-02 3.09365559e-02
    4.91176955e-02 3.42936367e-02 4.77036983e-02 1.94058344e-02
    3.34625989e-02 4.07472588e-02 -4.23186198e-02 -3.35541479e-02
    -2.11793948e-02 6.44828146e-03 -1.63537841e-02 -3.49011570e-02
    -2.11162120e-02 -3.69201452e-02 -1.34828165e-02 -2.02846006e-02
    -3.29827368e-02 -2.20218729e-02 -7.10842013e-03 -2.82097124e-02
    -1.67421009e-02 -4.54933196e-02 -4.67743687e-02 -4.39121574e-02
    6.00670697e-04 5.91979586e-02 7.60293603e-02 2.23503560e-02
    6.45107105e-02 3.43922973e-02 1.02169737e-02 3.02602388e-02
    4.59509790e-02 4.73056436e-02 4.52310480e-02 4.18899916e-02
    4.62578125e-02 2.59625097e-03 2.42787935e-02 -8.25595949e-03
    1.90827809e-02 4.36060242e-02 -4.75265533e-02 -3.66466376e-03
    3.79669177e-03 -1.45978909e-02 -6.61562476e-03 -3.86948846e-02
    -4.78567407e-02 -5.73941320e-02 -6.95782080e-02 -4.45200801e-02
    -4.31494527e-02 -4.30951603e-02 -4.47947858e-03 -4.82478067e-02
    -9.06796753e-03 -3.02837733e-02 -1.32094221e-02 1.78146351e-03
    4.27373871e-02 5.75213470e-02 4.57997732e-02 8.68883282e-02
    6.96576908e-02 -5.22399787e-03 -3.02032325e-02 1.06884977e-02
    3.60644087e-02 7.99013395e-03 9.68856178e-03 3.47244069e-02
    3.13182734e-02 -3.07030720e-03 -1.41612487e-02 -3.78828421e-02
    -4.99105640e-03 1.40754580e-02 -1.71456225e-02 -1.56582948e-02
    1.28883654e-02 3.37003879e-02 -7.46973557e-03 -5.16386852e-02
    -4.98110168e-02 -8.48365203e-03 4.48967656e-03 -5.74982492e-03
    -4.33340557e-02 -3.58153209e-02 -1.64441317e-02 -7.42889121e-02
    -5.24458811e-02 -7.10249618e-02 -1.63775459e-02 -7.89665990e-03
    2.61011366e-02 2.31500361e-02 3.14596817e-02 1.29168602e-02
    1.71367321e-02 1.78463459e-02 -1.08482968e-02 2.58968547e-02
    1.74277164e-02 -1.37064867e-02 3.27229686e-02 4.41017840e-03
    -6.04527863e-03 1.16058823e-03 -3.14813741e-02 -6.02486990e-02
    2.92155659e-03 -2.35426202e-02 1.47758785e-03 -6.33662846e-03
    -1.32929161e-02 -9.75751958e-04 -1.12784503e-03 -1.94927957e-02
    -4.52466272e-02 -1.89452190e-02 -1.01430044e-02 -5.05611226e-02
    -1.97113454e-02 -2.44174432e-02 -1.26393633e-02 -2.19813604e-02
    -6.82368949e-02 -8.93835276e-02 -5.38850911e-02 -6.29596338e-02
    -4.93217520e-02 2.28405204e-02 3.50554287e-02 -2.18655560e-02
    -6.00784980e-02 3.22296214e-03 2.48290058e-02 2.31631976e-02
    -7.85355456e-03 -3.38722649e-03 1.19155161e-02 5.11723831e-02
    1.66447889e-02 -8.49347468e-03 2.76105851e-02 6.70853537e-03
    4.72696275e-02 2.86370814e-02 -5.43782115e-02 2.32180972e-02
    4.61157374e-02 -2.57019140e-02 -1.14764407e-01 -3.40475291e-02
    -1.02013666e-02 1.11432374e-02 -4.73228768e-02 -2.38906201e-02
    -8.38276092e-03 1.56423205e-03 -5.10999281e-03 -9.91194770e-02
    5.30275889e-03 3.61333564e-02 3.41837779e-02 -2.28284076e-02
    -1.73528530e-02 -2.81668156e-02 2.42591072e-02 1.71678979e-02
    -1.39313079e-02 1.52946254e-02 3.70912328e-02 3.03818602e-02
    1.89632718e-02 2.98503623e-03 2.60372199e-02 3.87143493e-02
    -1.89878687e-03 2.27384176e-03 4.15977575e-02 8.33391100e-02
    7.96360299e-02 6.12721369e-02 -4.32016551e-02 -3.77601124e-02
    -1.89051460e-02 -1.63865183e-02 -8.04916546e-02 -3.74114979e-03
    -1.55045651e-02 5.47116948e-03 -5.19288853e-02 -6.90747704e-03
    3.79911475e-02 3.80960964e-02 -4.77385186e-02 -7.28008002e-02
    -4.37369477e-03 1.93458032e-02 6.11958951e-02 1.03918146e-02
    -7.54678575e-03 2.31216215e-02 5.66888526e-02 -8.44608713e-03
    -6.29644422e-03 3.50271631e-03 4.24046069e-02 6.46281540e-02
    3.40652764e-02 2.65793912e-02 5.30975163e-02 5.31811863e-02
    4.97546121e-02 2.47312672e-02 3.35865878e-02 6.67609051e-02
    3.74208018e-02 5.54904118e-02 -3.09352670e-02 1.56038394e-02
    1.88356750e-02 -5.12377098e-02 -8.48421156e-02 -4.23977114e-02
    -5.81804663e-03 3.42481444e-03 7.06379442e-03 -2.26447005e-02
    2.06135772e-02 7.62699218e-03 -4.10067402e-02 -8.47616270e-02
    -3.53570096e-02 4.52914946e-02 2.90174242e-02 2.75273938e-02
    4.25224751e-02 5.14950231e-02 4.78166565e-02 4.52286825e-02
    1.44688003e-02 1.01380367e-02 6.01132251e-02 9.16996039e-03
    8.42218380e-03 6.74916059e-02 8.36693496e-02 5.91187328e-02
    2.47714315e-02 4.56865728e-02 3.98155600e-02 3.95665430e-02
    4.02066000e-02 2.20826287e-02 -1.49345957e-02 3.40959392e-02
    9.20003839e-03 -2.82902643e-02 -8.26749131e-02 -4.32233773e-02
    5.23296334e-02 -4.73841187e-03 8.72319657e-03 2.46494114e-02
    3.57657522e-02 -4.45781648e-03 -1.17500620e-02 -8.85296762e-02
    -8.96048546e-03 5.94590530e-02 3.07415612e-02 1.38829080e-02
    2.39749867e-02 7.60369301e-02 5.81969805e-02 1.70785114e-02
    1.69676561e-02 2.92121507e-02 3.54771577e-02 2.58024447e-02
    1.26446784e-02 6.21678978e-02 6.47782311e-02 4.90541756e-02
    4.35193591e-02 2.44056247e-03 5.32001182e-02 4.34463397e-02
    5.13152108e-02 4.71975282e-02 4.31038672e-03 3.58083062e-02
    -2.79932693e-02 -6.14613034e-02 -9.42803025e-02 -3.55035323e-03
    3.22069004e-02 2.90888213e-02 -1.02521721e-02 1.60695203e-02
    3.33053358e-02 -1.95276346e-02 -5.61853424e-02 -9.19963270e-02
    2.20009238e-02 5.75906299e-02 5.44771273e-03 1.45793427e-02
    2.28123087e-02 5.29748648e-02 9.37074795e-02 8.06348771e-02
    5.54912947e-02 7.73093151e-03 3.61529961e-02 4.74162400e-02
    6.33115321e-02 1.04352310e-02 2.74287518e-02 2.51750555e-02
    5.99352941e-02 1.40816132e-02 1.68700963e-02 -5.09880995e-03
    3.24902646e-02 3.36623825e-02 -9.76743363e-03 2.79952213e-02
    1.64602809e-02 -1.72467437e-02 -4.00502533e-02 5.36928279e-03
    4.09929417e-02 3.66258842e-04 1.76191125e-02 -1.57214403e-02
    1.03577962e-02 1.73713546e-02 -2.65192688e-02 -1.00614049e-01
    -2.68816948e-02 -2.68687680e-02 -1.71351526e-02 9.26464796e-03
    5.19775264e-02 3.51122953e-02 8.99485126e-03 9.11880098e-03
    3.62138338e-02 -4.40961169e-03 4.09221929e-03 3.43624651e-02
    5.46684749e-02 9.48784035e-03 2.83479188e-02 2.64294352e-02
    1.90376844e-02 -3.73134436e-03 -1.92970615e-02 3.53842159e-03
    4.19985652e-02 5.87571319e-03 2.69703530e-02 5.00660017e-02
    5.95796183e-02 -2.28495020e-02 -5.73508739e-02 -5.71748875e-02
    3.92658869e-04 1.23006245e-02 1.53691499e-02 -6.18093200e-02
    -5.72797842e-03 -2.26445254e-02 -3.01239174e-02 -1.07983001e-01
    -7.11181164e-02 -2.94440542e-03 1.93448793e-02 -5.19781746e-02
    -3.00382972e-01</SVMDetector></trained_hog>
</opencv_storage>
